{"biases": [[0.6846851480547317, -0.7027508942460877, -0.9192551224952681, 0.062188082293108626, -1.3468331805384934, 1.4454046079517673, 0.4338098230864669, 1.2847784049709898, -0.09255036093638573, -0.39130711883366387, -1.1884706680744754, 2.0649988471810525, 0.49820851259825416, 1.0040508826212917, -0.009486402503913666, -1.147700800606401, 1.1669252182841503, -1.843383574045522, -2.705428438364502, -0.2708649588965691, -0.608690528904472, 1.2879849965990555, 1.5095633886626347, 1.7569608230997562, 0.6097493711975552, 0.20284874101362507, 0.5346064717581636, -1.0603582298701444, 0.44621461091241377, 0.0962573733032108, -0.3364509282869228, 2.501953253490961, 0.28870713015999366, -0.010876341679491783, -0.3801511607344845, -0.22214551187007098, -1.3714825956791055, 0.5131215835224292, -1.767671983440172, 1.3654569451771226, -1.7396505928001138, 1.7568744162507226, 0.5020642681277149, -0.42685673640886035, -1.0623495642614365, 0.26430109813388564, -0.08479523749471932, -0.005942768988712538, -1.1765922755593472, 1.0303838372432537, -1.4975612508989067, -0.3014498767439976, -1.1644212226497475, -0.7178780828111294, -1.0996519108023477, 0.41841027989770885, -0.7296057540397832, 1.0714453563533344, -1.2211074220973686, 0.5118708603576838, -0.9674296039070218, -0.01107091780419506, 0.24671156491236573, -0.9090655488180214, -0.5147220135111134, -0.887571495075937, -0.5835113418141693, -1.0475745345310046, -0.346429158447298, -0.42739998448119315, -1.72621139021698, 0.2527518970529674, 0.9428883836009563, -2.1543064504267875, -0.5414477327587631, 0.33701438847581894, 0.7417408356430525, -1.1200128792377075, -0.3054106585877388, 0.1324224111456308, -0.2398072385430992, 0.5764984928415953, 0.06293861953972128, 0.676497854162832, 0.6123164428673932, 0.1677803907246721, 1.1097441263375287, 1.0564437502626574, -0.5907108884676057, -1.3792016551113946, -1.6798954067847724, 0.9981812690039338, 0.45982257694324064, -1.3660340968085254, 1.3332581523221676, -2.237392489191721, 0.4121347790571517, 1.3333667275973269, -0.6102840536442836, 0.29119746474021485], [0.24325281189452097, -0.8315148710804068, -0.2559538172665444, 1.1471774098300307, 0.616382194842698, 0.1672816312981033, 0.42065088662328315, -0.4483635965793071, 1.5420291967296125, 1.8759083616699037, -0.9397375589373426, -0.5549263050400083, -0.04457110660112398, -1.4815625069284206, -2.2444477755109298, 0.4067015658813734, 0.72759237197992, 0.6799137702796016, -0.14149510937664864, -0.38597359149946836, 2.4188214932439847, 0.910677013282923, -0.7080709517626247, 0.09119848324782377, 1.6295505902450576, -2.0396646056962284, -2.736569246175621, -0.386662341412138, -0.42265871182107295, -0.1230277034201277], [-2.577286879940374, -1.0744607456228237, -1.2572227284219557, -1.2330834474676116, -0.41349100198756883, 0.20056215095715318, -2.1285971167642455, -2.0863477844957834, -2.016736370103126, -1.1724333734503523]], "weights": [[[0.5290845013961392, -0.38628075414903323, 0.6828421315533533, -0.6426096703790347, -1.5499611506819961, 1.3586987211724302, -0.47126377074072595, 0.15678860663815636, 0.8785185639641532, -0.9830350902136781, 1.002400520071966, 0.31745152809752764, 2.319103854564549, 1.0314927487014751, 1.894190400384602, 1.4458542923286495, -0.8778777356412297, 0.37685911671059913, -1.7704892737259548, 1.0383699684606826, -1.1687227423008872, -1.2846199330822898, -0.496706371080766, -1.3405470160756643, 0.6186879435529724, 0.0648761083413796, -1.9549339336160638, 1.5031400243640507, -0.22002615295764807, 0.8172266869712453, 1.3065542465877356, -0.576579129061203, 0.40229781104388024, 0.9758031699968127, 0.8113280072296133, 1.1673552956466016, -0.7811742711121644, -1.6244627312836581, 0.21585337088718418, -1.0271380213052035, 0.8561081970299373, -0.20675775520447737, 2.0043475411042615, 2.1071713255836206, 0.23524851163412502, 0.05585292476251259, -1.3591909522322345, -0.5879604040240691, -1.397635081460778, 0.07276167879453085, 0.49677146724210663, 0.83960042338471, 0.02397508408728608, 0.4608793140758629, 2.654244644627235, -2.354074313378498, -0.7156793855147864, 0.7625761656643996, -1.0783643110669208, 0.4982034510498891, 0.21182840092950644, 0.33840425270601077, -1.292148604938076, -0.747566756543466, 1.1287274636957805, 1.1510390053403705, -1.2364818696584383, 1.1142898650515836, -1.0760962992599998, 0.5089354401599642, 1.510009827270396, 1.1931882275549226, 0.6385595369508161, -0.954788399706248, 0.06620738853206364, 0.8555965893370573, -0.6284681674484043, 0.8027519269615827, -0.823551736464555, -0.6847207600439333, 0.7801540208399866, 0.6729833336133436, -0.9733518556398775, -1.4981132855209172, 1.2429361356546282, -0.5274762947836811, -0.9408926296085328, -0.6067111914839549, 0.0030274725771586727, -0.8311320996040058, 0.21060297635411382, -0.8158801651389032, 0.2610035526131694, -1.5273056774790201, 0.882723991376744, -1.1431802529913473, -1.7443862491422935, -0.01564794646404692, -0.16531560616023624, -0.9058433126018776, 1.6776274480154096, 0.2899779436056183, -1.212214464106947, -1.3417091471162654, -0.10929928821892133, 0.3755347982065199, -1.1292443586540135, -0.1278790541476609, 1.462620239210888, 1.3802902982573149, -0.6787090147170036, 1.5337612901950768, 0.48404524802770965, 0.618982800124397, -0.032588519063518936, 0.7483668687286257, -1.404567911161383, 0.684093940232505, -0.9945626200868173, -1.1731289680101367, -1.2926341145957079, 1.1598277742207372, 0.2162412839319934, -0.05944536278660304, -0.31266080936029206, -1.0028911619909189, -1.3836052994752435, -0.8756760123642733, 1.7327914875131825, -0.4226831254940746, -1.591217336998808, -0.055008959826058836, 0.12848696714900146, -2.3080048855834687, -1.475080169746159, -0.9143511131230327, 0.15234567878632618, -0.39388875305654036, -0.24208315179374199, -1.4985252573617527, 0.6455745313559562, -0.9338379644454956, -1.2772552295136108, -0.8851927764330659, -0.636906262373116, -1.6540698970019523, -0.8846948858529171, 0.1505361575480519, -1.9810171383321389, -2.574264862445021, 0.5432438624125994, -2.538482786383662, -0.6178277438301106, -3.3240526870886424, -1.2917862603840373, 0.11823760830966586, -2.558601101335353, -1.7052178612300304, -1.4184527554628157, -0.4767037527141692, 1.0242577339011913, -0.12761555769867802, -1.4215370129352558, 0.9995970906607113, 0.6868317296152476, -1.0600482930678095, 0.1774146514533983, 0.0833605575656256, -0.5111015854685939, 0.6917392100944808, -0.08834968975092607, -0.0737535179384718, -0.33608757896557695, -0.28846364927698215, -0.2918567254148163, 1.3729819884750312, -2.148225553467077, -2.6888961264370024, -2.8727537672055576, -1.937582351711039, 0.49061238918872774, 0.1302011414671223, 0.050738950264212025, -0.3237921302686575, -0.38144368175725646, -1.6340853369421358, -0.4821974224034981, -0.9093356432836338, -0.5991116486993384, -1.272007050934076, 1.187247035466053, 0.5458478118755483, 0.2655479595265891, -0.05220021340118808, -0.6603545432750181, 2.9916170769123553, -1.3481596491280798, 1.3237626259220012, 0.030195012446874288, -0.1007311798452316, -0.5566524821588349, -0.2742833137801997, -2.20380969500214, -0.7867100573378848, -0.9949477360818602, -1.154145265826628, -1.6120544630383737, -1.4437826275278802, 0.1936363829306599, 1.241556456365668, -0.17570509506133392, 0.8768130446015848, 0.3658123136209446, 0.4860958015722208, 0.23360900440688764, 0.34105683436079237, -0.24578541712480603, -1.4297881357928517, 0.5747263049085302, 0.17045131222525337, 0.5905803847671119, -0.14158208825637933, 0.05370023020006942, 0.6466815164161218, 1.8196579439009444, -0.8335982106485397, 0.9791287268557259, 0.6551167997468381, 2.06624498180922, -0.525239922423828, -0.4777750880003895, -0.48467253447358954, -0.8595349964540819, -1.3467246168066243, -0.5262197634608098, 0.6754875915802617, 1.3484620429676486, 0.8762794736877965, 0.7135861631225788, 0.3185579755081491, 0.006629824307456072, 0.2307559775107739, 0.12811279044168214, -0.09383691901139433, 0.16558292201887412, -0.18423833440900553, -0.4757239429083853, -1.598554408963677, 0.6410056866785558, -1.2073836894419183, -0.17475268940358635, 0.9473563365959514, 0.8613962805043579, -0.01144364953650313, 0.40041139983558716, 1.3222846824827554, -0.02317539319862035, -2.017460828641301, -0.6076370449327687, 1.0912062131980833, -0.3853739546411792, 2.888241842162287, 0.3096990517921542, 0.8246581622158632, 0.6598117866599315, 1.6115183250065332, 2.813473471901769, -0.6409415193788605, -0.6853363091778736, -2.9666756531154546, -0.7710199833393391, 1.1777363336608035, 1.3319740925107046, 1.395271965542321, 0.6265882637763839, 0.6126091890381565, -0.04585130641434685, -1.1239848077525707, 1.9361239062672757, -0.5203376216740242, 0.48609932921682963, 0.3278141281207815, -1.3457320725516786, -0.18153293671024956, 2.8524738750907725, 0.9660345705461904, -0.2447683052693933, 0.39878183576416426, -0.14947945832027468, 0.6937649208927615, 2.898782373627612, -0.16661667888907294, 0.7529803651737607, -0.4677526280962013, 1.7725693469879669, -0.49739200225623187, -0.36352765094216466, 0.06268701101535848, 0.6519744374050549, 1.603574018507697, 1.318992256028941, -0.2274536388464234, 1.0335244324648392, -0.04606982674805249, -0.511766339129778, 1.279645031492258, 0.41817855036645224, -0.07975824775894186, -0.528030944919678, -0.7992256186121746, -0.36098286848284605, -0.38773487820539637, -1.1852351487164619, 0.3489253936048027, -0.34737885050913275, -0.27584942697765147, -0.18818314694336036, 2.143619343494318, 1.0232588757854546, 0.6250378379346746, 1.4827185954521587, 0.35114413673976164, 0.32967695665394686, -0.492451037322143, -2.1740882643540687, -1.3303086549047765, 2.388545937265581, 2.0595681143255478, 3.2159119520752553, 1.2184727112061855, 0.14370854488932608, -0.1375105734399724, -0.6021287946939842, -0.7797463750184107, -1.4837196932385839, -0.8411899833204037, -0.10416088434771398, -0.9603340052427943, 0.41044948557522376, 0.30932948113729675, 0.10777227720778004, 0.7023446314813558, -1.0941376642101843, 0.3550788427285207, 1.125649883911886, 0.9398051935573762, -0.09347658515328566, 1.219993832891048, 0.7856787936194797, -1.0904969247429195, -1.1831826136453343, -0.8235675829301288, -1.0180719376693905, -0.4556517688591886, 2.0418823744573786, -0.45868401552724025, -0.7613088506535047, 1.1485404065446385, 2.0010342042752534, -0.7366333428911237, 1.4030663236400835, -0.10272113544156566, -0.053523806535808266, -0.24155236467912533, 0.010325452411984936, 2.319338679604462, 0.7764947632034724, 0.869059206800284, 1.8695835237611658, -1.7667003930264957, 1.3613436067368248, 1.9305033518685546, 2.5781831744955284, 2.0082724469993085, 1.0479933030411643, 0.2808732428899879, 1.2771834111112732, 1.3112331334842708, 0.9813041277711165, -1.4592729835470648, 1.2298248652044375, 0.945955758913662, 2.551488356061966, 3.0794998304847145, 1.1558964325419407, -0.9383828045992751, 1.5453214494567142, -1.0090316355850828, 0.3116959192295858, -0.7075738327492775, 0.10354553445564872, -1.1392443176588956, 1.4667088752335953, -0.8903432334985838, 0.6796102547006136, -2.6881572246919943, -0.07850211116023047, 0.3472912877556375, -0.7667169780280737, 1.7351285343052913, -0.6695388088230205, -0.8773177460541769, 1.9274341182120966, 0.0671965972712283, 1.2059273113970737, 1.5103328976158366, 0.9600074274489301, 0.13774301368150577, 0.8652587230803002, 0.792319852729102, 1.3728954732077805, 0.3029520303986845, 2.349351863567465, -0.0591472127803461, 0.7476059923966923, 0.2510017344316799, 0.8141995103376888, 0.003957380563984173, -0.6036873291994749, -1.5845702787080094, 0.4887360976396394, -0.565496424667545, 1.3728276375443416, -0.708459171076384, 0.5778539999849424, 0.6945376917999931, 1.1242828194260714, 1.919629860955794, 2.2588983972825707, 2.8604559445622044, 1.4813523407908715, 0.03869602982126931, 2.776812677209969, -1.311095590327356, 0.2843517254878351, 1.02734364256231, 3.530432293473402, 0.6873310701694004, 2.365082179521163, 1.8334522471437509, -1.6181959824171792, 1.1392006105265302, 0.9073449458891765, 1.026865585454326, 2.094302561363612, 0.9044928895936165, 0.11100573369843636, -0.9632573846355065, 1.531186817765175, -0.21517502441908987, 0.8917579537371776, 1.4841575083814402, -0.12044606787927083, 0.5213756750791927, 2.587457644381444, 2.4658073001439567, 1.444525526428292, 1.5119161226788602, 0.4948515488333112, 0.0017858127339293588, 0.24520909428545143, 0.25490346932629565, 0.8135528730832748, 2.3321115100052503, 2.310418009282493, 3.1641695356017197, 2.639297258661544, 1.5243511656303153, 1.4895394046211556, 0.39728262900199235, -0.9963408775074487, -0.94873877971433, 0.898857303216235, -0.13337120196934163, 1.430863117483992, -0.2302419473586535, 0.6596030066015588, -0.7340837676534039, 0.29140401431099344, -0.7968007754139701, -0.7365982759253576, 1.067435241930906, 2.193328635327188, -1.3242853524137619, 1.1291847765035454, 2.625188840035502, 2.1473668454617267, -0.48981411645415157, -1.6257364090673567, -1.6590496557326375, 0.648740961793525, 3.0445248293572464, 3.757569046002241, 1.833242376123364, 0.6352508986118859, -1.665395351726418, 0.9092496603364199, 2.1890200035654876, -0.5771323696931075, -1.966776469108762, 0.22077707643066932, -0.983803946745133, -0.6845903125741714, 2.3519326194120542, -0.6489580261489077, 0.35681817811200356, -1.2271058557287373, 0.02956724363714622, -1.18370950290711, 0.11737372078997485, -0.2947158045854431, -0.18599705011619305, 0.2834215874016326, 0.8190163862728986, 0.21746741864580987, 0.55021983547309, -1.4621564803128257, 0.9250064464949866, -1.5894454735825947, 3.5108863036288347, 2.688244373182888, 1.1956052234629306, 2.4574650083908023, -0.1296403810413746, 1.8206329437509758, -1.047687657606152, 0.21729796351108108, 0.31949069167200095, 0.4702522253666026, 0.1462352131582023, 0.504747348439589, 0.4640324782560593, 1.2702582323037797, -0.1664687320653827, -1.6179993370476584, 2.232391715322334, -1.6622724634029307, -1.0561752914750064, -2.1554579674178056, 0.4222242030018756, -1.4540255752598124, -1.941024572086488, -0.45735814887546555, -0.31657626781519277, -1.1728257105173727, -0.30735257111380815, 0.5635851337137001, 1.4741445229574557, -0.24749206171662283, 1.0288842616691658, 0.7067986756447485, -0.8673339969964353, -0.2954187204389756, 0.17644488898271912, 0.08407593438563124, 0.5643341238013856, -1.4270597308280142, -0.8931759318944348, -0.04088159747825158, -0.07023632678849581, -1.7006610608044037, 1.8104290211390217, -0.4916448199760854, 1.3519583057958267, -0.7266301635902389, -1.273347310160936, -1.7975509386124646, -0.3828992161604443, -3.7342609383415217, -1.227790459006041, -0.766208782529875, -1.2241427024299916, -2.0979454835082616, -1.341123647743286, -1.627818212291109, 0.2567384356337666, -0.46153693030955467, -0.0978308538530094, -0.6314508832987107, -1.1151029955356404, -1.1175415152384627, -2.983027860803311, 1.2775453285496285, -1.0644202872936905, -0.6430467004916993, -0.9761989508296275, 0.45402716752305233, -0.251830886791098, 0.0858020679616535, 0.17216409150947848, 0.5767975076356145, -1.6620430768063852, 1.1319746855863035, -1.436037434711619, 1.1227983345183732, 0.3068153637609916, -1.9243728897106702, -0.7761482968133038, -0.9786164563639056, -0.7490735096041882, 0.01912497518608189, -2.3878316675997406, -0.1522837235271868, 0.8347499397794201, -0.24751053379972152, -1.7337816773792423, -1.3677331349935224, -2.4218126254966093, -2.0702827654255023, -3.2618877960297143, -1.6345098162169969, 0.30710018747498685, -0.26682585249920987, 1.0386157164749414, -0.10773933660185053, -0.03220558775076721, 0.2716001956995305, 1.1072404464031365, 0.5410446462133597, 1.0063492197639132, -0.9657537480461276, -2.445546351638845, -1.5874724902024513, 0.6710878296806781, 0.7514037201746486, -0.9171232249543525, 1.3116271264297494, 0.32043750031988943, -2.132067827652017, -0.28639704486610595, -0.893727239906579, 0.19723504760597171, -1.559364838407083, -1.9057790631644451, -1.5885806000062688, -0.9319848157063542, -1.0867315831894233, 1.0281994375861954, 0.9287646978823217, 0.5298543413440095, -0.31227276860423225, -0.8370437693562922, -0.4190317025758927, -1.594623436721635, -0.25737198256384175, 1.8051793515892163, 0.22772860147527954, -1.0606933908064362, -1.8684925384887132, -0.9166641812755519, -1.2278406499388277, -0.12744145751451835, 1.1439275447565727, 0.2378024557296019, -0.47402800990883315, -0.7723855724213274, 1.9032202777221996, 1.0618401160231077, 1.1666304039070126, -1.3068814705419378, -1.549878854654991, -1.2806005569315304, -2.355491459939666, -1.7562734584936173, -0.34194283478517157, -0.20324202492484117, -0.007482450066342669, -2.1638323125941317, -1.416474892334038, -0.7051830167364068, 0.8658592690299013, 1.2385105261888312, 0.6284976858526977, 0.3518285317218927, -1.9800481940165366, 1.0709303452783563, -0.7087375478400475, 0.9221094106961395, -1.217566974376234, 0.5197868902708519, 0.7911551034178631, 0.45782568253491523, 0.8449561278868132, -0.366079749882399, -0.11807597585662466, -0.059087184949237474, -0.1441951345488117, -1.0985370588251877, -0.27299727741389807, -1.0206985276341087, -2.08033055310807, -2.145532640615866, -1.7176509824505224, 0.06390325777333912, 0.6955136671301665, 0.20909180396088753, -0.41846779959331404, 0.8664102082750114, 0.12845700478047112, 0.7220978998839904, 0.17689748535108626, -1.5398850266272182, 1.364466577595684, 0.07651925121656239, -0.5307935340633119, 1.2055103364555608, -0.3773249262630737, -0.19391814126023635, 2.4898216104954223, 0.5670282186468217, 0.5053773876578238, 0.3242703159832934, 0.27682379343333213, -0.78311273590023, 1.5543002003170292, -0.08821522254731615, 0.18238073451296527, -0.5218077388122409, 0.12008643488367346, 0.8578637636262585, -0.826431989699412, 0.035842579306271424, -0.789106803730613, 0.805116533002441, 0.40311615118332605, 1.4855108176368883, 0.8258458873753562, 1.0907087685162227, 0.41046313989917077, 0.31675808143725664, -0.08766405234690236, 0.3475776783188021, -2.124791033378885, 0.04702251250665771, 0.2525652968177229, -1.3550820461178044, -0.36183920839724437, 0.4152096369697086, 0.024762934531679822, -0.31467666316971094, 1.026595371883631, 0.25104077932565044, 0.4640108775779308, 1.310627587136467, -0.3761891932100465, -0.04066051370599887, -2.0027374162862137, 0.29019065806406674, -0.003295928877138098, 0.24357257722447717, 0.20813928522657307, 0.05302100730622974, 0.9520077588559722, 1.1334871704905647, -1.1800343257743013, 0.6895581115451564, 1.9238022383375812, -0.5518372306355879, -0.48926850884693834, 1.5727506391882393, 1.5419254110582226, -0.012738332954452326, -1.6581074765388069, -0.6565099141311205, -1.2423410667703605, 0.5969440703896113, -0.5716362924659095, 0.1013659463545225, 0.46179130513376304, 0.1860334280806752, 1.479192108739986, -1.8257076623496615, 0.37007453780909616, 0.44510841521621247, -0.23782605974219972, 0.13215560772148968, -0.49550250957032427, 0.4740776731992418, -1.366026578548035, 1.0459908214872098, -2.317444345870152, 1.6134441570277374, -1.0468488395430156, -1.0312573251750692], [-0.7339379297620289, 0.8671649484431112, -0.0027512951187181394, -1.2342185332359328, -1.6550075837263118, -0.31191775678431677, -0.02282081791435356, -0.45788679651510206, 0.9105220968247633, -1.2931760149828417, -0.7477239439859411, 0.3320655074065575, -1.458039623821529, 1.7597789496307492, 0.42907860807260445, -0.6301913993167351, -1.2787899218878174, 1.1371543310134828, 1.4261936590591626, -1.8493407542528264, 0.4487631496875931, -0.357857394042481, -1.194732352611892, 1.5571271562937776, 0.23673657935993384, 1.0526074706246167, -1.0265583796660904, -1.274971490057808, -1.1624633251305425, -1.8332055250206325, 0.05902755911276635, 0.05190640503868646, 0.5186939141346496, 0.14909488573081023, 0.5695844394929178, 0.6701266325375493, 1.4907080861728206, 1.139942101688716, 0.5454199967448081, 1.223793305460737, -0.711378930090846, 0.36636552992777016, -0.1692285930506895, 0.3711379582315985, -1.20029423224907, 1.4119470970398125, -1.9759458555845753, 1.4496196738318885, 0.05127752645715122, -0.014351111900047364, -1.721960140596889, -0.6474355302525198, 1.3570124219480357, 0.22150488362113688, 2.3876959904116566, -0.34107022504684814, 0.2075572657002261, -1.1411096990202134, -0.8304854890729673, 0.03927205133660724, -1.4899905212412088, 0.4940588487669981, -0.4671994954829732, -0.8399934659369338, -0.464650184631918, 0.2994823688534312, 0.3852392749480487, 0.42075463480040115, 1.276911642736414, -0.14395456295667106, 0.18634168620020808, 1.07180032391879, 0.28195816644203603, 1.4482857108070137, -1.241707127571891, -0.4365318261483362, 1.826067148559622, 1.2564831759477932, -1.0614298194550993, 0.07458973646057858, 0.3625357189620821, -0.7281378919682377, 0.6586918917923348, -0.32796151172503424, 0.16474217144605693, -0.04558968617719287, -1.7292426571828108, 1.0174391932255322, 0.36508927734885865, 0.2518797668103101, 0.4795651568903628, 0.12066627250344092, -1.583244353845959, -0.35226006751423933, -0.4753952991024095, 0.0970110436582561, 1.4636359949430213, -2.0775189320468006, -0.18809897587060823, -0.5429483762129943, -2.0817869046167825, -0.2132827289695367, 0.2155535127483939, -2.455687837551335, 1.0562718883094158, 1.147536172392891, 0.7617284766772691, -0.38590764251549964, 0.25660094862280136, -0.5052085700240633, -0.05339105368335295, -1.423939781660324, 0.7077785495302555, 0.335865090046215, -0.7283925391938157, -0.8451015459443532, 0.7085615522530505, -2.0237221581197815, 1.4201711960510683, -2.387934533835498, 0.9863615536459592, -0.2995363494337702, 0.10728329740417802, -2.3442548266210466, 0.33547802552593975, 0.07815177692315434, 2.174467372776023, 1.087174924895181, 2.3922536721997516, 0.15512108954279585, 0.7712592340227963, -0.0490716334505584, 1.1466244702636035, -1.2567142287119526, -0.34310221074324143, -0.8402754296033357, -0.9237499393296867, 0.16648093631025554, -0.3128289774830399, -0.629313319673755, 0.3702933504086821, -0.6390868607773871, 0.5091340432785514, 0.4123902081867588, -0.006685061419320408, 0.8674883537993979, -0.41927390228354583, -0.30222285986793634, 0.6423346718746428, -1.1778450202910489, -0.7309340930502345, 0.12353319007212578, 0.010904802507107753, 0.21163455697550812, 3.458779653008152, 0.8896462293957551, 1.294205739164937, 2.464817434888807, 0.3774311331584931, 1.1438647498807861, 1.1246346053885319, 0.3928286288733492, -0.0684166119489903, 0.6736523953123564, -0.3273010425177235, 0.8290255972638625, 0.8278569118227862, -0.8575398366422325, 0.6610557462459394, 1.3152954445046408, -0.7521744564398276, 0.9073984118110957, 1.1968920951961897, -0.3740263458869791, 0.24597448883824868, 0.7443060056308466, -1.0243959197684545, -0.5823189996473126, 0.7589324615770277, -1.3044218979952993, 0.5614056162276699, 2.0667724534886704, -0.6927149807709081, -0.16570179685498598, 0.8989340982734078, 0.5971349305622651, -1.6701669730749895, 0.06854801979815728, 1.0689885268032844, 1.082407192040272, -0.10946492872128469, 0.13036965345782214, 0.5132351625292365, -0.1552966575772485, 2.2503129999090397, 1.2994990285717238, 0.13927241021482217, 0.39182910260484627, -0.23008236232625603, -0.2229540365158166, 0.7083551850354082, 1.4072912256396266, 0.7277892322522115, 0.27693606495899875, -0.953205496675393, -0.10296010770699392, -1.389264916438392, -0.5168310492316602, -0.057670195472949104, -0.37410447564860055, 1.4904637312286777, -1.5657756589491005, -1.4373565826176085, 1.5000514820531066, -0.530023558033403, -1.1949456955066344, 1.2119728768250584, 0.8314079070828583, -1.5622205462090346, 0.9365848086892595, -2.3485631851377105, 0.23507735564815133, -1.3848921514175798, 0.36490934444045353, 1.7862372611715107, 0.7089205914914656, -1.0737903567415417, -1.9716637147791318, 1.7476137472310225, -1.1704256589483575, -0.24863245239082554, 1.2177982940369512, -0.051621572682440456, 0.6242079855903426, 1.4819461924726474, -0.9459696287621296, 0.8597913597276273, 0.9791293948119867, -2.2036234872860674, -1.105517241366947, -2.133354763694756, 2.722996498060913, -0.20070854829697793, -0.10070921612537688, -0.5504272362928635, -0.36443534232091934, -0.37948009203864147, -0.5422620814868573, 0.3257222307069256, -1.0996055646955645, -0.5499203976436831, 0.9884489783182053, -1.5605656677895625, -0.7266342977015096, 1.35800419743163, -0.3456402880109622, -0.3315285430917269, -0.725491292308963, -2.071159967710158, 0.9681174920935066, 1.0805141011423056, -0.5574260100810233, 1.4804991004251749, -0.8532449337236085, -0.3716786753628795, -1.2992393001024458, -2.930432706634889, -2.0441414104335838, -1.3042636169607473, -0.412261007011111, 0.41417268377662375, -1.1717619343259937, 0.7233584410491353, -0.1979769842198734, -0.9525402029324879, -1.0282676781127071, -1.4842576114920178, 0.3913622595986729, 1.6086529941561385, -0.8559189143136655, 1.6947200837926542, 0.8676061647684259, -0.024901693720028567, 0.27411244856238776, -0.2430138667437238, 0.256361615154033, -0.18011028285169195, -1.8206991465729778, -1.348270873304156, -1.343268767220361, -3.1984852533395047, -1.5129405927404094, -2.7559791886031415, -4.454642281528344, -2.653987617213366, 0.18700364086985916, -1.03510692153066, -0.20463288892747428, -0.4906101015574671, -0.7023256697986698, 0.4478584820492765, 0.7258326288525391, -0.08652118940375182, -0.6273223173498383, -0.12284090512928722, -0.6421599823456668, 1.3500169428506268, -2.1289647249214902, 0.4238151439245432, 0.32747510608197844, 0.9079550066597406, 0.4989443107035216, -0.6729652012342541, -0.4921157617342815, 0.608240854732371, -1.7400127950103408, 0.5236899701934135, -1.9499384930753776, -1.3597137029619681, -0.6805489015066251, -0.828411415276031, 0.12555388747016144, -1.0320161246097288, 2.5145275369447355, 2.502041407125083, -0.29673440421280883, 1.8682580917545517, -1.8988722547006527, 0.16965178140671064, 0.5293054917966817, -2.3863703665360707, 0.09398721754311883, -1.2260717471910847, 0.37395229113209366, 2.124932245576443, -0.13888582306074992, 0.8161136230906622, -0.5271795662070793, -0.6596966339365046, 0.15743661892021965, 0.6828193831792563, -0.6325042132382819, -2.317545684012363, -1.3388200208317886, -1.3749921967440264, -1.045894249677171, -0.25165675097286677, 2.216366807205296, 2.3026992663576245, 1.656561667851423, 2.9746606489304717, 2.587352947126758, 2.8478027125432828, 0.45648127418249307, -0.9605429485884923, 0.1636428146573996, -0.2887580541954104, -0.6450395442084221, -2.0103393008415815, 0.2997105479001299, -2.7723162196968945, 1.627144130550016, 0.022912906579859595, -2.386720360001704, -2.165475917144003, 0.3212389026888646, 0.14725834015449096, -0.28188210237327765, -0.668445949099386, -1.5759378520004468, -0.2756663151758209, -1.04291514014558, -0.41530995877342386, 0.5208279780130138, 0.712813554314972, 1.686894152649834, 2.147503554448382, 3.70122812472433, 2.7822804431073433, 2.0914821498050054, 3.453093320775301, 2.4220049714826333, 1.8191483357070055, -0.942200578761857, 0.29118396530778756, 1.297675848749139, -0.7634909334867569, -1.1420498634743377, 1.2278842758444244, 1.3937080524272945, -0.0853246869960118, -0.9836279204258888, -0.34610957821607885, -0.16322454985268667, 0.6228371025442355, -0.0061700381805062385, -0.8747910695859967, -1.231148283370053, -1.5425941490779789, -1.3396750733088756, -2.2500301572815387, -0.4231045126102473, 0.5016653707591348, 2.0528173661915288, 3.8530917798221185, 2.718784004531408, 3.278460869111935, 3.7503469065266883, 3.3103837214941905, 1.5598620126614875, 0.08419052308562416, 1.555615965350148, 0.7677815241152255, -0.396108338147627, 0.01507907080257129, 1.269730966144128, -2.290656021986244, -0.5015673389628256, 0.72397768832675, 2.179957158558592, -0.4847648069258544, 1.4411018245361824, 1.585552579740784, 1.5751460271153102, -0.057833493012107884, 1.5678395578468025, -0.7967468247336787, -1.2982224965042597, -2.679675728511132, 0.13347092465974963, 0.4828762030123662, 0.1664342912442146, 2.456946019256349, 3.094306350479315, 4.768073096426613, 2.44998702349479, 1.5915823534045193, 1.4462715276524385, -0.8882168830285102, -0.20029437722501664, 2.038321922616246, 0.8351526915492776, 2.304038384974192, -0.585088857895727, 0.396762791764606, -0.943125096880992, 0.5181958533293525, -0.6155641812373743, 0.1648966689364349, -0.45268439961465307, -1.0908993379571015, 2.6190324725406544, 1.0394702877583253, -0.5329453978798548, -1.8729933480515004, -0.3618921448509972, -4.072270728271645, -2.168386770575188, -2.8063378020745864, -1.0321830288638467, 1.73602019928298, 1.9195171903419506, 1.0742160748980072, 0.5703292879574843, 0.6766946254228666, -1.555448895491667, -0.44273489762133417, -0.8604668827585417, -0.7986139608293603, 0.06335237605887187, 0.8214059665039333, 0.7446693602413353, -1.6273509201948815, 1.53581033339327, -0.719460848179202, -0.3051978321518512, -0.060487034732642095, 0.4381955676232223, -0.5192172175958983, 1.8684291653888272, 0.7229906655107201, -0.2256294995054414, -2.173249008130503, -2.7789598846221097, -3.4089528627825545, -4.3740572530698465, -4.692813335441637, -6.085541151814758, -2.878223771070823, -1.1416591856251908, 1.1082059467487835, -1.5886872489755604, -1.3418123585345136, 0.4033543575766978, -0.807049205187562, 1.42869205710922, 0.8418480444541296, 0.8664429904759692, -0.43786179623675686, -0.6588279820718838, 0.9552608793035857, 0.36952020766067484, -0.7693786168546218, 1.9187684140329715, 1.0754642656694933, -0.8737998151552575, 0.7278209433872707, 0.9960720821533727, 2.041172182511439, -1.0731559784265432, -1.7055671654753213, -3.10472417961102, -3.532080425625654, -4.856299118850798, -5.343708992867532, -4.768161153555182, -2.8608544767581687, -1.974924197107551, -3.0689752703529494, -1.9577526173853403, 1.7658768696182994, 1.8477988139578978, -1.265397002464911, -0.2996436595795602, -0.729053030855261, -1.0850434768010733, 1.6177697015927794, -0.9089083703229115, -0.049250862770904076, -0.8819809746905002, 1.3118096901875058, -0.2576306791683064, 2.3781796525272796, -0.4045220253651469, -0.18164676921036652, 1.2663003474366061, 1.3503176466016928, -0.23825842109557652, 0.8138985622988746, -1.939046383943632, -0.5073056993404317, -0.8195699744861384, -2.843651206470444, -3.571683644460522, -1.7217078796589196, -1.6041542884070865, -3.3747553750779637, -2.0909595267631085, 0.6514590838295057, 1.8927383715575838, 2.3163630662901205, 0.01109811913939205, -0.3499459235712687, 0.6265958185292568, -0.9191624994932408, -2.263426869237243, -0.3211604603526931, 1.589204857047128, 0.46554731340961475, -1.3700448704256325, 0.3942455346387833, -0.14031552286401416, 0.8097486429058464, 1.804390873753606, 1.514329341750486, 1.7395927492386207, 0.1870808841699471, -0.4339090406275186, 0.2038334354996714, 0.7150865107935561, -0.5763699427482989, -0.6360145255114531, -1.6839773789986259, -2.229476824185063, -3.443746810579577, -3.1274387144642626, 0.3374691917906451, 2.071657295655223, 2.1438926107913856, 0.1739608610717915, -1.4930028883907, -0.007765416645566984, -0.7339179474089995, -1.114353963225994, -0.7536338991212288, -0.9748930557282146, -1.3885366279528437, 0.09073117726422313, 0.8271071744916342, -1.039393660945677, 2.264119345026992, -0.22888438043929385, -0.2869251687083519, 1.6024570612575093, 1.343226320142029, 0.5793015728539976, -0.5793295508577977, -0.635741361263623, 1.4225774440355548, 1.0760025910437114, -0.19013670968320548, -0.654293966616321, -2.1267924790241595, -0.26137906625072344, 1.6609227956629038, 0.41976389938754344, 0.509854177676287, 0.3968081305373861, -0.3841798467094299, -2.484128602342256, -0.820592356110244, 1.0467859131162172, 0.9552229527467391, 0.345411453327339, -0.014252982902523713, 0.34557382409160575, 1.2386254815849824, -0.15816701204335626, -1.131459389471507, -0.8588440814358931, 2.7518643300217027, 0.7055216029155559, 2.14052600468758, -0.35363281102109817, 2.255063223084077, 0.42241046352304684, 0.5807816728875443, 1.534814086700327, -0.09688717919718011, -0.7954730306689063, -1.5207148868846547, -1.3734897339002787, -0.9427575475920965, 1.6751393940125983, 1.018873840097116, -1.1739290928021644, -1.12168452421924, -1.0350353853013408, -0.6680910857672527, -2.0548676790636313, -0.8606692197927313, -0.6860434193106861, -1.1714478810621796, -2.3681886291275376, 0.19997695201050222, 0.6372180936611377, -0.9426365384440512, -1.381821473527938, 0.7339815905479938, 1.4594945694522001, 0.8636948653581169, -1.1692308816087238, 0.7002473063191049, 1.9086322861651457, 3.107627153815955, 0.5534136952731321, 2.2384082520597306, 1.9817323999209064, 2.3681323620230725, 0.8881077305544299, 1.9868008145129588, 0.5730247329574557, 0.4458596849084372, -1.608502054537227, -2.9839279396238103, -1.724665225845783, -1.078089747830294, -0.6459479212672941, -1.2542642593299256, -0.17066836857990675, 0.07694400339703006, 0.336429861158259, -1.9153887589730285, -0.9544478302877024, 1.2771730220996869, 0.11644695744172669, -0.016122050589632366, 1.100528838997621, 0.8008514309124015, -1.1806412352239928, -2.3689724629857527, -1.149395830679304, -0.92170712201002, 0.12831527864080794, 1.2274952531817944, -0.0016815498849302314, 0.9215687633909152, 1.74815769836304, -0.6266735098585974, -0.1720064268628133, -0.7469713733079322, -0.7773312485086796, -1.821858586092596, -1.4925598177364785, -2.1867395592354124, 1.3561611365493331, 0.3175715338370056, 0.37053239816219613, -1.308874929849539, -2.0420772029073637, -1.8357568396526942, -0.213123342947316, -0.1161912093726701, -2.310133593487018, 0.3205419315138478, 1.0475617795006544, 0.44461538662652517, 0.7138016840151293, 0.2882839437589308, 0.6252920379129738, 0.5141374316498233, -0.48725680331911986, -0.46317518950514164, -0.42048995969841385, 0.4083007687357201, -0.15053029364780646, 0.8001224237881224, 0.10977871651450714, -0.6895525192708449, -1.7242480472588257, -1.8359158682944525, -0.6352480095336911, -0.5785410165391387, 0.7886965822990358, -1.641080261807165, -1.4651313245493294, -1.1213485410911288, 1.0612169158302054, -0.2874197772018796, -0.8622321676490375, 0.8551585151742114, -0.2715673393117641, -0.16410670821424406, -0.6224904984453965, -0.5432954038160985, 1.1693770020268563, 1.1706974243072075, -0.40039177158938655, 0.7638707493530084, -0.6897693830488962, -0.8992158646480867, -1.4067011285612012, 0.11502815774278502, -0.3798180000135451, 0.7889117073950316, 0.2141964144344047, 1.436745466491263, -0.2134352839860286, -3.3835054992478675, -1.0240399548910748, 1.8111763481334477, 0.3597385561678453, 1.226568539423042, 0.9516023941563581, -1.4057522062187011, 1.100348961913252, -0.6627780084127444, 1.0207447903324764, -0.5070310227741281, -0.004469136583211654, -1.645021816223997, 0.3889259597651131, -0.1785828511658221, 0.5236311342284015, 0.39590615499355103, -2.1037586049795007, 0.39967696559696164, 1.201668385642275, -1.4914419011029851, -0.17863312842899282, 1.2401937058067498, -0.3941333688355036, 0.43561413676505795, 1.7889687933596676, -1.0142060860237059, -0.2561863133682461, -0.7512553117393298, -0.005992418371973731, -0.13115535608104442, -0.370787484184138, -0.7043084286240638, -0.16130501460544586, -0.054279586905163255, -0.7742991417322831], [-0.42012665327428883, 1.7966933036068065, 1.855941102728736, 0.6867134218562506, -1.0082752166325477, 0.3472645655577402, 0.2307826391325526, -0.3971219672037676, -1.359448117314563, -0.21876873216570752, -0.30794309574318357, -1.402190502675259, -0.4916811188147687, 0.4526357362795481, 0.5939314129767119, 0.46296801272542415, -1.6270022817930656, -1.0429152856218724, 1.3351250575563092, -0.052779307111244914, 0.3619305814618816, 1.179075352032276, -1.66271367459283, -0.7818541301020159, 1.5678103173622102, -0.04652044213650886, -1.092706014306474, -0.9221466804919836, -0.9947404209861797, 0.061514458679590975, -1.813401993283599, -0.15470288123716933, 0.09954201928898498, -1.2792252908939714, -0.5424699840501044, -0.8393741331621127, -0.4060144852367858, 0.9849753881210142, -0.7824161283316146, 0.7924801741984128, -0.34381579092784076, 1.5927970510501848, 0.3014768786418938, 0.41788161992397044, -2.7514179354212898, 1.195680045417837, 1.4102149569299114, -0.9471486423872689, -0.42333374631022863, -1.0210147831943968, 1.2933004499826892, 0.4150476593470912, 0.5657780097666574, 0.1525290838904194, -0.5631289429981794, -0.11945428367793015, -0.3707576563929179, -1.2709343673255342, -1.418795838308196, 0.21680832784091872, -1.2694795867012099, 0.49712744896970135, 1.00778523969763, -0.866567090442545, -0.16830106325111707, 0.8549217571091664, -0.29957267529754816, 0.08655187586507253, -0.16028621458176942, -1.55110254671209, 0.18708068165382447, -0.054810389882691275, 0.5300073421992084, -0.33750372901121567, 0.2980720911773537, -1.1147017265197223, 1.6950203215658846, 0.2569433129153546, -0.12462916341394806, 1.0908640692694764, 0.0036613300081629356, 0.5297766178147196, 0.7708116384756214, 2.427541881730706, -0.5224236883573631, -0.507376013891322, 0.9113213931066635, -0.6185027490726424, 0.46430708018338146, 0.10754918876713344, 0.7932307548541746, -0.7252842379789515, 0.7804731469601207, 1.0937105848318585, 2.1563785523010592, 1.4259334811149917, -0.26686070736425094, 0.6669245443778555, -0.5970280506557306, -1.5149265219050996, -0.6320636383763766, 0.35548897719848604, -0.9364101321594303, 0.4536466463084166, 0.5771724899662318, 1.2461496157494518, 1.169534675039221, 0.48134405730317587, -1.5162602356543058, 0.11958575943044919, -0.5535898025218396, 2.3425326610574166, 1.1352858828815227, 1.2583967030938146, 0.06510183344711322, 0.5051104136575993, 0.858308383600904, -1.0297075681945123, -1.6378097279719777, 2.3374659781361466, -0.9462944780525743, 0.06929865871250918, 0.814838897272707, 1.3794030982785201, -0.21204680223332936, -1.3511580223763386, -0.5736223437825573, 0.20807179170766982, 0.45250225213147766, 0.6070307512745139, -1.7442521577121592, 0.6581763900246833, 0.06936279490365396, 1.7054235298216542, -0.7805859863920228, 0.7794381288310465, 0.9536393743016386, 0.974211563732332, 1.550427213525205, 0.5327156143471355, 1.711981866905069, -1.893659194902203, -0.30194549312622404, -0.6839382965071332, 0.1825759124075212, -0.500648406164829, 0.9437571876169945, -1.5282653499484957, 0.34772771890504683, -1.5456770746021102, -0.9468716738497179, -2.042663268358889, -1.137285198438059, 1.803494382674416, 0.6848196945682322, -0.9365142302233384, 0.6279554663356101, -0.303021339980373, -0.7311862320822312, -0.9245856969071383, -0.08286226132209992, 0.7939282796099383, 1.171475584564211, -1.185365347856053, 0.907876324868342, 0.4943531017299824, 0.4382341461960009, -0.35860554491841384, -2.5536649716838418, 1.0090391948005282, -1.9397925859857432, -1.0683789085838928, 0.4136228523466886, -0.7340007870531958, 0.20741890425872758, -0.8140666729215831, 0.2544453893382447, -0.7549610723809121, -0.35261876175091567, -0.3103071943305243, 0.5030724232452305, -1.0042347592149474, -0.24981295841237297, 1.037339711000832, -0.5635979713985478, -1.0339493926075205, 0.4275926016117455, -0.17765213421812087, 0.038300690338710294, 0.7915120719695081, -0.6216635988211818, 1.7063457089780238, 0.6507565262815721, 1.4683789429836493, 0.22447807124332708, -1.1168637143676996, 1.2667523780473289, -0.256949116363641, 0.9316793473091242, 0.36090593130630355, 1.0720853492966718, -0.154856425620581, -0.19286095306230117, -0.3130822076034625, -0.6849284215158548, -1.9016913199019057, -2.529409639328444, -0.572062966628703, 0.7805492039147347, -0.09718963234603874, -0.08818433658645858, 0.3447152915760439, 1.6186079067257901, 0.14620976244660833, -0.428021796519798, -1.8623938148343033, 0.05787855219460373, 1.0687813019522334, 0.2304169564273705, 1.4031672151026393, 0.6034382493908474, 1.2588203803723566, 0.8418286206184079, 0.6294470559914497, 0.7317278132736297, 0.17048731660619107, -0.35481073095855004, 0.19756219169258243, 1.2584270369160488, -0.00117746497434936, -0.8945510556517933, -0.26003789924587206, -1.387276607645786, 0.10470964212604796, 0.3764768905680646, 0.9082743196808418, 0.19221082936132616, -0.001856453180590898, 0.1324460285040843, -0.637625886959983, -0.6859167786377485, -0.5997456858626468, -0.7902541190203696, 0.5811421294174277, -1.0507886223927025, -0.03727645982124834, 0.16529450055708092, 2.908035985489722, 0.3553414229309593, -0.28467961895438887, -0.051544392415794955, -1.3052466649997942, 1.8428048314934742, 0.21143429625779167, 1.2780029274328084, 1.775231998289608, 1.6597480335094041, -1.2847787260565717, -2.464766608985366, -0.493086463558388, -1.659108553460916, -0.42112991022450597, 1.427359261923521, 0.20728909994255315, 0.06565421623011292, 1.5029897841518616, -0.42367882992800154, 0.18540100975427354, -0.5595250292548835, -1.6860059285614, -1.1786734437321589, 1.619939266730667, -1.0722303821487413, -0.9989374355421959, -0.10332840070022598, -0.9270580956370766, 2.129761803030172, -1.9570840283083504, -0.9192351573466653, -1.654991105090651, 0.7823844627049955, 0.5787796124173151, 0.9977791536436509, 0.3276215540805982, -0.26457902696146574, 0.38569267033139487, -1.474402159187336, -1.0285366710693797, -1.5854602942291123, -3.517852666280457, -0.016418488673096955, 0.026482849593872326, 1.0989870148088083, 0.6607618826836524, -1.9095583988087088, -0.302389002129228, -1.0199785542725623, 1.4426765520629887, -0.0788963931840863, 0.012017624400706913, -1.0144380159717512, -0.906571278446824, 0.08404521690507043, -0.4871378644997206, 1.2283583783191088, 0.6876246758313915, 1.4094863928904287, 0.8570949877492331, 1.5918680231978088, 2.482737842522965, -1.0120443245475672, 0.2507911565146789, -0.4653737602392597, -1.0395426431300596, 0.37175426948565604, -1.2140772329778766, 1.3973385942005607, -0.5680971509193562, -2.0690745555813255, -1.2626084246822933, -1.288565942010396, 0.2766435238401855, 0.06669578847377262, -0.010249854309372005, -0.07979141815511173, 0.2056427117884044, 0.3193122762026566, -2.868624069340131, -1.8178350121156084, -0.9321757885513023, 0.16386910678108157, -1.562080401553667, 1.640455342537315, -0.3385034067420389, 1.1202256310290564, -0.1767594432508531, -1.0942766174041936, -0.5369310107181706, 0.039798098166081514, -1.0123295842579996, -1.3041278315056999, 0.34914499827627754, 1.3900772477717127, -2.1977352873486495, -1.666379161749667, -1.271678716355603, -1.123167417552204, -0.144217550537182, -1.575612589891818, -2.5637431666333077, -1.4310369087655492, 0.07620037060883676, -0.8843143989424294, -0.6221694439797043, 0.6113452740576337, 0.8988808692511043, -1.967407855936076, 0.2142075493843753, -0.47819068955818056, 0.05378497205807661, 0.7053944639854439, -0.2621829321464436, -0.6670843022708871, -1.8390444507021886, -0.06424235021909676, -1.0705072249883338, -0.091976498194567, 0.1444807426784822, -1.5612243024546602, 0.32873992890876014, -0.9538083254058635, -0.20546293063524831, -0.7937410204212592, -0.8068859218973745, -0.3378026544325262, -0.2905858709226307, -1.8304943172032613, -0.11409010195484834, -0.18666693070971352, -0.7593244768946671, -0.5347161963284461, -1.4640466883716468, -1.0679194485526577, -1.4147309875685254, 0.3989106662968436, -0.26829503863405485, -1.7572551955127937, -2.2000992553005236, -0.29004987353146156, -0.04278804176457707, -0.1268694310626499, -0.27536746750238034, 1.046673221122236, 1.6115710985451481, -0.8908372285299936, 0.23621278020286088, 0.07250985039957107, 0.3197482940531618, -0.7952773068005312, -2.044599398614275, 0.2330151494824056, -0.08367730797232802, -3.3657695802579664, -0.396413248571711, -0.5214285861355507, -0.7750336915758739, -2.2794605839823507, -1.1797118949353702, -0.8526201210321662, -0.2957934063852039, -0.9267808243528953, 1.066303668314758, 0.056965159813090034, -1.0638793760180763, -2.949206778499339, -0.06425289091568456, 0.5772667236407418, 1.20787075632128, -1.360870850725086, -1.2880365621361076, 0.12730960302923716, -1.3012695112829507, -0.9864311431349112, -0.6443255538395175, 1.1434013395396216, 0.6054488208751702, 0.35279045521023117, -1.1374931818877103, -1.7993995248658279, 0.18893048251357825, 0.6540486922724392, -1.8123712019180491, -1.0784601561305946, 1.5946858210400254, 0.42703188321606744, -0.19204183345554343, 1.010166357815564, -0.15472835170852964, 2.0396177575686645, 1.615124724142947, 1.0516055458170508, -0.2532753137979562, -0.22373313553046703, -2.228656320854761, 0.48920074848885475, -2.590249726476019, -1.1365723992972134, 1.7799438166818202, 1.197686622541743, -0.47393588367447975, 1.173220946376883, 0.04883775729169849, -1.0047746261320105, -0.03260767464332662, -0.6592604987281565, 0.4786483118477915, -0.05745919039051934, -1.138615532132419, -0.050904739632162244, -0.06691456654474037, 1.0687650102582567, 0.2610019541365682, -1.4437249404189705, -1.3533841926455927, 0.2707681067813761, -0.12937927375302327, 0.7605567447804761, 0.5207401560462054, 0.16411663336322338, -0.4002914278859376, -2.363677004643608, 0.19493948731176092, 0.9058146020311103, 0.4519733758280807, 0.4090564860822013, 0.20127709251500958, 0.37379431890357057, -1.2049139931235484, 1.0147893772143717, 0.48385981844838727, 0.686753347558462, -0.05262925513301726, 0.8889150410262364, 0.2080103097304148, 0.28247673184819433, 0.41401714733030825, 0.1777640023280029, 0.33648188165174603, 0.18591923118501613, -1.2969109702504797, 1.6150188900042421, -0.6124848422156246, -0.7669179207420855, 0.3549815656745825, 1.124413513931822, -0.6967507394286765, 0.18559052661351122, 1.0511782556004654, -0.7037396945536809, -2.6120578409139026, -1.2531592390571382, -0.046335634033385684, 1.436581971136978, 0.4965236964349384, 0.40833505060937425, -0.7617454927851088, -1.4140367983134265, -0.5906683206553773, 0.7374410047003306, 0.20385745323523244, 1.1228291419399425, -0.261765750519221, -2.1570254195407004, -1.22355487052054, -1.4519875183198943, 1.6108494978745083, -0.73233980461589, 1.2416210486911574, 0.04570914467359853, -0.5539157539153351, 1.6417336224141654, 0.34590305199142957, -1.0971283205350864, -1.9461419365775185, 0.7165987939976729, 0.5197103600365014, -0.23038585198220612, 0.31077583282067267, -0.212876900838384, -2.4950000415259286, 2.117651737128581, 0.0022631469774355194, -1.1350062820771012, 0.10938113342422331, -1.5347774825550704, 0.3265875460821994, -0.5685611441888325, -0.36221421751837973, 0.8582048424635803, 1.2021060064477447, 0.31366445580062013, -0.8666349363711567, 0.9444813486212545, -0.3010885774030748, -1.5224470475346252, 0.9960503664898854, -1.0483455542969389, -0.7298744732713768, 0.8573810355341834, 1.1020541318214767, -0.2046652155395036, -0.07992250757203476, 0.47186626577910895, -0.9502822440322223, -1.9714418102341478, -0.2865588970854937, -0.6606456533251508, -0.38346258739663197, 0.20219975953463298, 0.6940445072801633, -0.42935062024433823, -0.0035471626721950613, -1.0126843518542032, 0.023396231220496166, -0.9878277501236074, 0.8945366495996175, -0.8361379097391776, -0.09801916735757638, -0.07146554348141315, -1.1501213379826765, 0.5339253451454142, -0.20817923448927886, -0.5249923278714477, -0.8816307861271877, 1.2162757586875164, 0.7457116780935455, -0.988129116865225, 0.4948784072311184, -0.41838872817628636, -0.9884318460615713, -0.9141393904181477, 0.049008850087335756, -1.3293191320948738, 0.25886668623865433, 1.652755361803685, -0.8608012076099201, 0.6411334468786227, 1.5718913321057326, 0.5314776502890104, -0.07497295855676793, -0.11804665353567387, 0.5816415331454989, -0.5190674495074716, -1.6568056653195355, -1.9361045691048835, -0.5582335138437058, -0.921585654285965, -0.23287028469550836, 1.2524096982442572, -0.24161372651571264, -0.9097075149034218, -0.9330123602183417, 0.46824792363026374, -1.242720465846582, 0.7891736544257446, -0.4198724866553906, -0.8826315509894218, 0.07469066971305517, -0.5006090783466776, 1.23560752899441, 0.5902020887630935, -1.3195168415635186, 0.7234884038815471, -0.34143625096105534, 1.6776167726092799, 0.623485427779518, -0.06544924837803542, 0.9499051790411969, -1.5086706571693744, 0.507255536895478, -1.7475678916681066, 0.3400528886030802, 0.6481645875930933, -0.30368241067545965, 1.0592382508029208, -0.8254170943715349, -1.0807401379717847, -0.22996940546922412, -1.482653080608526, 0.8589593866704597, -1.0502960105244938, -0.42455032821662647, 0.19627943780990417, -2.5095863111268706, -1.124757216724083, 0.2773208895158171, 0.31310082722190863, -0.7184368569928128, -0.5884990267080312, 0.3837705157762819, -0.022222988500975066, -0.0910817151990318, 1.235576904972774, -0.17011940046817342, 0.8786604337491152, -0.4631774234649252, 0.6124827351947951, -0.5519087309900307, -0.4199610515853292, -0.5556074932442838, 0.4746375645990988, 0.6768240592557353, 0.9822809277100437, 1.508413445763083, -0.46843561696129565, 1.9548910930787908, -1.3232831532830203, -0.023902447723268175, -0.7514918887913563, 1.6034143489923363, -0.5031524534236897, -1.932136719628061, 0.8432130517803176, -1.3630244439808104, 0.4659237574173804, 0.6130570553480341, -1.060193201700523, 2.022567652997021, 0.8571276070288742, 0.0004415354900633437, -1.6580710213916798, 0.066469153024737, 0.5053746201357653, 0.12190027517843713, 0.08712859652903804, -1.51785270226474, -0.9230165502182045, 0.20829772559903523, 0.7145575615188385, 0.10521239771369353, -0.2606530894554096, -0.8626286520969992, 0.5227972364859664, -0.3888839046384002, -0.5042603490135809, -0.7968719703859327, 0.2785370423296756, -0.716101183776813, -0.37286633706337363, -0.9490756207179911, -0.9074834072792407, -0.3632486824597826, 0.9958922191674594, 0.09881609247600928, -1.2046379164136756, 0.5381250503453389, 0.175750618602215, 1.4945016854704234, 0.939244775081341, 0.8117498053197926, -0.13973811244752438, 0.8894958845269344, 0.6187119830940733, -0.28506427636219106, -0.6286142846242246, -1.3479917032060262, -1.066776195568408, -0.5231558823707103, 1.3269589576085075, 2.2970970905930828, 1.0441795799521691, 0.5541531995002257, -0.19262892547261393, 2.51139187589948, 1.3494322499671192, -0.9613259771707204, -0.44544480058436287, 0.24459164793213153, 0.5989717697156158, -1.2412462219240967, 0.14800628351409356, -0.7391637924557426, -0.19522109448491592, 0.08524408642225963, -1.5788042735908343, -0.812429817328292, -0.22029969492127952, -0.3222445722355834, -0.5308635834725662, 0.2126582079868426, -0.06413909804140132, 0.9889761066784878, 0.0970541381102353, -1.0104459741607972, 0.7851373385857081, -0.5212731033481319, -1.2616741369111935, -0.6854985703106216, 0.2907882168136419, -1.5737506137270583, 1.8911280204163727, 0.3523895638641428, -0.054011360151158455, -0.8524884411305076, 2.0056544840747565, -0.46467146783602403, -1.171963055302349, 0.5246299199979187, -0.037160670796516575, 0.17720950501085111, -0.5043838098628767, 0.14149452649778993, -1.8683947543904666, -0.17241949682244564, -0.36533030404377886, 1.7957389738154785, 1.8701698175420869, -1.6651175723345601, 1.8188947678203526, -0.5803210398099768, 0.5557589981796738, -0.01595739623377045, 1.893702116544687, -1.2492193808558654, 1.4489348078305866, 1.3631222227139879, 2.2746826067992894, 0.7017392460089248, -0.5514331856618225, 0.4123052937115843, 0.04586960699005626, 0.6938740917457519, 1.0767801387437541, -1.058659069891288, 0.550334237178847, 1.31676185893369, -0.07813082821481812, 0.3736501297001913, 1.559854746538382, 2.0435482478929163, -0.36256793937142984, -0.32776526532309047, -0.9745480804742359, -0.36383688257007274], [0.6654595402180954, -0.5672060148870344, -1.1543707728668262, 1.5217647001010628, 0.11292508083004452, -0.3375327790709461, -1.2632486982017734, 1.330961290323967, 1.2312223781648113, -1.2524841807892222, -0.769375321115974, -1.0111334368700202, 0.9750811894009185, -0.333358703756031, 0.45553957114336396, 0.5183678391815313, -1.8862104678649545, -0.9287985643555955, -0.4395462311001855, 1.9718088756908554, -0.18135895863731066, -0.8776423709185688, -1.1475407888427351, -0.07596886695878437, -0.26443686421200696, -1.2544029672713175, -0.6479036576444442, 1.677677668332722, -0.5777689593814361, -1.297987704471191, 2.4960371260967587, -0.5099174201503331, -0.3139496828741696, -0.15919725149522757, 2.109063737843404, 1.0718360450030608, -1.0536463056011889, -0.06277458543526897, -0.575601520710956, 0.04526957141001466, -0.8564131423307052, 0.3370238354340383, -0.13753102700117703, 0.260579469026344, 0.22158584601862297, 0.5356188146262292, -0.5554564067289668, -0.5250589581542272, -0.31599721689278554, -0.45645299356217983, 1.0079387002574296, 0.654422019837674, -0.6007133286833604, 1.4954665035598675, 0.07580092300044214, 0.28787327559134684, -0.4202854405596036, 0.35698830131994647, -0.7805770780998375, -0.08672298423383129, -0.22040651965278876, 1.7920852879611773, -0.04291991052056296, 1.0020974625030918, 2.1494777393002873, -1.6759486406859234, 0.08721191618584781, -0.35849965828384833, 0.8261842526141931, 0.8797189317267261, -0.5107669652274442, -0.8390457382046163, 0.7758947699524928, 0.8952670943190066, -0.6791689144983715, 0.23974392605559333, -0.2772641178483283, 0.35592858897499524, 0.5896118972313843, -0.7568534267861592, 1.7082446696115734, -0.15103645117240705, -1.2927875577208192, 2.221335231900626, 0.49466461173803505, -0.1255434938674888, 0.9339570225285396, -0.9567142419947346, 0.9309655812110416, -1.1350090840824125, -2.266588560761766, 0.007471211791282489, -1.5471641256829525, -0.33992580323742716, 0.29395338912132934, -0.18162598434885213, 1.0176398907123962, 0.12222751274018752, -2.080218933144608, -0.6028071065968468, -0.6494307096036295, 0.9437540973169112, -0.4894854871272334, 0.9630519788717399, 1.3446429863109959, 0.7075242926650112, 0.07184308840056353, -0.8230728391705874, 0.2748149707594038, 0.9515902062983257, -1.113857279648153, 0.43778690230552897, 0.2531715027402743, 1.0048651330102807, 0.7330498273406453, -0.19043694356698618, -0.6981897480748801, 0.7646095239519672, -1.0650663547574108, 1.0153487814014754, 0.7632469322242759, 0.2738189151526603, 0.23115755382179293, 0.643109807315592, 1.3145491747938916, -1.7364892808344516, 1.370488597753331, -0.8810289255666377, -1.6268949205448213, 1.8159361989898286, -0.11244578715746945, 1.0991155715084697, 0.9675203430087056, 1.7436474477885624, 2.0620153782573127, -1.1938028392547169, -0.27224306227003925, -1.468121758295843, -0.4956205082403668, -0.4788217339702139, -1.3996740635644402, -1.444925109871003, -1.0672083066693887, 0.347916273644807, -0.3184411745552181, 0.010200758657467484, 0.8956859764000225, -0.03435616990335431, 1.1486767514740932, -0.368421765065314, 1.4447983086078597, 1.8665871448142473, 1.64252788044321, -0.8117540105989641, 0.11831296609453605, 0.04463610610679982, 1.147970441176261, 1.837565473230051, -1.7572646086723398, 1.5366156386987133, 2.0651171645670017, 0.7112169781132669, 1.0003393718205589, -0.7501197114134135, 1.4958996508780156, -0.7834343738267877, -1.7059230923793653, 0.372347760005573, -0.041084595663100076, -1.5253026774070317, 1.422999285618407, -1.1949542073918347, -0.20421577508682454, 0.256587521893947, -0.7740406568484604, 0.25460596606692504, 0.2710862565009622, -0.08888657844952615, -0.6137237041139892, 0.18416442161823038, 1.2415112754133484, 0.2377802892489882, -0.23135669316495838, 1.3430513054449664, 1.646544997609981, 1.023017113546182, 0.6644174371045685, 1.9127512301478897, 1.1632370658995723, 1.1108687693346968, 2.3319611630543564, -1.4411058077758077, 0.11909619461426511, -0.18871435831509054, -0.8040688866352552, 1.94350781846146, -0.2902006270453103, 0.24775572453767408, 0.4336873852781391, -0.05099126600625779, 0.8796798494473291, 0.05875083415743801, -0.27374635046921664, 1.3661009169105067, 1.850468359312349, 0.814205447570915, -0.24689979971393958, 0.2910522173493548, 2.6619019481614763, 1.489437484717914, 3.3671416281198323, 0.17747657419101, 2.1203395021686555, 3.0037917915728927, 2.77373381554935, 0.8237586531563941, 2.4669142252717853, 0.6734265535541777, 2.098250827892711, 0.7777250838613131, -1.2042337803250722, -0.9984356451761015, -2.9667806656810565, 0.17880135085972423, -1.2569659161279483, -0.47481564738537385, 0.11506082529661753, 0.7072377396670888, -1.1389790508835258, -0.8859372114379149, -1.6736766084218715, 0.251774150962779, -0.5541703263039087, 0.5836754947709003, -1.4716285724473561, -0.3250659508857432, 2.106685552985195, -0.2207170856966007, 2.2065423941333684, 1.619594228015861, 2.100817521731339, 0.17554331603495982, 2.2468917177117573, 1.2867565993368653, 1.2957790534750797, 0.402265296553023, -1.8876515014267692, -2.7061089349079728, -2.3029342188535304, -1.4555731043481654, -1.933791793229937, 0.4172736410300343, -1.905702538604687, -0.6197480480572854, -1.814045955258304, -1.3337822619263928, 0.11442698236725761, -0.6590705984819035, 0.5943492639443778, 0.632458291527697, 0.6673136463354984, 0.7576315756736773, -0.01861870133617922, 0.5045878932713665, 0.7733607779781331, 0.9744959884408229, 1.5217304228052106, -1.3311589109537056, 1.244636387308085, 0.5338764634727955, 1.4876771616556834, -1.5701368946702996, 0.6902379672163541, -2.216590499493094, -1.8442134642056016, -1.8267706386679996, -2.08968986874293, -2.156569295002407, -0.1669485303021292, -0.24615403062917166, -2.224749043308139, -0.24418079440163454, -1.5812251957416987, 1.2651022521716255, 0.013296877269290065, 0.2593170768344446, 1.5308303765954894, 1.3872837828062294, -0.5736725612191771, 0.3657134023003434, 0.8569399632348427, 1.6355424174020599, 1.6227062931012755, 1.2934471289626734, 0.654624513554964, -1.1493895145754425, -0.9202380580286051, -3.2543503504948426, -1.4771718481137275, -0.736936847576708, -0.023120671252558022, 0.7424163932869849, -0.2875696674058052, -0.9601176330241625, -1.3918598102338775, -2.7704132463624576, -2.309137663644721, -0.36984055825857676, -1.4243646720806185, 0.6575660599782619, 1.1668681799397183, -1.8203531463851652, -0.9105884400961414, 0.07124500391542882, -0.397214613142685, 0.7196245367997459, 0.8896123940606971, 0.06267410887321023, 1.6212775118022191, 1.2236170657024241, -0.42591508168298775, -0.339933757354368, -1.287120731839787, -1.5625192592550425, -0.3027551864786131, -1.1391721596811726, 0.03696930966923151, 0.05717282398361008, 1.4740353669027912, 0.28227551498599807, -0.6965912100790587, -0.35694575082635427, -0.4231672655104589, -1.750811136065056, 0.35720682981350177, -0.5385365905302046, -0.9670284097380222, 0.9414954718130283, -0.021734963720695215, -0.42995539470776595, 0.3578083733292561, 0.7895268103154633, -1.886767312263862, 1.5690687296576427, 0.12857833324690904, 0.8496886237506286, 2.305986728754065, 0.03246592822135378, 0.06620701607588982, -1.9878167581858424, -0.254138817338075, -0.0003142263135792355, -1.5918959720608292, 1.1605193325120458, 2.2831032453543254, 1.9243348955248765, 0.9363660369587694, 0.036776329987939144, -0.46399641440970263, -0.18576133233023712, 0.6140988470854654, -0.9632636110533258, -0.7352350322192541, 1.4892029665780857, -0.9484067285420401, 0.04238344734189864, 0.8448402055115841, 0.8753684890889214, -0.8795699631442846, 1.4779878139293496, 1.5906486964301187, 1.1417835278387682, 0.07352948310103133, 1.1393683378181603, 1.2400518331069796, -0.3018289320129818, 0.2077555963148198, 1.0461484644091477, -0.6657279869111543, 1.9340084990826625, 1.8636372895769473, 0.9015784758937098, 1.2210810540498984, 1.0508935812433116, 2.7398450655426085, -0.06423880241133528, 0.676463699289975, 2.0105501063496707, -0.9161659951753457, -0.18789377819744518, -0.7078129472724136, 0.8238540973940675, -0.35535871008006725, 0.8796009074986622, 1.2982260764450257, 0.8892418695265654, -0.9653485806176015, -0.49955161637061346, -0.5956410069932384, 0.39237136597923006, 0.4350753124877327, 1.4004332336940457, -2.098909325457674, 9.88991976275851e-05, -0.9083167208156817, 1.6407092427725252, -0.25802159128275143, 1.539644011411478, 2.142449509624934, 1.1276089606073538, 0.889243312271684, -0.45287811494181646, 3.5291416449453195, -1.4895932557588851, -0.25802660300034486, 0.8788762942748162, -0.9275493095890639, 0.16070897068744044, 0.8464156666149583, 1.3678027698278994, 0.7243222559476166, -1.2597580511571893, 1.1275890851557804, -0.5126954702397097, -0.3892955655350595, 0.7146954013843282, 0.9575994741398121, 0.5518209910744255, 1.351048988984868, 0.2957376370798118, 1.4556777919915096, 1.0260126162790584, 0.9396109684176701, -0.09248383166661898, 1.4605258449208185, 0.43944367531041145, 0.16056323572692432, -1.4428385757297413, 0.004422400645050144, 0.12365906621549601, -1.2354078544733393, 0.5068679203566898, -0.2204232459955405, -0.6843206783610075, 2.3686602679775985, -0.5699985780934572, -1.424491081363668, -0.4246593799154854, 0.21262184941377676, 0.7377894513262725, 1.335540104046114, -0.5385300035843105, -0.6227135291428066, 0.36364942675730993, 1.1581529621555042, 0.08876056028162366, -0.22152305568810654, -1.1239224810536688, 1.2427708390082317, 0.4434211576036881, 1.6346510878129796, 0.5448145659639865, 1.8512445148026497, 2.566241605839624, 0.5433384663550208, 1.775381543159831, -0.3024907120758022, 0.31399625345882665, -0.45772526240376304, 1.701136829630693, -0.8551229366028605, 0.5857784076064533, -0.42168859615908083, 0.3686617385884421, -0.6922888544947705, -0.22144322609035838, 0.003218227194727373, 0.8869979989674669, 0.5646099665052526, 0.17610250387234044, 2.39330811596623, 0.5412214146821763, -0.5407752225475116, -0.8067075041693764, 1.9066743252588731, -2.11732755441429, 1.1503732556397603, 3.0185249109873773, -0.5901204814678106, 0.4708733632872715, -0.7841922225326051, 0.6172048453021165, 1.1715068419666725, 0.07105551335995491, 0.1053814941978299, 0.9293952762456708, 0.4814269182464257, 0.5890347899881482, -0.7130619491005685, -0.5012478284300266, -0.7677176615763802, -0.3105036881844856, 0.6426714124144313, 0.3762445801796344, -0.729187231051461, 0.7961755855632541, -0.2962178073724325, 0.786084766792178, 0.37366427473595704, 0.10051562561524033, -0.33068035112999455, -0.695383717063305, -0.9484282572429596, 0.29634842952741064, 0.5488837160454562, 0.6500999359070437, 0.6236921109878355, 2.224058770429127, -0.9677022714100667, -0.505092710452557, -0.7323485345082041, -0.6379018417660486, 2.113249873259751, 1.8460005576331295, 1.1993859418406554, 0.8494946768754893, 2.529163909656553, 0.7483364396354346, 0.33175151890955745, -0.08369706427416748, -0.840712796804075, 0.22539882687783408, 1.205891605994395, 0.18371437212877437, 0.7192769410002409, 0.5874534232625812, -0.07694099875489867, 0.19221088731457656, -0.16913410045854382, -0.9496054346418293, -0.8912006628523631, -0.11535405944710467, 1.4217257795003868, -0.6134551240520488, 0.4504010994712748, -0.06364135606320252, 0.1560348835289445, -1.0300080942997833, 0.5854876833490111, 0.022585688137521303, 0.19542067425390103, 1.3008806901122751, 1.2844911699994794, 0.25927455145505884, 1.0590592292444532, 2.249510337108123, -2.106864263855714, 0.06986454776314541, -0.7438234996390899, -0.45258485108437135, 0.22800468948308206, 1.420565981154108, 0.10934007280393235, -1.2676875394746099, -0.6110145794731746, -0.8257527869629189, 1.2873137331684468, 1.1039668984345747, -0.7399123369310509, 0.11669899305826646, -1.4061420478714675, -1.6236893021028236, -1.0233007117663662, 0.5894628188062592, -2.482152835784257, 0.3857192855678207, -0.34894118748699654, 0.5036409141891213, 0.9680829010339823, 1.1908448053803073, 0.7694331982565538, 0.7966756548725273, 0.6172120677951618, -0.9990455270399956, -1.073362910800605, 1.875144162085294, 1.485589974906758, 0.7198094314684802, -1.8571835498137164, 1.8288131408222656, -0.6769900000675868, -1.3558724662350814, -0.0013742208629562206, 0.5755902630100832, -0.3641010179656647, 1.0863742683957034, -0.59630805810798, -0.15314055994058207, 1.1601551801634304, 0.6425951148331288, 1.0132224352111958, -2.122393612689291, -1.7812563248677353, 0.5068394560997486, 0.28714269312234914, 0.21073731144879002, 0.35015360667473483, 0.18373965568426007, -0.44752273440190415, 0.3167366369714459, 2.5118202182936256, -1.239165890304673, 0.21356168222431432, 0.9560333664642425, -1.4942539487844193, -1.355669920377297, 0.5331957261897077, 2.161081494969762, 1.2715060779062948, 0.48367196401603985, 1.382793997714115, -1.886787164328859, -0.009844909881098813, 0.19796876824549817, -0.5772252679475677, 1.0597882858830063, 0.31043214606665576, 1.6084684389783777, 0.8357695055211211, 0.42909232137075154, 0.7837804698990597, 1.37173957954345, -0.7895570046679004, 0.5761829646052941, -0.3334175778760252, 0.6610168035346978, 0.24119700029065066, 0.3306432075872269, 1.0994364566301384, -0.313282096309185, -0.021716710086115212, -0.15238301237790086, 0.1234315868196254, -0.9877601584741974, 0.8124346448651559, -0.2806685316130604, -0.291547648711916, -0.1968632112847835, 0.8531545625201526, 0.47502833002200645, -1.2024214048234663, 0.8801076418017904, 0.19031533661897743, 2.0211224643894736, -2.1778204736181577, 0.951147221571601, 0.8046816008070611, -0.4001755877344283, 0.30214823735121715, -0.4100401108957645, -0.0006788059781645265, 0.5334648371660974, 0.9530161930902126, -1.2100137438908678, 1.282592945334911, 0.08623266802654271, -1.4511243111039491, -1.5060059899286262, 1.82289543291061, 1.136645413929362, 0.22285150321603442, 0.18455479924898444, 0.13747773134536082, 0.13264243716943755, 0.33418347600195797, 0.2114869220094308, -0.20976245206166338, -0.532076587650473, -0.6782912974921907, -0.8020911761256463, 0.38962605148967433, 0.4767825235537917, -0.509754480008824, 1.7144598783814473, 0.6956930602656062, -0.05736940091827351, -1.6348400365150915, -0.9543045710326343, -0.22969090348112364, 1.6951667883876373, 0.6111378818461617, 0.8226983180718613, -1.801402015825873, -0.50051278885732, 1.5878243446473892, -1.4546465964254927, -0.07848950401711353, -0.16597225488202852, 0.16504449308360833, -1.285467502192437, -0.2572005308988052, -0.3496220539821183, -0.4624537798816925, 0.10813480826095274, 1.5235787278231951, 0.8537839894835694, -1.3852691317951422, 0.6155626869129716, 2.749523930284627, -0.09536540058504898, 1.2991917137093254, -1.261848352303643, -0.6203425425670798, 0.8049322255766022, 0.8387454194926065, 0.003667459304109956, -1.2105234994599845, -0.13775575977507498, 0.5212651728955892, 0.07058849067073368, -1.756460587596879, 0.3876872809728414, 0.9906172499181051, 2.007178489901709, 0.4271778074555729, -1.946612252295388, -0.7821338881217114, 0.0872398652379639, -0.5246128633592247, 0.28066292806343796, -0.4895752962315117, 0.0813793133312311, -0.30832256301667105, 0.8705826217600351, -0.6694013005744784, 2.61608757182072, -0.8102451688606073, 1.2015213460007923, 0.09827549476854394, -1.9482483728685265, -0.7910257138208051, 0.4495387348223887, -0.14939252224014093, 0.4972736339581648, -0.6328521644799275, -0.03629098408429487, -0.8209579902472282, 0.4941208882883272, -1.8536916899235827, -0.8182502555002583, 1.8759678199192231, 0.11450331528441232, 0.18431833515055054, 1.3940497782786005, -0.45522163124773235, 0.9526746400863046, 1.2986410776893555, 0.3005867809275237, 0.5383810150345184, -2.522765577940253, -0.9855853415783205, -1.6536657204864884, -0.6049748632525194, -0.11295829867303661, -1.278567679083501, -0.8361202516471079, 0.1886508778487062, -0.2989227249637471, -1.6344547900549247, -1.5805950237805964, -0.8757963752340685, 1.242072033820128, 0.3725414294218133, 0.38200861670341446, -1.292937536548261, 1.691452865866261, 0.03437168487432676, 1.034659907065489, -1.5867376191035156, -1.1577740605054654, 0.4581500644131626, -0.5961674882585638, -0.06931578393309683, 0.8924821888454915], [0.8782674299296811, 0.9056181478658216, 0.283885601367711, 0.23808387118509652, 0.7220062502088047, -0.9951521453871236, -0.38181175966562103, 0.1759197084102478, 0.5057259266387533, 0.09582010261614697, 0.16902570692446953, -1.7195253452712485, 0.8540055722475977, 1.5798859269784553, 0.06295538364814242, -1.7886353631634582, 0.2146182232548073, 0.8157466143084929, 1.7081485662345453, 1.6318794895770805, 0.2767736084929595, -0.27931658326396713, -0.6701985460296906, 2.38556823166493, 1.7333628373214778, -0.33312652121816105, 0.13593073408065606, 1.295946654338183, -0.31252747007898585, 0.3318355283684393, -1.0550096145282022, -0.8536055230961145, -0.7248609458570345, -0.538413729046341, -2.8400008787856867, 0.2711449040231264, 0.3609268240906486, 0.001768667469794058, -0.7411550942696425, -1.5345112701620067, -0.1644751387557794, 0.4277647766402134, 0.9056576243878196, 0.9105516341017548, 1.7344066138606042, 0.3323026436606683, 0.7729520409586262, -0.4684843301657619, 2.8491959048281568, -1.0893171918692268, 0.4763262180134514, -0.140417247751966, -0.43611628080209486, -1.0004487082787061, -1.2665318856918542, -0.9389196394192842, -3.169447707755642, -1.3307898571229926, 2.6604595312194306, 0.3901761355386632, 0.4447081884571469, -0.8808826661846552, 0.1536016218030638, 0.27617239315533737, 0.34293614876626727, 2.162894349748819, 0.9332688851708455, -1.0532447442051718, -0.24730670760794013, 0.8007514393469091, 0.2981398233987422, 2.070420812066323, 0.08789648425924974, -0.6046246662662975, -0.16366995916295318, 0.3906911222509123, 1.2738753176492008, 0.22271449465861248, -0.7310741359495061, 0.9974700879433813, -0.9212743107712358, -0.42051277588815106, 0.1470569678691446, -0.8576095030312385, -0.36600083376165987, 0.5608164179620561, 0.2984399779220586, 1.7503154264569343, 0.6254153062631885, 0.3712668348751013, 0.7992122980189789, 0.0825173439970716, -0.8676151493693864, -0.44060671354273234, -0.4784945345571895, 0.34316030878302906, -0.3151617155657304, -0.1404424742307598, -0.7880731097152315, -2.0061673181230217, -0.2297532798701297, 1.220939575720424, -1.0809329528461786, 1.9595026270361433, 0.5862733721785462, 0.9611375680778872, 0.08861685690888463, 0.2388517210177138, -1.1041813379202303, -0.12973110898264106, -1.5160645136340454, 0.5540727487191043, 0.38432471313310224, 1.3427433354333778, -0.9727609462005388, 1.1882840936827592, 1.0015703306069161, 0.9451003961815332, -0.2473909608469832, -1.89847964082939, 0.2004435448885403, 0.2971292592825093, 0.6717937796381089, 0.06683849056767344, -1.0302578135446516, 3.0607410141021933, 0.2528838594467573, 0.962873496584353, 0.10582410580867253, 1.3729678222678403, -0.001222606156523839, 1.8541201296019543, 1.1684144018154106, -1.2316809732591127, -0.23685296334202238, -1.4972224097847204, 0.9918532350451287, 0.9424532495338989, -0.398099647277255, -2.326003406618969, -0.39861341554801993, -0.6963628581866675, -0.7589114706469392, 0.8696788562906852, -0.05094495184739849, 0.01551535013394053, -1.1135772212300858, -0.06983891249430205, -1.3762984067662896, -0.15064343507436687, 0.7775537473850279, 1.2548389129384518, 0.45335675091808697, 1.5436068473189988, -1.604416143166498, 0.6679605187627643, -2.22419767714269, 0.03552510562382546, 1.9908171067099978, 0.35813113232538407, 1.9562164684661838, 1.4897202835379246, -0.6299818721269325, -1.401806836989379, 0.4329586979605496, 0.13258608102713929, 0.5312966493417397, 1.4761076226632934, 1.0601210671402828, -2.07718909625339, -1.8354588154994929, 0.8583167576979152, 0.7826235617276934, 0.23934442049404533, 2.359851342430107, 2.2304801602760014, 2.1088916913654234, 0.8158171755383268, 2.1367773264850034, 0.40126245100384766, 1.5131572843949472, -2.244063367076873, -5.120133870399666, -5.46531360401108, -2.0540017517070073, -2.2313423657913436, 0.705587352512759, 0.3850782152703228, -0.09494923918239204, -1.4581861013392563, 0.4127142612607849, 1.5848287303020037, 0.6035274941783656, -0.9915191758120621, 0.5499705730327837, 0.026807779165981274, 1.1108854163643092, -0.8572595007883659, 0.801903626351852, -0.5628652756554733, 0.7147481128299128, -0.9409249571570621, 0.5147723800778775, 0.605501641629852, 0.406625319719364, 2.325595283508636, 2.1763921194058917, 2.3583934713706514, 0.25837305079403944, -1.0565948170151722, -3.468013748472936, -4.146168865574341, -3.7243176138290677, -1.1080553867542893, -1.3800406108425332, 0.5805539917075236, -1.1436538033562464, -0.9098537191904702, 2.608450510270181, 0.8779613447003112, 0.819736732320868, 0.6895225507719026, -1.360129062762438, -0.83022872410227, -0.07673140171512836, 0.006806692173275615, 1.2832354613742323, 0.04353816118654052, -0.7091771658484235, 0.5258394168318296, -0.509055801282343, -0.18295862041808073, 0.3272863024512932, 1.812745579907847, 0.20370880289100549, 4.026869247036506, 0.730758932260166, -3.7800932105342517, -3.794304846376173, -4.440098555233898, -4.117191398782804, -0.7942118123467394, -2.3478165434302194, 0.8296723234361987, 0.16640900659314703, -0.05864519794055934, 1.2189609015908884, 0.1296478545011583, 1.3777306882687521, -1.072645477213932, 0.43893460609004703, -1.1375004315460548, -1.0012624006073836, 1.4458506526921178, 0.09073723469401229, 0.9925351456978533, -0.6051990834871149, -0.23402881205039872, -2.247772832029114, 0.7386338399108583, -0.39276664800598093, -1.3815708585123938, 1.3045941654098236, 3.1213225923687333, 1.652613445800605, -2.6742565293747482, -3.137143690644606, -2.9323769151294834, -0.3534254354752244, 0.301840680576976, -0.7430759767292405, -0.38297171114337925, -1.7711333289908209, 0.19037255700000047, 1.0699386275203857, -0.4819808550580271, -1.2255907678468192, 0.2024424367458855, 0.8734311143211939, -0.0858603007235549, -1.4047325636803687, 1.0150049458287205, 1.8936858594079153, 1.4247774284607437, 0.12660721185258147, -2.4356902454095914, -0.5864647183532562, -2.294608602323594, 2.025063453200443, 0.980660852866201, 3.861213367020786, 3.6887686133742417, 2.6038225114700424, -0.7809649112907971, -1.7914289249073152, -0.5653718600660284, 0.1304950568190343, -1.675276524242752, -1.8400420977764653, -0.8015553274993643, -3.0560585284175583, -1.1829211835038815, 0.3599889659146821, -0.34401656252871526, -0.47207497281943805, -0.08930010099927788, 0.15863732258633645, 0.12952106818613496, -0.6759313288552181, 0.20610115645796317, 0.0005478646220175253, 0.5456268714619266, -0.825475392308736, 0.06967835605499802, -1.87405300919347, 0.23586977847637755, 1.5635464753598312, 4.297989019749606, 4.9183896715394475, 5.520302292130633, 3.388505299015273, -1.5072061612267784, -1.8473675127407516, -0.7657171433806678, -1.0305093381785668, 0.14111235839613268, -1.3554414525249507, 1.4737493338981653, 0.6959239681788403, -1.4659966516311436, 0.4413493932321591, 0.6220051437379079, -0.08724107452300515, -1.1336959829112483, -0.08303822801679836, -1.8171159011847078, -0.9975710347155652, -0.23200966394083056, -1.4117117787149929, 1.6865322588541318, 0.08188081534449407, -0.148825722270108, -1.2636744046129, 0.6784039660126622, 1.8803876342035937, 2.3873505184985797, 6.095566642613342, 4.8047937336580215, 0.9035186599101097, -2.250426806013922, -2.6458083063612574, -1.4483860555586505, -0.7639501225568525, -1.1175117075263035, -0.32752876418714316, 0.14144009390492454, 0.4130597650008368, 1.9947711657260492, -0.24650951749080768, -0.17008297061772337, 1.199358071783737, -2.0150022483110974, -0.5402385554843655, -0.6986518464359336, -0.9952159274127295, 0.7847871930639417, -2.0545109168033684, -0.2412877661259437, 1.8084417001364903, -0.9710952125154768, 2.2721732002566912, 2.2421148927189214, 1.459216709781839, 0.9976710214358301, 2.455257075799592, 3.885765445368094, -1.1892023036772335, -0.9102588377270702, -2.548158451552822, -2.0449583089193073, -0.6320960712917362, -0.4886982412093983, 1.199433953988949, -0.675123186496909, -0.9531201353423809, -1.2316830741257718, 3.0561347997610424, 0.571418573744457, 0.3303780398410842, -0.7791868874564206, -1.6682066648564604, 1.8366462982330696, 1.4612243451838913, 0.9551554257295384, -0.29913225469923516, 2.999983391786915, -0.22507381994963524, 2.3671695934604973, 2.0231879746512504, 0.45108219921030246, 2.0143881022684953, 1.5547858597957027, 1.1177902805059252, 2.211939702492773, 0.2966040081592262, -1.089448104763632, -2.841683348847099, -2.136565064555613, -0.5633423741613699, 1.2183151312568121, 1.776523084952686, 1.3362624032337238, 3.365887227660496, 1.4141474731112265, -1.0480437266468037, 1.5996456890730495, 0.08489347055951076, 0.21817777825467238, -0.35679965803904484, -0.4957401917352621, -3.3241271497670457, -1.2632006883399751, 1.7089601773945309, -1.6456974892610379, -0.17418737298851944, 1.5883578060313805, 2.813003979470013, 3.031082329787361, 1.5859342936037768, -0.24446543703361948, 1.0766910717705613, -1.6812077796150067, 0.13182448199744354, 0.6167133291233253, -2.273669465422278, -1.294562790010431, -2.1669112298844366, -0.1387549228896565, 0.3612274956605117, 1.5369745712084837, 2.1272063272496284, 1.5125259303212324, 0.97866995161181, 0.09879611614286035, -0.671036448534534, 1.0713537243862672, -1.4431971188344164, -0.32449877833481555, 1.5055180146431848, 0.10444437776040225, -1.614146516439391, -0.009919271375912666, -2.4371502776061322, -0.6947938357407454, -0.2766057423162492, 2.572800518152212, -0.1109575931590592, 1.8261413483210078, -0.17666800981692388, -1.0483094321003248, -1.7929180109135416, 1.105505156991204, 1.1432592324193025, -2.183415856048129, -0.3682265044670602, 1.3929187939226033, 0.5878775706531308, 3.755838440474766, 4.944419157826535, 1.7990756443468636, 1.608977677123353, 0.3908571076195517, -0.6633004369184342, -0.6458170683407797, 0.42902925374737944, -0.6234282430041684, -0.9893497333316861, 0.11438606366517373, 0.5089273444431107, 0.467935886179163, -2.1638021355453385, -2.0042449702138034, 0.42211909188641533, 2.495266818085029, 0.6689222432063484, 0.6304210660658027, 0.7417310074539708, 0.6609139694554208, -1.605902419214413, 1.5359031297650863, 1.0226158608676694, 0.6845884402514116, -1.0236503568613242, -0.6263549250795732, 1.9292037972522722, 2.9801697895014345, 4.4142487212446415, 2.6634993898527837, 0.14897944985619152, 1.8466453493810542, -0.11891236989244668, 0.9697980420008895, -0.47574503310387717, -0.314300901836274, -0.4114097431050578, -0.8631256045563163, 0.449536257266424, -1.4785865401287015, -1.7239680776187334, -1.0907078756686344, 1.200870424646285, -0.8934489336803326, -0.05121788158467784, -1.3540915526685606, 1.8770460502620236, 0.09864202087510272, 1.2296857946771265, 2.032916630414669, 3.134528795468648, -0.212123384159085, -1.8617684593187946, -1.3033420301762837, 0.6040228812119306, 1.8172627786123465, 2.673390257722621, -0.5450590779259845, 1.0415153494621043, -1.3630232335938284, 0.4370086100729748, -1.207100864231778, -1.5720988690175406, 0.5690286209998151, -0.2698464989164308, 0.6316082038262795, 1.41212626628264, 1.1125786095997596, -0.5987623573797813, -1.1337648061457115, -0.5892959911174487, -0.26773812307696915, -1.318427760866609, -0.8003975584594499, 0.34313027157726217, 2.437366355376242, 4.131685632732131, 2.0607726146950576, 3.33467224437294, -0.8757486769934004, -1.0291646607125806, 0.18659997717984333, 0.31484038893456723, 2.139704952553418, 2.3575741552962377, -1.5753473517859147, -0.011745692590094888, -0.3622234174737712, -1.0123132771557701, 0.290938366746913, 1.1727471848238906, 0.275254258130113, -0.04122887328497612, 0.7107858244974977, -0.7306507352724697, -1.4043691646894574, -0.33756231772675566, -1.829194833922886, -0.498827262675908, -0.45168133417546014, -1.8790845048636764, -0.022983317716180812, 0.6413179776906719, 2.5098184964550723, 2.497704355359928, 2.760978811871639, 0.5812220536693036, 1.4606214440408634, -1.8478942416232569, -0.6147027549744328, 0.9688125510533062, 0.4036492611717802, 0.3833755524023454, -0.4619768156243908, -1.826536876501263, -0.5193694183766261, -0.8284270077182179, -1.0135254858143912, -0.8566294333871325, 0.6793499884480604, 0.07046981310839874, 1.7178823993033328, -0.45276085484475465, -0.3386012479207597, -0.8101160609938147, -0.27393856745201667, 0.5719079877625862, -0.9553067752032947, -0.2119379070519405, -1.8088264795636613, 1.917334777411762, -0.8978919521673916, 2.9568339665206227, 2.2481279203183915, 0.29355305492203126, -1.060632411956055, 0.23548901319282672, -0.465722746876131, -0.9692947204262927, -1.3661451894474759, -1.205154072733638, -0.3743138186164719, -1.2462322200200504, 0.6744681197398671, 0.043344505002364864, -0.2093364132975006, 0.5463688166597661, -2.097500751623752, 1.5941413444008568, -1.0656304158853869, -0.2740898031058967, 1.2320577755438655, -0.6778878977863674, 0.16887343505243566, -0.5464419146291142, -1.2685368259178962, 0.46008599253442134, 0.15355823585448466, -2.3333353087665, 2.15868457411453, 0.7252280807086663, -0.33490881320319515, 3.145719041497008, 0.31875783755864584, -0.920608170009331, -1.4576403394424846, -0.5537750527639879, 2.4605337100522506, -1.1258250721114889, 0.6365322833344396, -0.9191374258855214, -1.7072904217502893, 0.6775468906295943, 0.1345155268625907, 1.2336266542617427, -2.48261423092928, 2.2306275930545025, -0.9311572610600446, 0.23793566614842207, -0.33554017620828736, -1.1078658379042343, 0.5674836900972418, 0.7016102153355386, -0.45566928545962293, 0.295587428556753, 1.0931486479343668, -0.5260352568429734, -1.037588401883256, 0.24658142511728076, 0.3193651657423834, 1.4364545818918946, 0.2719062163509483, -1.7920641599740932, -0.22569616745341295, -3.2531727472613317, -1.8516322222540327, -0.5354166829036581, -1.539756061898485, 0.460853748822319, 0.4910882926224741, -0.35645992049229225, 2.195725521090616, 0.5073740589540833, -1.6946737515834198, 1.0066606581197797, -2.252924303492742, -0.2896036530576679, -0.39821073181009226, -0.3868448019693809, -0.09569832703643023, -1.8306283101884868, 1.4110828922630072, 0.6060147308805733, -0.25149789503148684, 1.3358196627474734, -0.2861198478290987, 1.0910940947552668, 3.0936414015579934, 0.9727642152242179, 0.5896844037056252, -1.0385403336047039, -2.2091872579405853, -1.1529033279076368, -1.3017475616459921, -0.36813401113575134, -0.3417209746618059, 1.1378256681303451, 1.0249585518162803, 1.78743017782437, 0.6497678565594185, 0.11116959126570862, -0.2007262124632179, -0.1967639311478517, 2.676497317594149, 1.1702615210996765, -0.2745412665302244, 0.7318010389740945, 0.18126440374025493, 1.6482567348604116, -1.1289280495763503, 1.0247986755058507, -0.3237531083539191, -0.8661340215459598, -0.7113542642225348, -0.8131817967383133, -1.0459003850269177, 0.7523995994134741, -0.8619205987547697, -1.619878891044285, -1.4112831201953073, -3.2432704299845807, -1.7511083698761243, -1.910710018322007, -0.8777285402582818, 0.039010619454203005, -1.5866589075243926, -1.5534524238805059, -0.1463164457410602, -1.1057723277659481, -1.0197471436546128, -0.0592892594124303, -1.1023185348051623, -0.4522391596513347, 0.38023398797145064, 0.1874230470116883, 1.6479328480706632, -1.275559611222517, -0.14525832237177158, 1.0367249849562106, 1.458058626689814, -1.137393266670952, -0.8206202477301957, -1.0085613875423265, -0.9257590390467697, -0.5138547206080735, -0.7457730982867131, -0.2012702444354921, -1.0192870600379291, 0.1055902238392396, -0.688457342656375, -0.8211369655810902, -0.7337529724497595, 0.9880277936601374, 0.12794583193774448, 0.7448419741558071, -1.1737588940114352, 0.6429695333479098, 0.3992040793547037, 0.5809298986248491, 0.6454968977195052, -0.9175596911647446, -0.4355294196016212, 0.2425038751900229, 0.45037729489847933, -0.856314144039611, -0.7654671692826727, -1.0489744775630647, -2.056793074296097, 1.1774825725206879, -0.6837966700736676, 0.7543301044454775, 0.7226968072589152, 1.4126833232050704, -0.7084717978148949, -0.15404036522884443, -1.0089989143126235, 0.6426196499832306, -0.18720190115698163, -1.3876887171374774, -0.46515944455665376, 0.9637073519369524, -1.781593853192974, 0.0009298116001547078, 1.6463468560580004, 0.3682805218702506, 0.17644667382201687], [-0.9995953383590835, 0.6304533028999312, -1.5964917369605998, 0.44302837003406276, 0.8480032244818871, -0.33599914539653486, -0.6032522308126483, -0.11467061286093908, -1.0340783789501324, -0.04157069571813689, -2.0960485515429244, -0.7909283855066398, 0.8237386088160668, -0.4904994075193703, 0.5545521492350295, -0.2858773796575977, -0.3484916041326248, 2.179286358507358, 1.2203829012274918, 1.7374773455674055, -0.8888627378115882, -1.2309299754199148, -0.9167140156693753, -0.6371998060421199, 0.4409079231918719, 1.3812961987022139, -0.5125926067286994, 0.33954703152222265, -0.47979004470455433, -0.8037078965178697, 0.7314046926937943, -2.214497073055997, 0.954544063289064, 1.2873232550132407, 1.5641318465178389, -0.6605546001290675, 1.256053357693701, -1.443009133658892, 2.076755840868617, -0.38872034086227153, 1.02978324343638, 0.37963240545703714, 0.9768010363058811, -1.1358008075213826, -0.5045653189618621, -1.8161956294551356, 2.223697023624384, 0.9928943914921777, -1.0518143221079221, -0.42693217822671636, 0.4607019270039156, 0.6558450836486848, 0.10973122371964274, -0.7323820918406984, -2.680671712300041, -0.7158370717625459, 0.4809382132590213, -2.1207110953476453, -0.16448830734920247, -0.24560225923317552, -0.1587488165923824, -1.9518997572340762, -0.08539886543531708, 0.7647142775458814, 0.5285266496441268, -0.3284209127660878, -0.1414153761691469, 0.30297235773153547, -0.008874457546591255, -1.7693181569195813, 1.4111280216254025, 1.6593030681773724, -2.0984475567800103, -0.030715010220518753, -1.8008225743909876, 0.6667000334704664, -0.8361621063806634, 0.04119064611840673, 1.1326769012461573, -1.1478409668208316, -0.2947016798235086, 0.20409390432100846, -0.44728434828434577, -0.5136378520780575, -0.3094240602227896, 1.1903597921528668, 0.4404525862292274, -1.5760779198798107, 0.8182426366506041, -0.7824151686222817, -1.2052989233446265, -0.13637463697728253, 0.44989877541367757, 0.7048229839991378, -0.8097375603976604, -1.8282648018467438, -0.5757517054693172, 0.5827993095545831, -1.916002508963309, 0.4716562540946788, 0.45759798260530077, 0.08422012016708297, 0.26863091713484927, -0.268166113093106, 1.4972515264705362, -0.14388363267547324, -0.5132113499626412, 0.10733534709509165, -1.1447550228690102, -0.6092845814427051, 0.5582393759948135, 0.8621729769253118, -0.24273384281651592, -0.7868180593727269, 1.0327052787557245, 0.047134291909346725, 0.03885860462288701, 1.1084795698746654, 0.22485820010183102, -0.5100368809466604, 0.30055438864041173, 0.25796672014554256, -0.07567082591110855, -0.2772373245477667, -1.6712108317625551, 1.4433107010870643, 0.9653268023356841, -0.3203314417923927, -0.080560718037995, -1.4108415177727789, -0.12663170334477483, 0.4818786653481237, -1.1735652869519313, -0.9530639271946874, -0.01570034832737209, -0.1502831259611085, -2.1082771635178448, -0.37664212300887107, -0.6588140777401128, -1.8908136137848621, 0.5393475675537198, 0.03419856125166919, -0.043051829297693335, -0.5698015661745822, 0.9829006636024227, 0.9698770329477421, 1.0954427451821975, -1.1487830779032164, 0.8165644330560511, 1.4265380108506323, -0.08316153237825351, 0.41170694348749315, 0.2578227513786439, 0.07210516404838058, 0.2612707029028746, 1.7327763095724409, 1.5873901248172224, -1.0094059386837038, -0.4208958620370795, 0.5677105436112567, -1.097427094267864, 0.7838824970247475, 0.8072209852744034, -0.20210390542355497, -1.759928700796022, 1.5467257326092005, 0.3979236607660641, 1.6931273864948404, 0.08742410838152807, 1.37573670323172, -0.30204679635543386, 0.6103007232143659, 0.6785180749573752, 1.3726045352801626, -0.40421004334611693, 0.5986491448776353, -0.4256417684346889, -0.5392109661186889, -0.22844542814753782, 1.4910334432371573, 0.1559363813826862, 0.8800318395282579, -0.6140584517074399, -0.4610490404849552, 2.0990621516069066, -1.6513822982855795, 0.4064409215571932, 1.2941618661889298, -0.29383764829966985, 0.8292345695413426, 0.8750413537029371, 0.34687624611520856, -0.4422728168388633, -0.8232573977936907, 0.37841469611388895, 0.555431680936093, 1.0879277523634419, 0.17567737343212583, 0.4057665260448127, -0.33559896314948623, -1.0610225322100308, 1.1674166641039463, 0.6692297154672133, -0.744315019128516, 1.2956752311883373, -0.7202987969919781, 0.11098160442937938, 0.3360066724301939, 0.7152557666678298, 0.10945751367655589, 1.260377511600195, -0.5330396810123621, 2.238845074458641, 2.6591734055041227, -0.5202142501338218, 1.3761050257876286, -0.3766049012377426, 0.7863285028082038, -0.7165461119940569, -0.08535901348586315, -0.6722658488322004, -0.22185220555402682, 0.5888077473420971, 0.14396873209543384, 0.41766486898101657, 0.5495643252961022, -0.44491305530455777, 0.4500348886657387, 0.896762165414688, 1.1496843718604244, 1.3716181244719055, 1.5533979457947544, 0.1786466872949164, 1.9120112023421891, 1.020526794356953, 1.611907509344496, 0.771980174576983, 1.6535265922959577, 0.46933450912008945, -0.8119402774751344, 0.5935931935130612, 0.6089440491935739, -1.415032614427076, 1.074144830091629, 0.6755795837469198, 0.39864224236382706, 1.5535814696740942, 0.8204680102007531, 0.795703665914462, -0.22950418806582448, 0.6753576956328801, 0.9880372293517633, -0.8477972194337908, 0.8579553252365135, -0.9128816975469833, -0.026782580587113844, 1.069909617210988, -0.738301936469384, 0.08463949479606914, 0.806008366422617, -2.643534024740518, 0.7996916959972783, 1.7659372792390056, 0.6219008885535835, -1.8143897799113466, -0.45568846462452756, 1.3226254705960827, -0.009878283758801338, 0.4520460236925693, 0.5803752507436485, 0.10156096097300078, 1.238300077316848, 0.7428834076485006, 1.067438038764339, 0.5286402909349047, -0.4754112771128763, -0.2706682200641912, 1.6787277310296598, 1.105041568950579, 0.35961914847941034, -1.5363644733910022, -1.480933424936255, 0.05799920527023133, -0.35399319217182373, -0.6866545209637327, -1.015652144395802, -0.829204274888357, 1.3116256158606683, -0.0812935548093191, 1.9676028732491737, -1.1190545026480978, -0.286755489113, -0.07120247955910448, -0.8779126387568146, 0.08147893052936023, 0.23219521502010831, 0.016267995056140776, 0.5198670798158149, 0.06300325795226262, -0.12993207796650427, 0.2183553605731327, 0.3796635307807826, -1.5278022204024941, -0.5523895300531543, -0.4322182550623627, -0.12608553001150175, -0.024780961106269973, 0.3426836890323666, 0.26886269577600574, 0.14171584474774315, -0.33771026149889166, -0.2402213698790529, 1.9694409091537146, -0.5633887201580658, -0.15596613943436413, -1.6175996400310213, -2.3524736357468337, -0.8266165034292079, 0.3163317226262496, 0.2811742611503824, 0.29482377190124404, 1.269571209557064, 0.09830039433441834, -1.0716177572604448, 0.34032728608958207, 0.3248913163410877, 0.7786994080108232, 0.43346293787483453, -0.2213342123629822, 0.35374858282746163, -0.7015140201083978, 0.5817351608709327, 0.06745900481699628, 1.341974439226865, -0.17083488059459223, -1.1214624298403746, 0.7060804871759276, 0.7186832399919464, 0.5881069805094774, 0.5888065819818111, -0.7349966909921741, 0.6721368014470102, 1.8334994968145881, -0.31525018962999757, -0.24828451031910623, -1.3181954154563988, 2.3057733216354714, 0.65675656503091, -1.1447644964859578, 1.8559935869032747, -1.660274182485782, -0.6079202852097696, 0.011381927479024601, -0.34204471736830155, -0.6315863672267008, -0.15602507790293096, -0.3083506964418256, -0.41292736688466414, -2.2274874548715, -1.1499476454512625, 0.26201065472357354, -0.8876658598937425, 0.7567003691495158, -1.0651413237229828, -0.04961919144607805, 0.8874878627166072, -0.9220572550396348, 0.9921441364626871, 0.44095348735857354, 1.8873076215730307, -0.3426922239732994, -0.45931895012411245, 2.762545662776516, -1.9156575503677697, -0.09528390999043203, 0.17417708506607155, 1.4255701433760826, 0.6966052464850997, -1.6074312781104407, 0.05599970457269039, -0.5048130150548394, -0.619343249669101, -0.7691755374911318, -1.1838476696015883, 0.9435951700229378, 0.031690672002566866, 0.29194827154845016, -1.2522748660673304, -1.1366349184443951, -1.4899226584951357, 0.04938279709798715, 0.3036223348313437, 0.4825730314160873, 1.0456662690896417, -1.097817724512595, -0.17737932327274664, 0.6072055744034021, -2.1369031238915888, -0.1080926614495209, 3.763955106004883, 0.8537781510493845, -1.1495483105753261, 0.534262341197749, -0.387730157040732, 1.0127413132329846, 1.50810447910376, -0.5575042780218415, 1.3256110250103144, 0.8390124119919006, 0.19642431086105805, 1.4075675712824127, -0.1906764662122856, -0.25964651370781255, 0.1780581378464328, -1.798805059679693, 0.009866615681524955, -0.5070222834587254, 0.45350739341146196, -0.7469804344574863, -0.5356582904616625, -1.2186168429140614, 0.4402107911027494, -1.4660888182569196, -0.47212756756858776, -1.3326039058106762, 0.49699336053271653, -0.833095939742453, 2.1555317696574403, -0.00019340881299239446, 1.0840993795833342, 0.3049727916659385, 1.7191076487894819, 0.6379571243527137, 0.5545168033959075, 1.5893577433030106, -0.11503778125289778, 0.14236415333786545, -0.04888846614644634, -0.3805480005673313, 0.1309358281252895, 1.2639687882563015, -0.5319580267558192, -0.37093412287092964, 0.6629098804337498, -1.9103906943790552, 1.0151042244447186, 1.7358262247874494, 0.96666256517251, 0.6518626711064146, -0.1605230240614596, -1.7094156653424177, 1.2690238951121409, -1.037627542683823, -1.245602495989213, 0.87443645282319, -1.2857838780752955, -0.2314386722052954, 0.5431730923621547, 0.9213648685344482, 0.07738091823444242, -0.7839187894353907, 1.5438837252488637, -0.031112534636543218, 0.912555595789003, 0.2211662283699472, -0.898018405810954, 1.7906139595345656, -0.1122704660082424, -0.9164335566959816, 0.06519629395448859, 1.3110747330641959, -1.3968019352273482, -1.7631237886894622, -0.3006220296334959, 2.6627802539114436, 0.4139141473204118, 0.2100202121649499, -0.001487135210423628, -0.7312827758070672, -0.9588453070996147, 1.5033533279508688, -0.02322749257636068, 0.712610643915927, -0.7650313495521263, 0.15770379843599047, 0.193913290712782, 0.5167993266226257, 0.23251906625905647, 0.10550846025605827, -1.3621828130020586, 0.9559086464875871, 0.40406162727586586, -1.3942692730680921, 0.12294823023223851, 1.2597509071442312, -0.16815332331709457, 1.060339832531234, -0.12787869605280724, 0.17123500530769223, -0.5146383202009885, -0.31560915026679387, 0.5714783881810619, 1.2577838482585615, 0.5244536085047758, -0.353282701449898, 1.3525186278728503, 0.7568538899005658, 1.8233039282507295, -0.03768000517245342, -0.908824397570204, 0.22430416461737016, -1.8949409658421568, -0.561374743232661, -0.9210204362229392, 1.0132010949749901, 0.06721013416014289, -0.14993024418105097, 0.5043444490685988, 0.5573541460100834, 2.7981726497900348, -0.02899468020735559, 0.562153174684026, -0.45285389524975356, 1.3054183678815932, 1.4394536915409315, -0.46910081838965956, 1.4464597196356785, 0.5039397391125522, 1.4161726199475504, -0.9246065059989789, 2.398716109558726, -0.19038355062156181, -2.2575927633265542, -0.6695466016662738, -2.2934752263230775, -0.05890129841270487, 0.8619235813224013, 1.4057899128006939, -0.8862810554009082, -0.9093368476056952, -0.24025439096618792, 0.6706165952566989, -0.4526803083293421, -2.0126740710631603, -0.645830898014801, -0.9711673342436492, -0.8168981181003162, 0.24523579766683157, 0.6535997858654143, -0.16835549696140303, 1.0161877254400982, 0.5292499068212501, 1.8579033690298365, 0.1010355023636666, -0.024485048123688548, 0.3756776527681899, 0.2175370259544001, -0.46385682784286664, -0.5482903928133847, 1.2300767572141929, -0.4054493838177772, 1.4432680063678922, -1.187977294097854, 2.8214638112263617, -0.5541446191914422, 0.007715271122345231, 1.1533183773947415, 1.7222258058721844, -0.11504260789662721, -0.09809926136036251, 1.1700808222480354, 1.526102806406484, 0.8048150289943325, 0.2953906646644865, 0.5056793613560586, -0.060400557196919356, 0.7900688583055712, 2.38523245929434, 0.26623962353676567, 0.31896015347357615, 1.682904396250915, -1.0750044722320198, 0.27235341540998487, -0.8615415474937325, 0.007719411873047482, -0.19111563168546075, 0.7705643154906787, -0.9744503912440104, -0.5492771349757125, 1.8087730238709867, -0.09719104499055838, -0.3230684104294359, -2.0727544378564753, 2.1707768158157563, -1.8845169370630244, -1.0970306568330184, 1.4953649304180394, 0.4820506454265061, -0.7787532378334544, 0.692293819042571, -1.0584777529724763, -0.041121784403049824, 2.3719175918393414, 1.2111074973979472, 0.5479864634997844, 0.7381211739937171, -2.7183537182674646, -0.16453416876513124, -0.6356343543537513, -0.404941621938577, -0.8133262078503196, 0.5476634534007391, -1.2055098508430486, 0.7385439774942334, 0.77634508503647, -0.11526817998426359, -1.2773657631442277, 0.11698081650159467, 0.6611681104504913, -1.7223757862964386, -0.9408132418882156, -0.32651732048351434, -0.7208583065209508, -0.8496908957037248, 0.33175664968965307, -1.1066291090779439, -1.3510841795731126, 1.1025348998562419, 0.560893525642201, -0.17240665197200955, -0.025009162545974583, -0.3497715794229153, -0.003031118913103817, 0.945334763866797, -0.2951650998571173, -0.6496071739559425, -1.6973902602728652, 0.6008343614678209, 0.3208959959800658, -0.831982124730793, -1.0714745832921253, 1.009855475399232, -1.9617225999350218, 0.8681834494817516, 0.10752296564427993, 1.7016254883526805, 0.8402701688672165, -0.1492730904438965, -0.19368275358859183, -0.717860786712335, -0.7655351739243907, -0.999296786265781, -0.14245673807130455, 0.2681455372430939, -0.6074299142522454, 0.5291081927742461, -0.7687002882136373, -0.06403634252044595, -0.5599102871388721, -0.8606420805781114, 0.7121257391846855, 1.9782105938774903, -0.2189723669274467, 1.4006169756399818, 3.014569516376704, -0.02031496164239807, -0.4697574690201818, 0.8718215377014836, 0.6721532133513121, 0.8012310318748063, -0.24200208626656114, 2.3924755156517903, -0.284527649174904, -0.6046841790922248, -1.200436738856649, -1.1990193527188222, 0.44898818879765245, -0.23488372975176253, -1.054802539904781, 1.4229923487945604, 0.8544930041037607, 1.5374379696904585, 0.4574890079341632, -0.09462496527497645, -0.3508247776232875, -0.04174162935476027, -0.4522321717043754, 0.10557503934967603, 0.13385091709686017, -1.0018372915695601, 0.05882655276044136, 1.0493934888652903, 0.7650363621273625, 0.649240570962009, -0.5301304269784846, -0.6839945969031002, 1.0776238774989493, -0.4296818284691695, -0.4701140175235871, -0.2741502634922756, -0.28791804473205074, -0.22876468962689467, 0.007793629376586784, 0.5725825737793208, -0.6639322825062208, -0.12151572690962592, -0.24526494874941268, -0.338206454145409, 1.5464662166171383, 0.16386395878578108, 0.024323780656332467, 0.6700580148681654, -0.4061579804295809, 0.755849083865694, -0.21875558714721055, -0.7162879702276596, -0.6396215778887095, 0.700165939712144, -0.06390809375906958, -0.42988872078397433, 0.6851033319503212, 0.5313503978692796, 0.11364249256096738, -0.4913255243509238, 0.23441760208708834, -0.9821566804908016, -2.0010135197282986, -0.7738480498308604, -0.5894014200426174, 0.9969540030824889, 1.9165718672727885, -0.5479360290345849, 0.883372159638812, -1.805557026775115, -0.31954127909383645, -0.015917784446821386, -0.17968261173787722, 1.5316604243144085, -1.327979341464739, -2.3558286077401367, -1.9519711665036248, 0.06985768738637345, -1.8694341517572934, -0.3502898027143705, 1.2740480252452535, 1.8219461111360498, 0.565796113219015, -0.9468150556791987, 1.5402356877608587, -1.5272398957168443, -0.33420803814434136, 0.900566666887486, -1.2077712405490628, 1.4114167761790226, -1.7647546638372549, 0.3861873746797917, 0.018943853211964415, 0.8667575475523781, 0.01194379440139621, 0.9225396166649867, 0.22932101977982605, 1.181244614136178, 0.9785615291523289, -0.7928620082357217, 1.6739366880682038, 0.640416771719206, -0.6345090584667156, -0.17509036524340033, -0.8860880146989563, -0.2882696254506102, 0.22386809791224124, -0.4887928931816043, 0.5447317630261552, -0.5046487593018097, 0.587369046621031, -0.99852617109637, 1.3166967964711547, -0.6879953626875813, 0.83805298034689, -0.5931335723569262, 0.15206530981042618, 1.2243007323222141, 0.22207283614710804, 1.9036794216464632], [0.33982869055332954, -1.3770372400130904, 1.2956850797854789, -1.1059512750041347, -0.5865481877841813, 1.932944145293563, 0.21080037609873176, 0.750649651667043, -0.37046516857883016, -0.6429417835326926, 0.20027207076392708, -0.9291004541115493, -0.6039659271932217, 1.1018469757624152, -0.8738313670220917, -1.0884510031385481, 