{"biases": [[0.654201814936273, 0.06594523967689177, -1.064570752128531, 1.0382719991346847, -1.3287612446097097, -0.06579959849244711, 1.4013904516376665, -0.9218308914036274, 1.0010923609805926, -0.5167101263401656, 1.794613225728344, -1.277224976088069, 0.4876666312217276, 1.87618170546482, -2.9642628273771003, 1.7726892467295319, 0.145883492666091, -1.4855040205010925, -0.30217689348551974, 0.2693975380139444, 0.11376231057396337, 0.6549750936488272, 0.5537080963194209, 1.8422154603488874, -0.6545863260799343, -1.430082995915509, 0.9202042364661793, 0.5984928855355724, -0.945814075715555, -2.141446622386029, 0.6264878095878307, -1.399311994371643, 0.09002645913224434, 1.3190944398986382, -2.722477773898678, -1.5081214790685216, -0.38075987776468095, 1.1028676970978544, -0.4039008800685051, -1.4702203559164215, -0.2772192565970243, -0.7212380396935612, -1.8087980191597695, -0.8497236992145708, -2.20064145927698, 0.17914310715754903, -0.30443010942736276, 0.5653041694039016, -1.9920990651010633, 1.77295305954762, 0.49706648396780934, -0.6446456002408396, -1.4500554602432592, 0.3160047643359476, -2.7215920954433406, 0.18537902705114895, -1.1221560903224146, -1.482554679016255, -1.2986027030656075, -2.003520781343123, 0.5161369825537818, 1.2507934575305806, 0.9694256872851392, -0.8328228270347189, -0.31324318095981724, -2.033058409087505, 0.8643435291123128, -1.8814607157180872, -0.24399954305335136, 0.6209954890456827, -0.5695035444335201, 1.8918146629042498, 1.6448553286646141, -0.023698022972705957, -0.15670711490861305, 0.13640255018576994, -0.5703156944886691, -1.691954517174737, -2.0473842780088436, -1.2671011968883392, -0.17320919748607636, 0.23052130588288083, 0.949008779669017, -1.629872082154812, 0.6398057274890998, 1.7258479636035282, -1.8557006391961506, 1.1625402558860194, -2.083053879338873, 0.3780718795402058, -0.6560655602721899, -1.394635855196572, -0.1545489752324597, -0.27683183345889956, -1.1473683744187158, 0.7566622750209514, 0.554271425890423, -0.052247696286347727, -1.505573356034001, -0.8329265109138361], [-0.4019932481174047, -2.503891370030526, 1.4627823359626548, -0.4838421062790656, -0.6618289577631629, 0.6795469454118541, -0.21008557027971148, 0.25475058855299804, -0.7913612978510084, -0.8844371040734245, 0.8858697465292876, 0.14989865370020217, -0.37911511281166616, -0.10403322320289712, 0.4764505868254623, -0.020490610694744907, -0.4404719022487034, 3.720378219788175, 0.6122332037929951, 0.14818014269486446, 1.7214024954537177, 1.4761508411112643, 0.14738181090643035, -1.1118140134858585, 1.1490863946118195, 0.3542761024915986, -1.8275788091450202, 1.7164630940635583, 1.2413631707912924, -0.4076803268721653, -0.7594711503252192, -0.8050697637280758, -1.6025542418289247, 0.20055616859995062, 0.8488503957301071, -0.48188515230941426, 0.32825269759976583, -0.7528835159307288, -0.4220829425433908, 1.5368737037218552, 0.6927282012751915, -1.1494789443716835, -0.6519930968274406, 0.25573394969587043, 2.4162324751038846, -0.7942774063021345, -0.46858970463501376, 1.0553434652389104, 0.19592492935644912, -0.7616914700156605, 1.1760762998440293, -0.41324561149611727, 1.9113573544309717, 0.3766689447088398, 1.135940977130874, 0.8425293037662758, 0.14278313563454312, -1.2312204847843444, 0.32684400129059016, -0.7783082779094659], [-0.3504715852598412, -0.07249632861992515, -0.8153457466773686, -0.82616443112573, 0.40751097061939595, 0.4982567801565645, -0.9784963439492766, -0.13328855202059756, -0.2985172079418315, 1.4127028899404328, -0.6571887167482711, 0.6919413331633697, -2.1259535408478296, -0.7402302899835039, -0.1952080632771145, 1.51369975704997, -0.05824791737889114, -0.9161405719497302, 1.8565370690052125, -1.8170924016035386, -0.11562591541414365, 0.6275450060086598, -1.1473940709162707, -0.981212056459566, 0.602962784778025, -0.7518458607183227, -2.211109830456123, -0.4438637842345523, -0.08842223660844614, -0.11851241525163406], [-1.3513640777374472, -1.0906929629895439, 1.1665162618590066, -0.6079555770151149, -0.49548692557359414, -1.781721979466565, -2.356069943247566, -1.440848221726415, -0.7208582579800528, -3.1312697822225837]], "weights": [[[0.8163731594428949, -0.19237029607927794, -0.7752516816635079, -0.10183891102196477, -0.06551789719241828, 0.19964967327692415, -0.2409509948710568, 0.2590224368059116, -0.9543246071081934, 1.2571725512365406, 1.3510139931472038, 1.403386764857574, 0.46103256914052454, -0.7483796649912053, 1.432637412491632, -1.1468174001499674, 0.02021013372784268, 0.7823167537056536, -0.4536563356372725, -0.39757075054441915, -0.4962746265250614, -0.36200113515648313, 0.6227694926219128, 0.3127106355703399, -0.25680595771299314, -1.3834354813860645, 0.41390560634649953, 0.448994385184963, -0.5444961427344295, 1.073030480117954, -0.48825532342594624, 0.3218609007115987, 1.2940804178263408, 0.6911715446145404, 0.4875805315254989, -0.18410964589715162, -0.13353898558674443, -0.36265242702009504, -0.30805769448097925, -0.3212480340821061, -0.4265379821269768, -1.4680229206496105, -0.0016985248447681082, 0.989259833147361, -0.35391704025974474, -0.7264684423744115, 1.5868778569205613, -3.368620901267339, -0.19810697426100787, 0.299204856163614, 1.2642567476530804, 0.40524530904750306, -0.9964972665515232, -1.5780432861789129, 0.7506098683722431, -0.0698891861332688, -1.5636189033295735, 0.16776791257497028, -0.612805546334313, -0.8203635895258358, -3.4585995899755604, -0.9334645142090451, 1.213977145552593, -0.38132957926891575, -0.9439613392480654, -0.5790143979284327, 2.7660595271272586, -0.9804658596901735, -0.8829734669593683, 0.41176471886326615, -0.7051789863091856, -0.5505635738491195, -0.31383123479527664, -0.9180981249534302, -0.9353934879413957, 0.39664586039582683, 1.1231074766972606, -0.6036470597272299, -0.070543683492742, -1.2469218494049348, -0.7915302440078821, 1.304171001985652, 0.3246192396397598, -0.9618402155470426, 0.8891659269966573, -1.4115540673867828, 1.0990237753888268, -0.7116109221976585, 0.25501264236724897, -3.3082137808841363, -0.43732211369050733, 0.3663617846088749, 1.056434006504379, -0.02593063866224882, -0.8483133531725251, -1.38033258114165, -0.5734264867426193, -0.06863186059361663, -1.1011180011770325, -0.13933701278091323, -1.286139685499899, -0.3657876073597622, -0.6312328348604683, 1.0254144710561024, 1.7244066847485298, -0.6745575879810493, -1.6153018749057002, 1.7065596765393716, -2.110912328529856, -1.1339762843167334, -2.0115638216120724, 1.8510369742863986, 0.8826799746997757, -0.842904704662569, 0.7027628488506041, -0.2256048892050807, 1.4460158734850554, 0.13415043202438034, -1.1669633383300617, -0.9916816480512647, -0.15305328737540758, -1.4252950510221685, -0.21497238557560072, -1.5616967478406618, -2.2074380939162643, 1.323761853017865, -0.45577012913981857, -0.3464236027251024, -0.40228205923517, -0.28186851776057686, 1.5875183081909974, 0.06890629716526443, -0.1925504651208103, 1.3279997095324545, -1.3852631635507442, 0.7729950315467646, -0.14694861177057852, 1.138613093813413, 0.16294012478914016, -0.27863391163252077, -0.04681909253136732, -1.091735086521206, -0.9984371338585045, 0.6996368217979388, 1.4024973100253537, -0.10029413888176442, -0.7291041149221431, 0.46576917273908386, 1.008805303935449, 0.04041197730722803, 0.04405881228520349, 1.3548276714230916, -0.017991320058760273, -0.48838775657991484, 0.8365242049160447, 0.7031087951257285, -0.2524287984573275, 0.3016886260248806, -0.3337918655936163, -0.974658493593491, -0.2022476969805794, 0.24316616429128562, 1.9850289421398244, 0.4000926293536957, -1.1415005947734735, 0.5247726855479772, 1.7081045472068497, -0.05195666589694452, -0.07431976872183711, 1.5206389459689351, 0.721340379237224, -0.8048111590115539, 1.7298001439958879, 1.099747798426994, -0.22876010615571832, 2.1417338519476985, 0.7773115998589374, -2.156451511090058, -0.14262540879271002, -0.8597722436832151, 1.4089333097968737, -0.31124793202795714, 0.7342025315823881, 1.4492394271393878, 0.11749340784853614, 1.6033951538891267, 0.7492411995774225, 0.8180677278496706, -0.43231766808349503, -1.0643916288565303, 0.11465462230625864, 1.4685097049428653, 1.1234486984960772, -0.12356978774546826, 0.27297939402209725, 2.800854418159917, -1.3556528604045004, -0.42329133514368344, 0.5904660906641765, 2.7681375238807355, 1.4962693981134756, -0.10251249638832544, -0.7910447723753911, -0.08152106472864445, 1.635147345972388, -0.23136696785874267, 1.0647740102896386, 0.2662690782851787, 1.3789526809899908, 0.45143993394755194, -0.2044995909836023, -0.31106490018583266, 0.8201369107966391, 1.6538710958617084, 1.4931614328664475, 0.43470808507372916, -0.6097705436209879, 0.8490846765103559, 0.3606365843345963, 0.3886281886514183, 0.07938928971550147, 0.5169897616477153, -0.7403384371444609, -0.1932501362368246, -0.8864906694959661, -0.2516983538907037, 1.1389638330357161, -0.7942217682149875, 0.4209743481828091, 0.6980864206778827, -0.3767233310959478, 0.23584323578013666, 0.6204594911779846, 1.12789252256985, -0.37705947237970355, -1.8220162944486722, 0.0862739730940795, -1.299403500845012, -0.1619813866506604, -0.8339442430955902, -0.03328857229946889, 1.2513977548166966, 0.9994235803116767, -0.5283698456918564, -0.7858514815200082, 0.6683313639148052, 0.34412072128281246, 0.9067126449959533, -0.40311744352256795, 0.215018300683302, 0.8711685782288957, 1.9301182225769944, -1.382636395412965, -0.7751889495606517, -0.4292714096181081, 1.3247007224329719, -0.16821707184449478, -1.3525938700862625, 0.019732349464792503, 0.9458684681740533, 0.4501871730143272, 1.1642321122633077, -0.41561904021944523, -0.4872644067456177, -0.7339205583378939, -1.0528989023692783, -0.9043649433391259, 1.1647345860831673, -2.2249021042349106, -0.9514961084787441, 0.9430412337760381, -0.6721797978300188, 0.46431002573440133, -0.1265384892170787, -0.1329612401878373, -1.1702123982185377, 1.4931279915691713, 0.5053588036334281, 1.3616991785914079, 0.7514575284279815, -0.0987413279703211, -0.2504509833604288, 0.42718825745728695, 0.015307851584274232, 0.4075060187585267, -2.9784743348158176, 0.14261003121666496, -0.5857233939033405, 0.40531017274658415, 0.6392431699832827, 0.38269588717443803, 0.520769329817782, 0.4691402135429494, -1.1230500626586717, -0.2727552090740425, 0.5962602901864328, 1.1441234583638211, 0.4380052413787591, 2.161068267941729, 0.5109949988706883, 0.968954476532904, -0.9607155075711539, -1.3377493539547463, 1.0217987377065008, -1.021120946994662, -1.1947673187740597, -0.8248546535617597, 1.4611893487159417, 0.17649644488016267, -1.7997677639216312, -0.17190570494650048, 0.9996590658781288, 0.30595562331175097, -1.6646181972082246, 1.0474437729961548, 1.430671120226968, 0.8139368367202655, -1.3029916759833775, -0.9060663035174081, 1.6526126221654212, 0.4045881159366705, -0.10369832061907763, 0.2754233665579467, 3.140327462314612, 1.394144477404474, -0.7279326687261489, 1.3941689480969675, -0.713496390459848, -0.511359145481011, -2.3543105045609987, -0.6087864764491596, -2.3031418480607715, 0.5625037181062982, 1.9478885191649515, -0.32976521980982093, -2.9410973033857464, 0.37040750635840336, 0.6132812283066333, 0.8213977176442517, 0.5001911500545133, 0.040533803452943024, 0.5060117641807723, 0.9610726664393224, -1.9424692957469445, 0.2900779016286046, 2.7801612338649084, -1.4986077196966736, 0.170754642158313, -1.1470221641640996, 0.4724157703148784, 2.537395352817821, 1.3498607034856225, 1.7898917951941131, 2.330652239900296, 1.7567531712930806, -1.186445786836, -1.5801030954872226, 0.03590285364704673, 0.47292701452540487, 0.6722886655172368, 2.4336221921718364, 2.7882866758147387, 0.1809602121313829, -0.6829544377595418, 0.17938679930893395, 0.35365985440586384, -1.1965229703375009, -1.884597772517819, 0.5764691637725732, -0.911416460038862, 0.9197683819025182, -0.9980271729946812, 0.3050999163406451, -0.47715999833796835, 2.701885225799946, -0.09353140272846398, -0.07452017196230977, -0.8466179080276246, -0.3624652014737316, 2.8234822944465443, 0.7463641824172825, -1.782412648402617, 0.7156088100831585, -0.7567356659856138, 0.3619205734443558, -1.5180121611332311, -0.10339278366923656, -0.2827383737901807, -1.2749261035461823, 0.7158196178377573, -0.15225903290282106, -0.31388857552285054, 1.347981679807622, -0.1417378663433116, -0.7576964447736161, 1.7898219093874936, -1.0617782631492174, -1.050772702856899, -0.6261683865971206, -2.0185953417222637, -0.8535698928619067, 1.7875750163294681, 1.0428874731866704, -1.0670400940637956, 0.8593662144750848, 0.048605297361741184, 1.162165450332038, 0.7688971880764283, 1.6725909185766064, -0.44906687129283124, 0.10588826506398337, -1.7734209087978143, -1.7195445089438022, -0.7443284626997266, -0.44615137548210504, 1.3289386438213944, -1.4447738651366644, -0.3681483933881569, 0.6048486482965699, -0.09434453754392705, -1.1019938124251407, 0.12528418357794865, -0.03790402428554581, -0.6221085299662533, 1.7055928034879988, -0.2900366212583784, -2.227801208675262, -0.7550394969764778, -0.699675744369127, 1.0141241368611702, 0.4384575063363615, 0.760545975064144, 0.2430704554644645, 1.2944941599786484, -0.11236640667305565, 0.4822999585233932, -1.5476711456835157, 1.0896661641754004, -2.1858116532942238, -0.30373350856990355, 2.070358614327495, 0.8127864857448984, -0.8898761626472589, 0.40036161587756436, 0.7621842044848387, -0.03683154501308012, -0.773237278516098, -0.40594705807697834, -0.30703778873550286, -0.21611631465538644, 0.34414220365007236, -0.3389937577476687, -2.9584394916494183, -0.7118035579767122, -0.6085482082278894, -1.1012743048408127, -1.1434099512939886, 0.6100166369260168, -0.11530918332261986, 0.13308037733923855, -0.5495008788202088, -0.7111636561053576, -2.6791495488892147, -2.31444138080037, -0.984824202967484, 0.49464746876675975, 0.327863552710293, -0.4191981568264943, 1.4460323268303028, -0.3965473371518233, 0.18193311869918616, 0.30058014661177246, 1.0905080400193965, 0.5069923880507996, -0.026644730949389916, 0.8048568346067834, -0.5873516587384616, -0.7000661613678242, 1.9662792427912612, 0.4359169405107979, 2.583174867169264, -1.1282356159552434, 1.8371332874320168, -1.9894041371443307, 0.9896532677398515, 0.1391718755234839, -0.19968474183615578, -0.35333338373524825, -1.5099894471493813, -0.5319342185757203, -0.3029514796658157, 1.4250324538355867, -0.8009691012692307, 0.40750258321265265, -2.0327662661154884, -0.41197515956124514, -2.452262742911871, -0.7069364329966625, -0.9308524245096602, -0.45227707135489853, -0.8087050408707013, 1.102172916046726, -0.1546104917569725, -0.6442557384723513, -1.0025058591705904, 0.24734948576445126, 0.05940069914467592, 0.7050742006971807, -0.5712529692643906, 0.8840735412633269, -0.8891909671809427, 0.8324757292200867, 0.8070001570133999, -0.27169118160054495, -0.20161614075616932, -0.1246197803874214, -1.4547054961688188, -0.13055380771356992, -1.2502305333219499, 1.595194269244704, 0.05188066017838799, -0.7263497973161266, -0.8050232048749613, -0.012933340984037025, -0.6863091264064602, -0.09222403070171509, -0.3827658985107169, -0.9408919175658348, -1.9609593681838018, 0.9386813334211549, 1.6226068362340256, -0.042065160065295204, -0.356700951371108, -0.5751025927459499, -0.5649044198195446, -0.47961138096855493, 0.37593526777908454, 1.129864928203934, -0.10566140223682795, -1.5024160070876431, 0.22274678601470488, 0.2353304912906426, -0.32359649483922887, 0.939721000190312, -0.482958150276255, 0.6007224250740841, -1.2326788320653215, 0.5070247315559734, -0.7381286738921127, 0.137345082459732, -2.600534214414955, 0.32222643566819137, -0.0054766319294749415, -0.3094709231434946, 0.006455941086681352, -1.580528265177652, -0.9835883013571542, 0.0342483543252157, -0.8357532684146656, -1.0267076102555446, -0.8560132700410101, 1.4300552141581222, -0.5825266191909476, -0.6749227694611525, 0.33633995312094284, -0.4141152992073158, 1.1658825439080245, -0.3094870406500093, -0.16780419246073036, 0.8733950354604447, -0.576968743531874, -0.5958604147294467, 0.46734781821247406, 0.22309430486678833, 0.05549482719285985, -1.2040446673157745, 1.131818089898642, 0.6068867553013836, -0.3160039008030711, -0.18191133338453672, -0.6411135546933184, -0.9377434762423084, -0.9985937472534526, 0.755590148547922, -1.1869861438554852, -0.5579863907996013, 0.28375944488335114, -0.690587042249776, -0.34800086680611036, -0.2583500205367082, -0.568332646409459, -1.7283323257890792, 1.1529206189236945, -0.2515075632585718, 1.4072364904801897, -1.2800521193324037, -1.295153328853296, 0.22343689475301443, -0.7284812263793116, 0.46017672817717686, -0.3705160882074483, 0.42433671809067747, -1.5858124439155346, 0.8173334392244693, 0.11459305805676848, 1.6906543110988157, 0.15636268092007852, 1.3680533345500663, -0.6114247845495435, 0.5825442179794392, 0.33217743680397693, -0.98638315276637, -0.46683963499859255, -0.4485469613129918, 0.25409488752351145, -1.7107531534587757, -1.313596631909743, -0.7352928493119314, -1.3277741268789014, 0.25077663775974085, -1.5385758105490428, -3.073947944322145, -0.8111416789181418, 0.18750910675999227, 0.21780716948777373, 0.050216652690802284, -0.35295584645622824, 1.1751380712521509, 1.0794765521849063, 0.8358266687187818, 1.3578249024278, -0.09883741325561864, 0.4533529095027937, 1.6230405803242864, 1.5061476489502403, 1.5739825176469937, -0.8580550948417134, 1.0854380115115343, -0.2484095661287648, -0.5911274272883856, -1.019596518899908, -0.15076579525485564, -0.02394728816713967, 0.18105492791269465, 0.3375391263564508, 0.2171248467325702, -0.029275875285211507, 0.358522824174301, 0.17803749821933693, 0.7976967760603562, 0.32726671643887933, 1.7238147062318532, 0.22303476810097891, 1.629720621533078, 0.9781760888508615, 0.9037176149957911, -0.5122376836176837, 0.38720350619517474, 1.3466012411722537, -1.287410539506917, -0.3387667876872919, 0.5485858222661891, 0.7674807047114021, 2.6168128254614023, 0.3158476370046217, -2.0677956102915944, 1.3497990775119062, 1.1083989329696746, 2.799508863976339, -0.2068500173751168, 1.7968681213765296, -1.107319911315571, 0.6126391991702844, -0.6280293601920639, -0.007691762235602075, -0.28293047524865295, -1.218864322005317, -0.09820850419048714, -0.5846688742359047, -1.0112342070468563, -1.2914465256171406, 1.5522293453155027, 0.08875913604480533, 0.19532472915994245, -0.30851547219004677, -0.2108758254917043, 0.8400218961680871, 0.5098232413258547, 0.5877466712728626, 0.5619354884758138, 0.9364576061148461, 0.7808193883828293, 0.16010725960584557, -1.6557366041588997, -1.0207916213420467, 1.7024111744921422, -0.41812476857498654, -3.2154144076197504, 1.4479484972667127, 0.023285817380133706, 0.6265598137997637, -0.3379735976602524, 0.04535372070771951, -0.5650528907324234, 0.2394645789497987, -0.10319327323614018, 0.4802714127771302, 0.3663966809532457, -0.6782739335032566, 0.3669961210361169, 0.9418318278665627, -0.7257807873630513, -0.9661984213126942, 0.08308917593571853, -0.719834328740146, -2.148255028482485, 1.8672980191433701, -0.5505912349542392, -1.2925829764157362, -1.32863834356915, -0.4581834352769052, 0.6303904343689641, 0.7242829510770172, 2.2814643063686266, 1.1892093029475825, 0.05383191650576376, 0.7238037628197488, 0.008332268022389162, 0.8782508118290414, -0.8259504701922238, -0.11178638261621067, 0.4135280517992501, 0.5700777377991846, -1.1335574926512955, -1.0697521026842214, 0.14342509969348968, 1.9182213526853709, -0.26457087288663617, -0.3918092176011671, 1.1545209020865856, -0.2860064481909847, 1.6033806409367628, -1.19237602171445, 0.8974110841544, 1.5647496797016194, 0.3069765778610205, -0.09711705669608685, 1.3896464991405202, 1.5891209980186338, 1.1321968769652722, -0.5377475036380137, 0.2525343238443438, 1.2911611577392939, 0.12991686199666044, -0.5538175964235317, 1.5423253525806515, 0.7755932062589481, 0.1646393848829586, 0.062084091217526165, -0.6573900505290968, 0.26575919984232466, 0.4306682636233159, -0.17045288262780256, 0.06732737648739606, -0.9558097207149688, 0.7592768091781628, -0.46838132449744946, 0.7098601708151052, 2.935371755276597, 0.699736291939974, -0.2488287823098737, -1.1024481835539732, 0.543587371398346, 0.06203876146715599, 1.0054821115372083, -0.19920928186375295, -0.164810284556637, -0.10013176788939017, -1.23546126579059, 0.7268418946491377, 0.07124490370538435, 0.766068190771395, 0.014978921871728283, 0.038061349748867], [0.5821162997449617, -0.7005541185525519, -0.0006572315949935233, -1.5371829986212768, -0.9219484808810744, 0.8602753870461619, 0.0664502289783188, -0.015235951087289654, -0.7539714336801028, -2.2299474503973293, 0.2366771064047913, -0.6799380380551896, 0.1818877492312522, -1.6911031036362816, -1.3849848165852536, -0.4712224386553242, -0.9946914930404491, -0.3324928673673852, -0.10282979146724334, 0.3710962269332495, 0.8549557226174868, -1.1914804276047697, 1.278707685457219, 0.16141756322357376, 0.8542795728498822, -0.1020029796534537, 0.08160493275199081, 0.7432807973231511, 1.0916237306192442, -1.0057096742124634, -0.6201680870275987, -0.16885988684861894, -0.6886358753667295, 0.24813234151897076, 0.4865439135668549, 0.24463479379809847, -2.3144904859762496, -1.2771084950620453, 1.2876545307592346, -1.043782566182867, 1.0122164890180845, 1.7793380342364806, -0.03426715253009004, 0.46055221907145694, -1.2929972400353984, -0.286612270267932, 0.22957101345910438, -1.4932343585365124, -0.6554719528258556, -1.4113135122557456, 0.429550572171878, -0.5053505431155717, 0.9675334192983173, 1.196633428436667, -0.2538523010458338, -0.10681818180637971, -0.4016759044770865, 0.17379583797118836, 0.9880618124297651, 1.640169012118997, 0.11449678775865436, 0.818809551465385, 0.18453462632658887, -0.10849024564644823, -0.8705161823979967, 0.3299164383861349, -0.13838924369484343, 0.7831823367308614, 1.3120523514996816, 0.2314255223532719, 0.5409155156345054, -0.2919024145297955, -0.6100610178478294, -0.07153368080025024, 0.4343309888417392, 0.1295509137622636, -0.13855862527525112, -0.2899352288190018, -0.1853494439370758, 2.51164195881739, 0.03913540430244961, 0.36989939392319704, 0.6796984430421085, 0.8280245804922188, 2.344388141131277, 0.26601350090362713, 0.8451119039357241, 1.3355720917676133, -0.1322674067291164, -0.23702207746789414, 0.6483086411177682, -0.5240249170004168, -0.04517749696593334, 1.3419230719389297, -0.08081614380178741, 0.4325339227195915, -1.1819386180747358, 0.0367397027238401, -0.6514313709633698, -0.06617542787701974, 0.7107048684415885, -0.6799469610000187, -1.5716711832472476, -0.3714131908920939, -0.5257820275935996, 0.07950544614503, -0.615055789608152, -2.238846437898043, 0.7679939912341809, -2.6564923207979265, -0.541309808702725, 0.3961698765541448, -1.4346857571185438, -1.324820942063539, 0.44125524212530903, -1.514818183267395, 2.3615402079651613, -0.18293558698699255, -2.7571068123592593, -0.2684437720470703, 1.6899150873674176, -0.6903004270761807, -0.03575841037102936, 0.1585833645064399, -1.7785567602390084, 0.8140802652783039, -0.2625920049510004, 0.8628214330243861, -1.4060793067789814, -0.9713937121982336, -2.3399109617176097, 0.4051765030511803, 0.7395946896950496, -0.11141163379239362, -1.288653696041704, -0.5629566444561309, -0.026860930293544232, 0.6602733827026773, -0.09897872022170252, 2.2078626616611743, -1.8874280739926963, -0.35702159421404267, -0.3906597864407188, 1.1397209567113435, 0.14755211801513501, 0.6229890651462816, 1.4520641624979196, 1.6559337027669152, -0.13741196931407693, -1.010305545998205, 1.0992245135795626, 0.1512432714996694, 0.07789546481870195, 0.1776413307833548, -0.8728197034375839, 0.6846184793555109, 0.6936296504167835, 2.3542006558571815, -0.9211874559807562, 1.1823884364980626, -0.41751197289321135, -0.5742239894317267, 0.033775707704859936, -0.639480136992147, 0.5102902708732773, -1.5017123857331238, 0.3519082612927387, 0.39444366083041044, 0.45514850744809215, -0.05802580521096521, -1.6811136738398493, 1.0625828594388398, -1.2638054562556158, 0.7993882553825785, 0.27428780868484376, 1.2872670468600431, 0.23209421554665724, 1.0162729004184163, 1.5194434962916177, 1.092520934163796, -0.03849016119847657, 1.697950351533417, 0.7104569241836204, -1.5221310524825031, -0.012482746572433194, -0.5298630817159006, 1.4549371495350425, -0.5604274190814981, -0.28193096526431727, 0.24875419877917493, 0.9561534417245433, -0.5296965117672001, 1.1138986067633219, 0.6572822850802348, 0.502468803957399, -0.14334402590300083, -0.3939819104755282, 0.17750421427926638, 0.12695319916782236, -2.2907611791349227, -0.342252493195754, 0.7137042218444111, 0.12733458043224807, 0.468258905350516, 0.8547884842960174, 0.08468739709107392, -1.420772206531179, 0.8109458659452089, 1.3334753436708577, 1.235916754818457, -0.22039194034867732, -0.9131606470500214, -0.6701707622091146, -2.2859387484009437, 0.528298868355449, 0.10402922832686816, -0.6836622755666696, -1.1840446482497404, 0.013295118347338451, 0.040308316828386405, 0.8023850574680217, -0.3797813674223894, 0.6594979066504897, 0.9233337372387702, 0.08969866107854453, 1.3669725160957398, -2.2054532482594444, -0.8736186046158653, 0.07210474151529676, -1.4290111599413722, 0.18091831552804785, -0.23440380597175134, -0.13707905726961628, 1.4782478841276527, -0.8080044993187245, 2.1293574078567157, 1.3368136483007529, 0.32555800025401954, -2.194697936040596, -1.2473214687673582, 0.08155924807258694, 2.409747505167904, 0.3923379189571425, -0.789285023259404, -1.0390439560876992, -0.20372752605479238, -0.7027364528516011, -0.1330148528714821, 0.25573310742974276, 0.05049103520740986, -0.09121709019487491, -1.3905330671100993, -1.9608817991236347, -0.43755599086656427, -0.5393458099932062, 0.6774300640885431, -0.6595365398479226, 0.8633579994758241, -0.6288001475542937, 0.16104360754729233, -1.4065534274229305, 0.9689525146788339, -0.059471149286716374, 1.0062267401489757, -0.5588962992282585, -0.9156771262284534, -1.4142042105618928, -0.7551727776332666, 0.7632457326871326, -2.0010474410191255, 0.32083940637313113, 0.447471032442546, 0.5069703327322738, 0.5925069576440801, -0.0387439672769978, 1.011056848715868, 0.8409490843631353, -0.6709449258529131, 0.46684935818356516, 0.3644081544805421, -0.12617303019547427, 1.312907041285784, 0.04855025430726169, -1.0299999415920382, -0.0824758238960425, -1.104416057242989, -0.48824743533253534, -1.9795025109557012, -0.25324318651933386, 0.14094024969660338, -0.9158524745377254, 1.227869338831257, -0.8276555126545592, -0.46513707038978047, -2.26861584234945, -1.2369047992553688, 0.21110330229696797, 0.2596202425073605, -1.4490768065483286, 0.1828980482428588, 0.3516185459521628, 1.7595126731636552, -0.9741820310888682, -1.7843823003229111, 0.26121907182657134, -0.4331398975571935, -0.8178822254782683, -0.2373734009902647, -1.6416919946650441, -0.36837592574458994, 0.3649426463809947, -2.5638076938748067, -0.5467044055783482, 0.05012228700697712, -0.8746085634233628, -0.3117413598641895, -0.19428850590297805, -0.8576160031576996, -0.5636529444288639, 2.076229421720357, -1.7100151260944725, -2.6287161780558757, -1.2113757398048943, -1.619876284392239, -0.3782065117544929, -0.3778525777899801, -0.28578758484439426, 0.10007929214551478, -2.098826505748953, 0.7131938236432451, -0.1056138109565263, -0.7732687292158688, -0.14272554066835375, -0.594415532582208, -2.270150216751635, -0.9913312934134267, -0.4465818904192429, 0.22757768610084936, 1.4882480149546329, 0.6605367597964733, 0.8571614630849951, 0.14045643710177164, 0.5692208969496794, 1.3723154161144344, 0.8869975893865271, 1.245763751975994, 0.22379919798083348, 0.8901839597410108, -0.47632292467840104, -1.7157589601256997, -0.42875057176421477, -1.6837105133832004, -0.7978914211891781, 0.7014428681703634, -0.567839682667765, -0.4696989989110308, -0.9136180711380955, -1.378683420092231, 0.4230546034512305, -0.6308226415066633, -1.8040323245431105, 0.9027055769436673, 0.4929580191803213, 0.024665156986643882, 0.4546244235637823, -0.768937126910454, 2.183114668920693, -0.34422833534519665, 1.4753571670915528, -0.7972657596703182, -0.8381762432213739, -0.2288537568383936, -0.8458982327623386, -0.19381948895414874, -0.6499069016111714, -1.6633561065208422, -1.0982264483701654, -2.1845684992371748, -0.884138421557839, -2.5882648577747385, 2.0400643720624374, 1.147971654939877, -0.5054913508199492, -0.4020315542579215, 0.9586673096773981, -0.19621339079594965, 0.22748503325328692, 0.4228682183567133, -0.5285683024327293, 1.0470668558779483, 1.2330161540982485, 1.5404793519783013, -0.049723180790920515, -0.39365668970091006, -0.6839081932024288, 0.2304333810835443, -1.3889074514178243, -0.4115176205308723, -1.6477557860780463, -0.909135546830063, 0.9010191633119561, -1.7169306481544604, 0.026193762173196425, -0.6982713046252332, -3.058280408182988, 0.36482033189759944, -2.3037845092532154, 0.13653013988595675, -1.472601265676329, 0.3351709047068265, 0.3566642275503943, -0.29910782613340753, -2.230229737412324, -2.362858718474615, -0.7091952898592179, 0.632061806404718, 0.1028699434707889, 0.5741820751964934, -3.038811874557569, -0.625687300629894, 0.7666092250256988, -0.5864290786649347, -1.1737214899322086, -0.04930044946313373, -2.0595314201817745, 1.5160066373331296, -1.0279996703174374, 0.298639455649995, 0.07008579283012034, -0.019357094711649328, -1.6431565242351913, -2.480278626510242, -1.3968575288364034, -2.9446274892134463, -2.2809692131092, -0.8626212630371513, -0.4301076486059136, 1.7383423000841671, 0.8591106065997308, -0.33992372491620276, -0.8209600026122719, 1.381328449372658, 2.2254878374275897, 1.3098272381930238, -0.9067552652690951, -0.5869362550690046, 0.7640028765995927, -1.3391846707424564, -0.3604908567268708, -0.7105157918995019, -0.09951305248149894, -0.9612646930052093, 1.3845915906918682, 0.9949500585605124, 0.7039264714490665, -1.0836622035072287, -0.6463274193786906, 1.117286114956627, -1.9261986615708346, -1.1317356773766567, -1.2650787026818338, -0.21448813799738273, -1.2923352193795303, 1.6907452882080969, 1.4819312639028681, 1.4080692643169987, 0.8163665647280616, 0.7518315202691579, 0.7381972268283931, 2.2307913532476555, -0.02150465105214952, -0.24037800834394377, -1.1229504195743714, -0.33515224296695734, 0.5786565579556594, -0.8758492947979242, -0.7616476100929642, -1.6536041562582298, -1.190886677007642, 0.08528303920488667, -2.0539714441305232, -0.7333652118575972, 1.6363598418813785, 1.0559412757751847, 0.7428931395625203, -1.3497596267352923, 2.823040896629935, 0.14030734871008782, 0.7860247018737925, -1.64592477590362, 2.205020661691884, 0.14588049704223022, 1.6608227297400933, 3.098307030377804, 0.19187246619747028, 1.0149220254129598, -0.8172115988523732, -0.7213177901929047, -1.1642780068841665, 1.90241988742141, -0.6024903796671462, -0.5884533871944833, -0.8416243618695148, 1.5873223084421797, 0.5479122668247141, -0.7205617011575303, -0.054577490824025084, 1.8510700704964493, 0.7557438733912321, -0.9191812047121064, 0.9440733707116439, -0.14373389958131938, 0.18273499663105355, 0.9101767066935657, -1.3636695571909696, 1.5670855847350522, -1.2068409865691592, -0.10206479608577654, 0.6844807095767931, 0.24429207591233598, 1.6864588114841523, -0.9515468327024884, -1.0530628269159477, -0.01651015059239254, -0.5073258863574579, 0.4003037420404221, -0.41967307890534333, -0.9267583754313056, 0.7977169583095644, 0.08112221328467044, -0.8248166183423116, -0.462919173983327, 1.0627433407969014, 0.5153352455600189, -0.04423551129883654, -0.24956122309614392, 1.0353541487792066, -0.4501103346494113, -1.793639934117662, -0.40577150307776844, -0.7719586264029572, 0.38592135707108394, -1.3793255552679904, 1.8615923036873743, -0.8243912529533453, 0.9006458745363256, 0.5298622337222363, 1.3134754370396393, 1.6760358014001309, 0.3176405063136934, -0.4253496823608689, -0.33000791811543234, 1.1326095317324205, -1.3146885068585414, 1.3474631045269228, -1.4240456883289883, -0.7595679827497825, -0.8857145228405715, 0.9564146826449696, 0.39360682376406086, 1.5794318586774792, -0.18412954092034725, -0.21947395271301368, 0.5597410863868271, -1.1216316753369548, -0.8601950995970515, -0.5328873763336894, -1.3449342512577633, -2.4758706396926278, -2.1347295907171673, -0.25003816155440395, -0.07298700262800548, 1.1366920908551625, 1.1576338872206935, 0.7613913397031574, -0.32163458122961697, -1.8337237214231037, 0.7886706228534193, -0.8452315560215596, 1.2738515413521372, 1.5768839851190366, 1.4854386516122315, -1.0434444163797776, 0.08124620238508735, -0.17847209918844642, -0.6542626756303933, -0.65460649834772, -0.04976222617275699, 0.9049322973307609, -0.004879432327107571, -1.2702876182277454, -0.19275402949432235, -1.112689848024177, -0.44707853401674646, 0.6243321835844737, -0.8292536459055034, 0.7917989524041145, -0.6658134549763838, -0.715368742811226, 1.20913510350028, 1.3754460670236293, -2.73425245359013, -1.6752638723649107, -0.31060573877633624, 0.5680334166016746, 1.717196373535592, -0.680855036330164, -0.23336280707504983, -2.2930731100031787, 0.07124698504595006, 1.4550935332699584, 1.0046235772987995, 0.2949353911653325, 0.10976987806889503, 0.2586571868684304, 0.6645537622971918, -0.40442048386372453, 0.6909193764118191, 1.6328010408085738, 0.4558149385732231, 0.016705128474950474, 0.8720160593316509, -0.5790197451700839, 0.003378585541972224, 1.9506772133379617, -0.6487361132365715, -0.7110492395409296, 0.8095000718352047, -0.9088336221720129, -0.7210970960008574, 1.3060774054772943, -1.36535778911227, -0.2640396176525602, -0.21469481201316457, -1.0657678358772973, 0.7429668372268212, 1.986391605415542, -0.33703848793221197, 1.6388723859587666, 0.5619860017368081, -0.051437541480149854, -1.3190348738387518, 1.0776734845442517, -0.9159579351750599, 2.015733145301412, 0.446975941128293, 0.08150881642210211, -0.43986345756214135, -1.2858904145201568, -0.7744976089188391, 0.5513928650555079, 1.0179914170602784, -0.4757659986441525, -0.6413487812739707, 1.4497149291941496, 1.0038860109619057, -1.3695362591759253, 0.01951397120063221, -1.5986793592003645, -0.7778193294140421, -1.5395527788295085, 1.2518091232496291, 1.4469086169723147, 1.140214646573437, -0.43887325197065147, 0.2977674394400139, 1.379611362740559, 0.5703336397245714, -0.4529537420267602, 1.4579010683094, -0.0335497479897458, 2.8122776367316984, -0.18506161393427434, -1.210625687738009, -0.9437873194416543, -0.18744124434710893, -1.4970296606320033, 0.5871213199318129, 0.33638443187580214, 1.1355924611203079, 1.3871436226490548, 0.5057187818198493, -1.5104205500304326, 2.7601031445967195, -1.096604945940466, -0.14470670822038822, -1.5535721377223743, -2.310422418153629, -0.9084638066823342, 0.5180979761159744, -0.17747949481480957, -0.29008559701799713, 1.2949339726136142, 0.8933273322950016, -0.22227098033560244, -0.5203786429136067, 2.512973946766273, -0.8321137240327515, 0.014636346113158722, 0.1390415628309302, 0.5001334573523211, 0.7230028232665721, -1.1778261444205842, -2.5473035264283146, 0.38669747467337307, -1.3220034683262891, -0.14227232960019154, 0.21914591872067954, 1.5942894743798588, 0.6969955716689241, -1.6257400534034168, 1.0351755971530114, -0.7783571513213524, 0.1962411623122945, 0.9714340855254119, -1.2555458014649057, 0.4362740481940161, 0.6800710466158639, -0.5436167232225577, 1.544087353413684, 0.1616720575439253, -0.16761826018326276, -0.3382231285582239, -1.45587502808035, -0.3735547238601259, -0.225699615313961, -0.10337798234728196, 0.8334972441239706, 1.1755132349327129, -1.2028268331780556, 0.4166601491559428, -0.5797880430933432, -1.1503359428154656, 0.6088211662229018, -0.2703251736086062, 0.4918756082124174, 0.7848121160257396, 0.7674062109462338, 0.569402062458254, -0.2633747108524522, -0.35849856914409106, 0.5689379752170459, -0.12758605633278727, -0.7083323117868485, 0.46444893072685084, 0.3324157867631472, -0.37896425174672665, 1.1193820976767568, -0.42624385697679196, 0.21788792642391072, -0.20639314995778335, 2.1023005982581755, 0.6944786259481053, -0.6171888378839765, -0.26715394808625814, -0.11750943508176509, -0.4107610195385953, 0.7137796926483607, -0.7084496649997251, -0.9542634482694059, 1.6787189439050407, -0.9361340252730824, -1.5527944145615733, 1.0942603040450112, 0.3986492555334996, -0.3606540739797221, 0.2998861259689364, -1.2755492717884411, 0.8345086849203899, -0.4142567519573719, 1.2061930507952134, 0.07371671977782748, -0.7407987586219699, 2.397014320065636, 1.9904056847586937, 1.0436062476726684, -0.8352123289366478, -1.115197198414974, 0.6583468637587607, -1.6146531009050011, 0.8621891978486773, -0.17502408801739147, -0.0716273138095911, 2.3947804335470813], [1.7540877666758834, 0.1604373175005246, -1.1486113894851933, 0.09061336665500663, 2.2214564625963886, -0.24228905647666318, -1.8479205024907204, -0.23601933539600825, 1.0598784491894009, -0.4773822716153375, 0.9473790221908567, -0.37833772497523827, -0.5953367737160771, 0.014382304420227192, -0.562230481506078, 0.468209304104375, 1.7734799302177675, 1.0026225305994751, 1.0866728730800477, 0.05293587342110062, -1.8964680920284052, 0.9405484510208227, 0.45786723954358793, -0.06612514982933203, 1.1957146189676353, -0.36483322022218145, 1.4231126161083536, -0.9520165966703512, -0.4175059911355322, -0.5010747992137864, -0.6926880093754655, -0.8319072612856037, -0.706972001169885, -0.9255719941076929, 2.051180119231988, 0.5556112884845544, 0.6849851224340788, -0.4588025650956137, 0.2215522861317829, 2.303936279104099, 0.25014517606229425, 0.8386015814589934, -0.48312597748282465, -2.4096697206564683, -0.8868696209294146, -0.4948564067002107, 0.22793196785782566, -0.7113449773089554, 1.4574045309389034, 1.01341518882329, 0.3671061395157607, 0.36217558041634534, -2.1459331518674163, 1.4295304029192837, 0.3159948767897432, 0.385114179170585, -0.27423067024534187, 0.8936023777968916, 0.9239783425104362, -1.4794583479300798, -0.03500625423672893, 1.1932905336692599, -0.15003630729927617, 1.5994287828075433, -0.054847425491281056, -1.417301280407996, -0.6022873402104654, -0.43996954080251105, 0.4594735642707194, 0.8155570084713943, -0.11188414629781335, -1.4574618815058722, -2.321723624143487, 0.36612056714006846, -0.20429853143932244, 1.7376737999418121, 0.17417852364771705, 0.8539299285928578, -1.6621137645859787, 1.3902569712126844, -0.15044269807413432, -0.6065401684612943, -2.8762042631408726, 0.013878423103898932, 0.11246239337911161, -0.24836290733203764, -0.1620816455150357, 0.6465393869948727, 0.5118565368783639, 0.42866241887411277, -0.46913224425062694, 1.1222693519238462, -0.6528460472047042, -1.2854891487792575, -0.9355516724458078, -0.12481534870145598, -0.35104282588213576, -0.8721687229692564, -0.6081031570226023, -1.5171426151171934, 1.8110371937361898, 1.5553671625758267, 0.9386007066218983, 0.5563206193285782, 1.1294544682477239, 0.3768044022436981, 0.703816874656274, 0.2146180736960065, -0.8854671274702484, -0.8540523237423407, 0.08146921396012669, 1.2991980258663793, 3.41356943148273, 0.6289503489829702, 0.33464433964520274, -0.5591133254466448, 0.3173602080268757, 0.8841628809013208, 0.3747226875026618, 0.09275140512906146, 0.18447635233012727, 0.5943935014821249, -0.04250027372919617, -0.8849831870089935, 0.540736812031681, 0.37435837328928173, 0.6535691504079275, 1.8462557355087044, 0.947630144605471, 1.3934663152432973, 0.8195157454624361, -0.7261865213906605, 0.30050461938985806, -0.2517568444903457, 0.16662580297298019, -0.9108561214060762, 0.28648003681515755, 0.5608067730958233, -0.40219689397036024, -0.8648796783593887, 0.9398928287613599, 0.945042669473587, -2.1735252160788825, -0.25157764104392333, -0.25274223222990555, -0.5472918371887251, -0.6397227081957213, -1.2487237502459227, -2.3475157278527465, -0.5678788713596147, -0.19431846523138516, -1.339028645724573, 0.05362731409046263, -0.6572234541800709, 1.209577107790033, 1.5207136480668024, -0.4290600872331692, 1.8178761695167278, -0.3669013308416717, 0.20026101618381334, 0.8769333100765933, 0.26015714560463105, -0.47822454950340565, -1.201779373292531, 0.25929532340935113, -1.6152478163981911, 0.3214317729007901, 0.5337007891236555, 0.6268453507978484, -1.127338456722259, 1.03305895755626, -0.5670981200448233, -0.43502155778839796, 0.2216073890639898, -0.01973902296866765, 0.15808829870443641, 0.20938333142528048, -1.0226532503031145, -2.076496146568751, -0.2497590729299159, 0.49766300612492875, 0.7529976351625968, 0.008222517373705307, -1.0255838709909524, -0.8885757782972851, -2.0428048036691573, 1.3313285246204463, -0.07112648013495002, -0.07339033004244976, -0.18429633882401383, -1.48124423044762, -1.7798327103021216, -1.1741278853262318, -1.260120177077531, -0.45731166600006373, -0.6942610405882064, 0.608251166655291, 3.109686719884654, -0.13239236037517688, -0.4328001882677835, 0.2845375957729273, 0.4191214287327577, -1.3875694843983108, -0.2833423362609245, -1.782229306609001, -1.0605015367702184, 1.005981582124817, -0.5699952802524308, 0.19212267686672893, 0.385603707081247, 1.111468434196205, -0.6248199771348976, -0.46913035674572906, -2.3504375430491695, -2.1235351662864934, -0.09188370188236036, -0.18222516907268643, -2.465065040579667, -0.9266349600347784, -0.09906201560323984, -0.256875417718162, -0.7215824251115048, 1.1071986214376892, -1.3668796788233661, -0.013769364551733273, -1.5686013691083476, 0.47147329194480186, 0.1627157794508739, 0.7871367134388563, -0.9495553055945736, -0.33715049330835173, -0.5068358036435078, -1.1053964020548936, -0.02685721424283159, -0.8597966303972312, -0.9123062253083372, -0.36594912594530027, -0.21168580113268515, 0.29304708921823563, 0.020419950702401574, -0.8672837329752624, 0.4571911268044835, -1.2960068728591245, -1.8786086615959732, 2.065713554816093, -1.0240387455982856, 0.4075055306519822, -0.009642689262390326, -0.20846108982617712, 0.24222225607271428, -0.9405234125248525, 1.896838171445755, -0.9442237651525498, -0.9837762428226026, 0.025860442495684404, -0.736576074567833, 0.7217356329587802, -0.41358727792686945, 0.6825919596861538, 1.455913303132018, -0.34637686233003145, 0.30158017991025665, 0.5294960123516359, -0.5026300800699434, -0.16545973836341815, 0.9426963368938501, 0.4165334419039981, -1.8404281001537335, -1.2837086804674427, 1.2071397765359635, 0.2144813335128441, -0.8617563757121448, 1.3681950189822072, 2.400770239789301, 0.5334019232908332, 1.8275754761255476, -0.07140562632617203, 0.4742153478210246, -0.3253524045611655, 1.7176332835317152, -0.9536485975801927, -0.10942582643241161, 0.6224809455637005, -1.6019853993563904, 0.6602688939284934, -0.3856730503362955, -0.5886481351977007, 0.583014970033438, 1.1165310263249006, 0.2503303784750228, -0.46714356954132613, 0.46256855509013495, 0.9016230922778743, 1.5741204463714238, 0.44629882329126724, 1.1844993861768744, -0.2617252824606486, -1.1660186327254998, 1.865007387304948, -1.0207507899936668, 0.3848759171147594, 2.830813163901785, -0.43845885676132734, 1.393637595159575, 0.3406227126079748, 0.9685011126020815, -1.5375941142078609, -1.3790633870357492, -0.39748979606423335, 1.5016529593974117, -1.1929445984568503, 0.26963427593170614, -0.004996443889241828, -0.14691284623100387, 3.886753766633055, 1.4098341540931651, 1.191677799636876, 1.3716228507123733, -0.8542404253251951, 1.3643327390053461, 2.308245301957146, 1.341881445428486, 1.2224287571584056, 0.6903712770138554, 0.05265095236965466, 1.599820467641854, 0.45547047095794047, 1.11108171213551, 1.5476982066135434, 2.5103550144298628, 1.0964379280823453, 2.370730318250058, 2.6562104215628484, 0.4945422073967397, -0.33784677689349907, -0.41370993289814456, 1.9424985053327446, -1.5579826398603531, -0.02194981287374609, -0.4107791435864648, 0.11271543041644896, 0.5872710099364425, 1.5403589793143007, 3.0290078383069288, 0.5422915723271705, -0.4269857119689353, 3.9989754964497193, 3.5867767939871285, 2.4644647662803862, 2.11421774788014, -0.5336800911557387, -1.471211943085338, 0.8868881846961337, -1.4925594644447866, 0.9909237081257185, 2.3442281521495416, 3.3344695204230064, 1.7979949512533984, 2.071360507043819, -1.3037782816236487, 1.5816664946751533, -0.6666833120050497, 0.5069714129718281, 2.2949697897282286, -0.048308726332564576, -0.13574168873400727, -0.5531598279467042, 0.620812199041874, 1.2662717874268956, 1.3025537889665018, 1.2203149938486089, 0.02836548751218428, 2.456408632639519, 2.109168024302936, 0.8828953486050539, 0.5008487846711461, 1.4167923940275058, 0.21241219081047946, -0.05829003604646708, 0.843580010595524, 0.0024094774644634535, 0.14328407461814302, -1.2501613308383228, 2.0537829740472477, -0.7310549860327872, 1.2181768824924621, 1.4265435194920144, 1.9356740217775603, -1.0663246733300127, -2.1021438268514157, 0.07762587522698547, 1.8063569023939159, -0.7968361272387515, -0.09873968487139388, 1.7261892356094937, 0.8139416423259954, 0.36887280932792904, 0.8723483501129693, -0.26134462216238885, 0.9365671493562266, 0.6617724559533597, 0.8251704432359898, -0.15538634475338386, 0.18583565718231032, -0.341671740657443, 0.37275053201511327, 0.5090727455755598, 0.6625475793130519, -0.8963577344902076, -1.567359640883439, -0.5552998457100188, 1.2233961203497374, 2.5982248457350647, 1.2380153779184946, 0.8440179162679298, -0.8492223512619794, -0.4992275334623046, 0.10507097020928405, 0.9472908425655641, -1.3301185188511604, 2.06374997638271, 0.9763766686996656, -0.2517703772710749, 0.8667371800533824, -1.3190479606012324, 0.6740137655522309, -1.105486483932499, 1.0596650162275267, -0.2770041771961905, -1.8086242850773313, -0.6668621716124523, 1.7646755997841672, 0.4043235376715415, -1.6012345648446091, -0.5075631227730654, 0.24101442937231451, -1.005802158890104, 1.6407590751564296, 2.44616104282638, 0.23902315944308555, 1.1915093422045562, -0.623926970452953, 0.983396065666665, -0.8792214234946415, -0.9367941653046711, -0.7765636472333608, 0.8438043125682813, 0.832088730197801, -2.1864473632194903, -0.3948838214600908, 0.06905213711359327, 2.417698653302125, -1.148846038672746, -0.8013907445534032, -1.4419219455567351, 0.09305501463370722, -1.2955743935257358, -0.7743365347452454, -3.497600299778796, -0.870491470894278, -1.045844924959619, -0.8776075686642457, 0.7038636837785824, -0.3098317116996484, -1.1358040784474883, 0.2324355160297598, 1.4780098258780272, 0.6700777702322078, 0.7577165207187953, -0.20193676109340244, 0.3199222660034359, -0.8026544676881121, 0.8669503510518538, -1.318048614399896, -0.48082767411319, -0.09773839012590332, -0.976840527819434, 0.6765832382046356, -0.3924152140777579, -0.35628846260229236, 0.5513509785309334, -0.14856493141582747, 1.1571553178127676, -0.4256760686781527, -1.9887316390748406, -1.2549896842787989, -0.9838481453641065, -1.4917253502212426, -0.4780686977993458, -0.8277041889968608, -0.832492199038653, 0.041160499425361013, 0.8233809638164199, 0.9356008713707038, -2.5423710079781077, -0.24255551305559145, 0.09944325523155201, 0.05034384567868543, -1.3725742054974062, -1.087761096788857, -1.9121211722820854, 0.31974163880785283, -0.05064670925001639, -0.19011826078198438, 0.9553187158043468, 0.05904224651411616, -1.0936063531790328, -0.26950320490467283, -0.1434710170195579, -0.8074645154256962, -0.9718888537802653, -1.8521825587525358, -1.023507788114766, -0.7066932000116706, -0.1026706060570085, -0.2719226593825007, -2.0702032543057385, -1.432113508406579, -1.6223468207307976, 0.1827666571485077, -1.2106804787322378, 0.19244382215459394, -1.3427328828944933, 0.4837934923979812, -0.43345470503559774, -0.25597404273340774, 0.8940616539787443, -0.26960483342673114, -1.0466175695263544, -0.054051622755675974, -0.3298830124792449, 0.1884244782551104, 0.8993332802828485, -0.2765283120006173, 1.0834501285176397, -0.31304018804410333, -1.5835786694451996, 1.0435804140529144, 0.6693369454125151, -0.4113205529902892, -1.402358128059029, -0.7201545552928087, 1.3724463661716044, -0.3096846581203356, 0.3278322643929253, -0.29661027391159145, -2.0081392263291313, 0.0030550363149491008, -0.19981049198051995, -1.6237417009721091, -0.12169091801173357, -1.804616468073109, -0.299625835137102, -0.11891389999371212, -0.7345700457284124, -0.6818522409849703, -0.33457538009748006, -0.12281753528971318, -0.7794329084892583, -0.8527454404719639, 0.8718129314476215, 1.7471470674505816, -1.045329063861792, -1.4998450834501138, 0.11937164832814771, -0.030433944062730308, -0.8805724697491617, -0.5098459793024398, -1.2090614009432856, 1.264720745431522, 0.005094586440098967, 1.1812262629448567, -1.1181862760454513, 0.9460477090544145, 0.22768193795423453, 1.7727547641015127, 0.12167243254091133, 2.1702429165736645, 0.13173670426090647, 0.12066275323400094, 0.7068532914067468, -0.5554271199378169, 0.8778560086095409, -0.250397767357668, -1.1494300731428562, -1.8713177602177522, -0.6394440827539574, -0.9765355447517932, -0.18077113414875992, 0.9791228321356716, -0.2688255635886573, -0.39557623614223736, -1.0960155046188036, 0.8426621996275522, 0.22785074084942453, 0.8583419644998621, 0.9605739163479693, 0.49820725063289345, -0.11575727902482562, -1.259663602866552, 0.8728379259231618, 0.22942490729360596, 1.547129042566854, 0.6383556477360923, 2.221454756913231, 1.969972053326658, -0.6931363593823096, 1.427387490687973, -1.1332040837530624, -1.6043451309568786, -1.729364968500293, 0.1953564514773096, -1.4187110877273654, 1.3196314380237286, 0.6212409992523774, 1.12009587620851, -0.5056398360911036, 0.03144233518764992, 1.0972101868889395, -1.195167951621084, -1.2823945181930096, -0.6426832720850858, 0.44905563696899375, 0.3497609509954476, 2.4202140669527332, 0.16982760897589205, 1.5179482641432063, 0.9684230127485585, 1.0051911327214436, -0.04971985785344704, 1.095667492700343, -0.5149908673733702, 0.7365333220012672, 1.1073825028138056, -0.05691418793837677, 0.12356936548236501, 0.05317233239491385, -0.337834771751147, -0.8474458786178908, 0.4850979983373483, 0.5169172338213561, 0.06557256141302456, -1.326905792500675, 0.08175711964710862, 0.11658123072961629, -0.3268494450014614, 1.6394297871563022, 1.1926620895964122, 1.6331676359619274, -0.7405922541073614, 1.17608874326744, 0.5062216931934354, 1.1290763843421245, 0.9846413526771851, -1.5305709673952081, -0.06576714737674454, 1.4835572826628454, 0.8249046147384451, 0.6980711951558627, -0.21908357005953738, 0.19314877395740349, 2.521085833306241, 0.8715351812842917, 0.35438413854191997, -0.4436024699317983, -0.5108787226369013, 0.4040260074936856, 0.16561552321296996, 0.35232168303505884, 0.3261015851162318, 0.04062838182851511, 0.9279707926480302, -0.3791974434324331, 1.710907477088202, 0.7189501900577187, 0.9925232777972486, 0.5183065567742238, 0.3801006193705768, 1.6099039892403715, -0.16788687398714175, -0.4372288786981937, 0.14979075865785277, 1.2986021577364888, 0.24985333120567818, 0.4408221152010657, 2.481125545102091, -0.5019423742779389, 0.8071815887143495, 0.23231494964946692, 0.37546623045576166, 0.37152763891036733, 1.4702944247763756, 1.9883655588193956, -0.009161849031366269, 2.7815857383375215, 0.5015297003435591, -0.858905173564377, 1.3004511195614359, -0.560912421800956, -0.7433033055129094, 0.31192127488873883, -1.529176310390884, -2.202848523627874, -1.2618049276864218, -0.8183180346637894, 0.2947411550764663, -0.5968350626374288, 0.047087434827287715, 0.17753057097837457, 0.3363297114591765, 0.6081900236703875, 0.04343796672407214, -1.3400639031026877, -0.5599733544515783, -0.5585990618476318, -0.7593401834416074, -0.8994156115721788, 0.14049663481548638, -0.07232045693969981, -0.19880385588514468, -0.10660743263525627, 1.2274358067858948, -1.0860732393740014, 1.6476213206812285, 0.14189672208345563, -1.1794493080675406, 0.25917944678325927, -0.4702962470004467, -0.8592658690821617, -1.4360042574600387, 1.2018140092729133, -0.6878470717639132, 2.336220910226317, 0.7682948474497264, -0.6163395493166703, -1.4237084623658682, -0.6101560027967593, 0.6527426760296545, 0.18725102557930748, 0.5982396269741183, 0.2561701121866081, 0.4804212019614557, 0.7427597825475493, 0.2900161063855145, 0.6766351220993154, -0.8086873825929177, -0.9104616340943201, 1.05309358473903, 0.09677420432473602, 1.3524742610239675, -1.3440700797321277, -1.3923123087939924, 1.6150429990155555, -1.7075341096140275, -0.5605751688396972, -0.8977496562370045, 0.03187308878399942, -0.16784363437607633, 0.8236374306819, -0.24016256056804552, -0.9009574208088273, 1.5762204243434894, 0.1855821691289267, 0.34557831331091277, 0.17951974487360353, 0.2304144539189365, 0.14050847249132892, 0.3467367181047888, -1.355334449329615, 0.8477569012367208, 1.4710984913636167, -1.1888317812575409, 1.1081214902218905, -0.7498559946268285, 0.6206342008286073, -0.9180405482986039, -0.8881362944393392, 1.690983529318, 0.4696450832047569, -0.7128406654944944, 1.7237458778453072, -1.202805365871069, 0.5798143683194423, -0.6919626875902785], [1.2063945747802014, -1.3068886633734946, 1.3868746466844024, -0.47499596461056015, -1.8905415217215484, -0.27278554521519904, 0.20851974297202505, -2.6516335494763155, 0.1987168042390677, -0.9579183275062801, 2.4608001463396305, 1.261402791372211, 2.118147127536842, -1.242308932524611, 0.023450470333158977, 0.38625076109520484, 2.1550850387570892, -0.8361970622191848, 0.9443551355973177, 1.8408436563318078, -0.6383625974001547, -1.8896490248365982, -0.33218622934615943, -2.1515261208099945, -0.17576891337928746, 0.6118970707682966, 0.14587228825391838, -0.15799000340460984, 0.1985732627580916, 0.3784464167278112, 0.47477991292324556, 0.2497986787118676, -0.16444424285304024, -1.309479330845237, -0.27594778590630836, -0.35066218689606377, 0.9479229582734385, 1.5809226200201814, 0.2413034444848076, -0.5062757196208365, -0.9772726961911141, 0.2673674230509781, 0.1449073323315355, -0.33339596661580034, -0.9975319612607528, -2.19269736784547, -1.168651553300874, -1.2902155693667976, 0.34420380602173584, -1.227522195390201, 1.0397886475981188, 0.2998464573627978, -1.4029634465660856, 1.1908211093932515, -0.20516235784574463, 0.17383420281067224, 0.19249044796349674, 1.8205260162223964, 0.8978061652139191, 0.3656975400635368, -0.6786094921348884, 0.63651871237398, -1.3030010844255566, 0.47650056135829794, 1.0669749400641821, -2.1312793201106692, -1.635405444264512, 1.4122625263019142, 0.14835895780439998, 0.186172639684833, -1.2906405738979896, 0.7772425334520152, 0.3879464967759994, -0.8951368035011145, 0.18623516738506868, -1.1883488204738353, -0.6789178471765136, -0.2359654963061172, -0.4821796371801709, 0.3634822702874054, -1.628943208807811, -0.597622543471697, 1.6935188553752372, 0.05612461334688194, -0.055692264632511514, -1.9285093049306432, 1.1170927324306241, -2.1982635545944507, -0.9717755148404937, 0.02405838444685694, -1.3937655516533605, 1.6079019222196071, -0.6678155847994114, 0.09647977786519789, 0.6401885856752312, -1.0955213524079188, 0.8796781454404575, 1.0828366282335207, 1.320613742935325, 0.43340709897692775, -0.42187480078169687, -0.7782296935010676, -1.2643347904057003, -1.1277956267572031, 0.46338896447125333, 1.0856768827883219, 0.5467044590358551, 1.331669077308851, -1.4574027054684653, 1.7690600635951228, 0.5819880119317199, 0.9392118713920172, 0.3998109313968608, 0.819337846246287, 0.2778697068648926, 1.2752261418522488, -0.5656977428883063, -0.854438309358815, 0.3242514463455987, 0.5732394347466464, -0.9202151498997041, 0.00317713923067502, -0.16961392405044673, -3.3066841587428493, 0.06612276179677906, -0.09431888199346365, -1.662830360091848, 0.5250165873566127, 1.2567897720434666, 1.208918134256301, 1.423067638880065, -1.032124373308629, -1.7493841292875738, 0.2053880072048935, -0.8514976604335841, 0.4750580745429203, -1.0536741071924658, -0.42728935668496754, -1.3166594971423586, -1.1120441830739318, 1.655205671805844, 0.5404190363257044, 0.08527853961432724, -1.244116204416437, 0.5561957138657456, -0.16601959148981585, -0.27913352304148326, 1.916891228218105, 1.3833731167129133, 2.1507758212634775, 0.32816677382044024, 1.0695361020686869, -1.0441365052467173, 0.3991363413058976, -0.29671503663321347, -0.23952592022410493, -0.5129987381323383, -0.8436042491182157, -0.6185552816623474, 1.2395229870580369, 1.1457072313695298, 0.3521007260566029, 1.258804579485199, -0.8541361457769269, 1.7171620420613576, 0.8422973594796621, -1.0212757089839792, 1.1263907391652777, -1.244641734970128, -0.4659936616931369, -0.64177081821828, -0.7775753146511465, -0.6745577212126137, 0.4922034058441492, 1.6453343871943853, -0.16269218083841847, 0.8052969080865222, 1.6357825053258928, 0.24841716349394055, -0.49780560295841236, -0.21775355094582885, 0.8190609984954123, 2.0530016821579298, -1.400665965507562, 0.8046941990239945, -0.46461484502945377, 1.346481422306841, 1.1799223399812795, -1.5257066275845022, 1.4514138444549927, -0.39432898905438, -1.306977293839794, 2.275933468015563, 0.08467816302217011, 0.2356037515183424, -0.047618372113433366, -0.8515337979306064, 0.3760310175264546, 0.4333951722398961, 2.20887535990215, -1.6329352433090105, 1.5847081995375951, 0.9876646558063622, -0.3956464301358028, 0.343125063706395, -0.23941566290222022, -0.7141673831927956, 0.06805511138842701, 1.1242457525204042, 0.4528195330751464, -0.1250354978434973, 1.2053326738390844, 0.5392247663516422, 1.2375482454699773, 0.4102358026563778, 0.2271686752939388, -0.9751918417804291, -0.3453324204106613, 0.4794597336887768, 1.0065772768224206, -1.1110613324374525, 1.6403766439290353, -0.6894617670022078, 0.8485750674890383, -0.7736960767717975, 0.16785249970231364, -1.5195614306047, -0.8235413382861427, 1.1126541788731872, 1.5288007184866623, 1.2218003025901774, -0.29582211063968417, 0.2265813509617023, -0.8240013163487448, 0.4863387414803212, -0.12549476294382866, -1.9132116605636469, -0.43951673403680364, 0.8210084762060336, 1.7857807777860255, 2.0086879167955023, -0.07280327126927184, -1.1011270924727037, -0.3775218500193486, 1.4996313534945394, 0.07852187815585189, 0.5519714830156869, 1.649779198857147, 0.3894324176222345, 1.2610572905170723, -0.6374061678779648, -0.8710697219480469, 0.6052840698155721, -1.1296804374437102, -1.5434022584435074, -2.2686497621502726, 1.4714780124793199, -2.9697020878833675, -0.9984685395404204, -1.0655373499747067, 1.3229029582367513, -1.030334108297209, 0.06321251362495517, -1.1962509674295112, -1.9992067197091108, -1.4067493682868284, -2.383856811430633, -3.275591067532816, 0.2799811128707711, -0.3539893779666986, -1.0759813078017169, -2.5753129957796403, -0.35268060735908824, -0.2595463964440089, -0.025307779519070043, -2.4908246178772027, 2.0625967060363672, 0.007902361536355646, 0.6417770053554829, 0.3835105787314535, -0.102300609360512, -0.4558305988719092, 0.5020651543095611, -0.47400883036726704, 1.8989997849962732, -1.1788931360966148, -1.011514306488539, 0.1711838930139908, 1.1874865626011444, -1.0464807415106188, -0.8183079922283126, -0.8274176446468237, -0.6485622806967591, -3.0188366774125215, -1.7032416822335106, -1.0112789335849772, 0.015214225194151538, 0.4822633245836433, -2.2295938676032474, -2.268111092182773, -1.3002296221130578, -0.4676747855586415, 0.7880557320391641, -1.6972546292431756, 0.5670043893256813, 0.9728722598656453, -1.3954236095163692, 0.5723420974642799, 1.0510971966775824, -0.33397551570985884, -0.03073352951462045, 0.441566952965104, -1.1301325442782615, 0.3841549539119921, 0.4505999702503423, -0.7036880538678328, 0.005458101084143899, -1.1895479775539404, -1.6889349869026697, -2.156403283207245, -1.0249170086803936, -1.5530282913051003, -0.6382098460537198, 2.48947500819908, 0.9767977028336529, 0.6432652583735736, -0.6704083568495447, -0.5129738745206743, -1.0857439547087768, -1.6094868830488551, 1.6429367262553394, 0.4974810470213933, 1.400526647880591, 2.616514409236716, -1.373402183855207, -1.3566981423831095, -0.2585644157222413, -2.526922870437084, -1.0436190040569489, -1.0496641184637319, -1.0202667630152626, -0.5875492608579916, -0.623629831921051, 0.210125705123588, 0.5605021597741062, 0.8051503490241199, -1.3306837689747906, 1.3747116193812343, -0.16419427183856417, -1.3067994226128827, -0.3846844801213291, 0.8559306258937235, 0.41933759078377747, 0.14502790239921526, 0.8708249713515904, -0.9684816026813152, 1.6690228462149095, -1.679965807413992, -1.5806232681396826, -1.905121238770452, -0.4257229906462332, 1.1552819851976646, 0.9071148239873674, -1.268997782635744, 1.1372433030294902, -1.7452215865650602, -1.7889908505886258, 0.398484005609894, 0.32313095301046585, 1.0014443226567082, -0.6214198357966861, -0.0006976777831932666, -0.4342642751291117, 1.7865731019781752, 0.3261695979095216, 0.09839524418549232, 0.012879250631773155, -0.5832897343114968, -0.02189992128779304, -0.45121929624821344, 0.4364488881453677, -0.0542924326835351, -1.0635624881630878, -1.4196345842594198, 0.038833050905734925, 0.15319556299410728, -1.697655262625834, 0.23130324116306833, 0.7744189423819858, 0.2953129191267984, -0.0979422400569037, 1.3759487668797843, -0.6572280396183995, 0.477814371401061, 0.3094010393279485, -0.007869471576203877, 0.041247945523428045, -0.3731623805807475, -0.9787626240139653, 1.800615970770142, -1.6676078481537135, -0.8009319050493708, -1.3711817308937737, 0.1801430317553142, -0.060021669891354476, -1.1576698113900867, -0.12489885640122757, -1.0266757669081827, -0.024465725932075355, -1.2072089699986563, -2.047825362306901, -0.7819762055628282, 0.6900070880022833, -2.2982311176474135, -1.4810825594857204, 0.2587683704414152, -0.9966847594051301, -0.48824468850654823, -0.9517218052367845, 0.6152680683602875, 0.6069061348974985, -0.012702736287175187, 0.8412352038029626, -1.5983618804502429, -1.2522488987856377, 0.7082957042842913, -1.5546335029730003, 2.2580462888823583, -1.206268362452022, 0.7257573621189966, 0.9970353355527054, 0.7912726313772448, 1.9511849301787318, 0.6301058373473204, -1.1200707177077218, 0.9646371139544239, 0.3580020938965418, -0.657536712806493, -0.8551814894341022, -1.6198559036071596, 0.024945331245224002, -0.3156469698333749, 0.8627191497729751, -0.27024206151293334, -0.5762762205401332, 0.23522234739611694, 0.1840347198653303, -0.4315042409080716, -0.4913884060118797, 0.7903948068477727, -1.0000288747151223, -0.07444892955289878, 0.233525712511283, -0.7784399468186664, 0.07865178703283869, 0.3020004786044815, 0.7853322718393708, -0.29045336018696355, -0.2836074382595655, 0.5806050969549973, -2.3559190682013273, 0.061258031776717105, 0.6056833402213324, -1.3784221954413571, -2.0778994915585978, -1.7943506216763834, -1.462250694277889, 1.5421048737863658, 1.7000288079253096, 1.2984221689670485, 0.17311972207128276, 0.13308172467214588, 1.1130953432313353, -2.0204674463511556, -0.12918829944979981, 1.497721714357475, 0.3656757235107997, 0.15154215683302769, -0.8272077764424423, -0.5195459031305087, -0.34618673386566773, -0.6282808240026371, -0.21539155537021418, 1.2972877201361792, -2.4297270415171055, -0.8184085825687137, -1.4598837055818152, 0.8844485195221338, 1.5436129206954443, 2.893176207596301, -0.9055740188868069, -1.7274527763810825, -2.308541327456867, -2.150985924496357, -2.720373979687084, 0.08933050675676854, 1.0257870336689878, 0.592688756673369, 0.21121445374967168, -0.5768784881708059, 0.7003475763767504, 2.288492999722174, 0.8017813917972284, -0.36145846381650354, -1.0680871812089243, 0.3654569936546159, 0.10111445911191634, 0.6826143070197175, -1.055534678713872, 0.28342443873535705, -0.6216077709308304, -0.35151900853988377, -0.2694777501780121, -1.4394396524457618, 3.011111619485696, 2.8090169724058405, 1.5070744001472325, -1.4028111395723506, -0.1915991822613193, -3.18050198367984, -0.7094601056745661, -1.8109207480416623, -0.14963753390625206, -1.0062528103901243, 2.396372339592035, 0.44544373111617475, -1.5139479903524045, 1.051548197099689, 1.0332180667759157, 0.716601199918594, -0.0030564798291930445, -0.8300911397742095, 0.4497091271724556, -0.6933054455712768, 1.3546167864737002, 0.8517953386633932, 0.5112486955429327, -1.6188109634655137, 0.6579987804858483, -0.2720646736493495, 1.5588143148555837, -0.5698558362248701, 0.7685381946601766, 0.03489136955299159, 0.7542882567270831, -0.7673069205485901, -3.512972182834016, -2.487087960457372, -0.47981823759324393, -0.6329886347337118, 0.902220476923053, -0.634474717779186, 0.501545503328418, 0.03939852630458083, -0.7154294570393976, -0.6207257258130676, 0.3553968305449676, -0.021041201157033874, 0.6805543701016756, -1.1843778635262079, 0.4781436949379261, -0.5250282203029873, 1.7208338076129428, 2.386127572907523, 1.0717116881442612, 2.18656774269905, -0.7179046471581367, -1.015019614739433, -0.8315818413776356, -0.8725964527025749, 1.3308426508935474, 1.0906989308350816, -0.7315906468291491, -2.1082550840013776, -1.8856182043878225, -0.6706826505210088, -1.8450274230471988, 1.2048698548486443, -0.21786546367761264, 1.198367674323036, -1.6094832113446658, -0.22357823455285888, 0.5076032033853842, -0.18884072261175763, 1.8914287129314582, -0.29039906323540127, -0.39348209531483086, 1.3319308714301088, -1.680622657466264, -0.2683182424265516, -0.7565849143376862, 0.6237286631521818, -1.6250293443992974, -0.25286733849599907, 1.2546847295836412, 0.12375634822832321, 0.30714891116958626, -0.3700291735922275, 1.6502969351532122, -0.3317835611581471, 0.4649505464379378, -0.8517008690995023, -1.3975494894066467, -0.033994387177106185, -1.9958506789671617, -0.11184285504783568, 0.6988158332216411, -0.10262686158747289, -1.3635039040024353, 0.7522715989980049, -0.4975117219805887, 2.1606102160824316, 1.1174499192986025, 0.5633627633678798, 1.0756110354212591, 0.6473290287310167, -1.5142981422253161, 0.6072801054518883, -0.5861259180496149, 0.40204556254123786, -0.4451768008445322, 0.7363473816160097, 0.13518567371048268, 1.047545087507212, 2.3924826485429045, 0.349530694520792, 0.6719705270393006, 0.6110159919118874, 0.2469694447472961, -1.917116742656263, 0.37686457768492165, 2.6022800999006654, -0.4785967935459885, 0.054952814160653944, 0.2765233236590699, -0.3892311537782793, 0.9190698013194761, 0.2657050979844099, -1.0444200169250177, 0.8564136508583479, -0.8563567956720424, -0.31841551650980454, 0.36373570772392017, -0.5751496278829976, -0.9803091315635541, -0.39442871326356127, -1.9086668694738727, -2.371653662562524, 2.292099317945342, 0.5430731678135436, 0.34343702069881443, -0.2679250402319301, 0.5055382857432973, 1.896281982374335, -0.1842452051110166, -0.8410895590640802, -2.005636286874044, 1.5074732253981509, -0.17177726813119287, 2.56094083599039, 0.27736530227153594, -1.2501731339229427, -0.6400764357985711, 0.17786614013628355, -0.3760411610886451, 0.6174030330532709, 0.9708315975946125, -2.913270910949914, -0.44684833506348465, 0.7593598743393374, 0.195458103896281, -0.645706849062624, 1.2504565823989153, 0.15537405366740756, 0.6311603459756492, 1.292450141219996, 0.6905902344636694, 0.015235759580217396, -1.8351856362016072, 1.409672381320069, 0.6763223556470589, -1.204171940374144, 0.5275292455190351, 0.241457351231592, 0.48899121158693853, 1.6831646628306556, 0.46811664340885323, -0.46551721790563844, -0.7309334050505957, 0.12586947257280381, 1.0504240506932672, -1.539576709945258, -1.7118674743304179, -2.555177067211911, 1.6355213572518652, 0.816686413815199, 1.2626486443637237, -0.14382122670634723, 0.48271869556241753, -1.0256098987154818, -0.7504490927770197, -0.28829546930067973, 0.5958661141651461, -0.5886384018749853, 1.6965994447591726, -2.0477920799067686, -0.8772681256160134, -0.3226055251676749, -0.004609546511327558, 0.08557504898014051, 1.412275794255614, 1.0987405198779046, 0.21095036246071883, 1.5113523478652788, 0.25426574355084447, -0.4740010716905279, 1.0162904571465825, 0.39640514483001954, -0.24536917097699323, -0.4250885414820044, 1.3891888543717745, -0.611005183524056, 1.6473738844331862, 0.26999983161901525, -1.4441668741068083, 1.140707850323417, -0.11542473324424242, 0.04599256816165742, -0.8078999033795893, -0.3463739484119443, 0.9024592058992951, -1.306662166782984, 0.8714707425326178, 0.5750002512636825, 0.3870069775435234, 0.1459587500454569, 1.1982891491234002, 0.8633105737855585, 1.2732825859455847, 2.3363036953053835, 0.06002551680110687, -0.07421600839985339, 0.2650199646366924, -0.4112660026160171, -0.9953463784057375, 0.13872643721914354, -0.0026527931633138786, 2.2477234860022377, -1.218440963938138, -2.699078178349164, 0.7758251715052376, -0.8603628810797432, -1.0255328881784156, -0.5332672188395631, -0.1883475814543329, 0.4496647691265721, -0.5010761504064448, -1.155515365969199, 1.5953489680131396, 0.4704140313815892, -0.6319208144749411, 0.5604780904703003, -0.24390805208184774, -0.48965537304259743, -0.08151448245528516, 0.7362783069652823, 0.679545182328091, 0.7634352133845156, 0.2159141983577192, -0.3549283110851613, 1.801465337808781, 1.4031707613586684, -1.8872078241848178, 0.1913052921522862, -0.9815479955639244, -1.931261701098084, -1.289387742571481, -0.05188485931232052, -2.1763897056680483, 1.085046646119489, 1.460621763490538, -0.3146197496174502, -3.0555793946693623, 2.0407185703323867], [0.8939616113624803, 0.7332614591994867, -0.21644327416322737, -0.2824502255751217, -2.1398539055852304, -0.9493941393997055, 0.16825811678570984, -2.732538160446474, -0.4900069620634691, 0.09576293566677892, -0.7407776210609937, 0.18855529228332402, 0.9483547278668907, 1.063733871889987, 2.562037841451111, -0.39441962867574437, -1.8381290373556174, 0.6176755750408583, 0.4113622207184116, 0.47832891455098864, -1.6891657085119565, -0.4623038434952266, -1.3464344819846585, -1.2092543441675145, -0.9988355635624269, -1.1840123586806208, -1.9596289067936066, -0.05787677700578111, -0.2786115017121708, -0.16543844099543903, -0.7061034559274013, -1.171684204942373, 0.06599263945357521, 1.6506896543891052, 0.9183004671364431, 0.5204770153039964, 1.4043289909589873, 1.1275329319293035, -0.44245358016463726, -0.4182850348299614, -1.9266668449914455, -0.7319967891486113, 0.05370580376275266, 0.7390637431489164, -0.67977030727151, -0.3948583236714585, 0.45210855038068315, 0.6327959711533897, -1.3720110102252596, -0.27975140207564986, 0.5035130463738009, 0.40005256636869974, 1.1481582796195795, 0.6160482695238365, 0.08069384414885145, 1.2909523335452766, 0.552977296278499, -0.10695649305157043, 2.5892994993860428, 0.29144112467515443, -0.6918758553005897, -0.6382901031068574, 0.7124715035874387, 0.8778192143740665, 1.1985461255103889, -0.42825148824209286, -2.442011159441262, 0.488458989918337, 1.0548497583655336, 0.7322088696752178, 0.03379085168230536, 0.6639927193113548, -0.13939340642830306, 0.22486071157176596, -0.20214543305801033, 0.24995015347272642, 0.7280663145926723, 0.026268191046955502, 1.0675055899297843, -0.7241367993971902, -1.029047151009078, 1.117783958601504, -0.9868415448140271, -0.27383577730340913, -0.7249167895713146, -0.0037224491301616107, 0.8599291043284776, 0.3797430622106248, -0.5462675452939467, -1.3264936138470536, -0.6918051860792962, -1.619481182598165, 1.95541252435202, 0.0616201170525067, -0.28843754451603065, 0.24516592287488856, 1.7667546113410375, -0.4313611884319038, 0.7784105375572961, 0.10683815518623747, 0.4486780873088416, 1.528903703495391, 1.6887185800569289, 1.3169427971887024, 0.9842610471940143, 0.15156568938347256, -2.3396616166074824, 0.1823057274057103, 0.8515260101282668, 0.7299254998003285, 0.9025112379606128, -0.6720055995116532, -0.7411606279686864, 0.4869364351518606, -0.3335008241889856, 0.7194423496970055, -0.997767260576648, -0.30077243598370534, 0.5589725503411733, -0.4149052119746865, 0.3107265999807877, -1.0498764027574738, -0.39137672362637427, -1.4207513084654604, 1.7530927908558744, 0.5184760032295883, 1.0900850767960275, 1.6018216728474548, -0.06741815287580337, -0.5214292930290022, 1.0231992176928226, 0.6610873177900961, 0.3111137592212488, 0.9355083692402485, -1.4143227205756808, -1.0289641666392244, -1.1903346201728549, -0.7340934596330768, -0.4476531266224848, -0.582012446799597, -0.38584190517556377, 0.7599231082587808, 0.9914823615887519, 1.124332025356635, 0.4983148368198226, 0.34004495352020264, -0.8867687342646375, 0.17340240252680555, -1.2801071588777493, 0.3869745567932178, -0.2740745054467026, 1.3135612200270237, -1.417822637913868, 1.1524465694871495, -0.029445213626690395, 1.0116161793209653, -0.1621235194422986, -0.16251060497223246, -0.35999709225350895, 0.47678125349276634, 1.935819950941627, 0.6939219583903228, 0.20339056801209096, -0.9207575182125859, -0.8127788721357848, -0.42207808344631326, 0.5241477996331205, -1.8712015721670312, -0.6792222043973613, -0.2104315317815307, -0.5943963477100995, -0.8246568988829053, 1.9074105018824272, -0.5239653377783333, -0.9602073141737708, -1.1836151774854493, 1.6559945067462167, -0.23652042629488548, 0.19007385075294483, 0.9654096867444794, 0.5190643828776905, 1.665014213575151, 1.4703240260544537, 0.36774587831316247, 0.7525279133424474, 0.19986571604255862, -1.6218849724841942, -0.1584726124145444, 0.2326472457687741, -1.3577453378852797, 0.9208986564379679, 0.21554383315541753, -0.5009806375397537, 1.8091016386119072, 0.5990364648627139, -0.8297271273451684, -0.9186028795123123, -1.0438571491882658, 0.8829784217211807, -1.89546989850477, -0.10052846483844026, -1.208149113575839, -1.2377985438148646, 0.793962521219125, -0.42537296307930295, 1.064441758163266, 0.016503486754219254, 0.2692178528861772, 0.6901959803070566, 0.8548730779801602, 1.1743509629673863, 1.825266168784658, 0.4603195627353814, 0.09231366374154104, 0.18715234626888655, -1.2406819607050623, -1.033712543781635, 0.056212756388605414, 1.1328959421641618, 0.4823593556627083, 0.9968111241819892, 0.0947402247690994, -2.5922259606641123, -0.057804176709737656, -0.6731711468976561, -1.0501929316177019, -1.0119428996055264, 0.33392345827244224, 1.8369772024701927, 0.009812393292634355, 1.1221277568004147, -0.3313034509596196, 0.937951305095675, 0.5100381087154027, 1.8546230969794042, -0.026229963692632415, 1.5958135516379122, 0.9422586419022362, 1.6471918588511165, 1.1560471096756753, 0.34826465944357804, -0.010029693035659941, -2.2360719463843712, -0.9468235138589862, -2.2727154808068724, -0.3376010278231927, -0.33978215282282687, 1.2062103427684214, 0.646214549400587, 2.9160481646548932, 0.539402374072367, -0.06434136777823606, -0.797487154786799, -1.4128043592989212, -0.026452984474602304, -0.78898802825151, 0.4142499953279616, -2.03609586204169, -1.5554979149498134, -0.9998153740331522, 0.8811117844834294, 2.6503449903490894, 1.0783804526445826, -1.1031290086616476, -0.6745785827298244, -0.37824844822993936, 1.0711848430744328, -0.7762420549680222, 1.8344953768020438, -0.5875495414975143, -1.59600429525928, -0.8562847659194122, 0.8005625859108324, -0.017992959683202945, 0.03548690299236596, 1.019886024968988, 0.09824240044578969, 1.1884968477730788, 1.5333920109197006, -0.05492553536167181, 0.27438234772147985, -1.2402946327639408, -0.2566804484486266, 2.0194742105589087, -0.6642583671014946, 0.29326189345275405, -1.2538130425240357, -3.679149953058346, -0.3836149722877663, -1.6891968341059163, -1.5465990132124987, -0.11380457881323733, 0.26603494756516755, -0.7689721373649073, 1.4825899346222535, 1.855758930390921, 1.536565301823747, -1.6126249998514497, -1.5677960949626026, -1.678327752133679, -0.48239348158318834, -2.301998927915056, -0.7535004321949169, 0.43142277911579313, 0.4578359452271752, -2.1660619821928235, 1.5993180150724355, 1.3909117539045983, -1.6977267748356357, 1.626972938043984, -2.876264387384443, 0.2969608533620651, 0.2338732312453608, -0.3388558804885496, 0.4509925919817773, -0.37460633920682335, -0.4977005378727548, -1.982465054035365, -0.3679335045273328, 0.17425382810878895, -2.0094089006876517, -0.43696257589007664, 0.916927498532063, 2.0181733297030835, 1.3820806001403745, -2.228392825177262, -4.811013839518176, -0.4731148330069095, -2.0554463515557404, -0.2814992634587908, -0.17507532213141883, 2.4142482388811977, 0.5888790631541719, 0.2511121430962878, -1.389575696448378, 0.028050604436222693, -0.7880199536914555, 1.255939172902979, 0.1287119269436328, -0.7334919203585526, -0.02153000482027215, -0.41576660267995874, -0.8928146164768913, -1.6168089904403897, -0.14914272284711722, -0.04464300051433233, 1.3437758591759892, 1.123489213007174, 0.6132261993383784, 1.858916123079366, 2.5787016745679816, 2.4968847329509303, 0.019221919277683765, -1.2946661985083405, -2.0326412880097977, 0.5568727599425121, -0.44731191552088717, -0.7809959173168644, -0.22120799501774074, -0.763746358969798, -0.6231981666152125, 0.424902590469107, 0.450692561586854, 1.514791418054087, 1.8189140238604744, 1.7639302507113455, 1.9231305336805045, 0.43519113751522165, -0.9424217337044186, 1.618635745532267, -1.0646665530256059, -0.6417572352632296, 0.6217969978986431, 0.6882303105003326, 1.1572701114671016, 1.0951836289753867, 1.608139016826488, 0.27632719597080857, 1.5524184918325614, 1.74224730497, -0.7298422985741944, -2.160347336193677, -0.5550137886999311, -1.9488747181507484, 0.7313429057788188, -0.954287903060979, 0.8203710578681653, 0.41030565331777846, -1.594053945692786, 1.9156347267773821, -0.018168054151709787, -0.6083155974521502, 0.28642685627248093, 0.9460803222039267, -0.6752534058816443, 1.0237688141850332, -1.5196241795231358, -0.8543119444722086, -0.13951241612184268, 0.7692510690972814, -0.7671414948503901, -1.7132638037561507, -0.5086952752878139, -1.347814328622313, 0.310362675347474, -1.1338054377862261, 1.6166755442840774, -0.34647685489624064, -1.992562772652086, -3.523343744690501, -2.337755939389031, -0.7226930846123578, -1.6619099814223623, -0.5747615814483351, -0.012207711859574933, 0.2474403170697158, 0.7430973696153096, -1.0182200096256466, 0.23058419460526502, -0.029880933727390886, 0.8026707361699502, -0.5505436620084313, -1.1837262549096093, 0.4812733257963214, 1.1534883379769987, -0.7474884278133671, 1.832193446102077, 1.2551203325103537, 0.8765693494491608, -0.2891585711580086, 0.10101236640133202, 1.5011717242149456, 0.7317253443666035, 1.1700387316044185, 1.3124715191922278, 0.271898939236631, -0.05848050932087258, -2.9036929017224398, 0.25970449759960434, -0.560639993695072, 0.24705071985841032, 0.6034014779835749, -1.6237214418782369, 2.3387450925445314, 1.3321410138270218, -0.3158760991791628, 0.2275812159594794, 1.6113428773155676, -2.720556923229379, 0.7425688104500996, 0.2220413138356138, -0.060646555363881666, 2.822478761148858, -1.2610113438391108, -1.848180583492335, 1.5875736938731384, -2.2921304744769655, 0.14894535507120404, -0.1842988864133153, 1.6524971673231252, -1.610454193333813, 0.2926343433744087, 1.4157521543202094, -1.6377833068487537, -1.2599629769424912, -2.3716511186369624, -0.8128285890968411, -1.494863518713451, -2.2932460239345467, 0.946735087712802, -0.39639163257055415, 0.09184592796433909, 1.339213050445724, 0.6335537245767418, -1.9378692597056297, 1.0544356656499871, 0.8698152297338759, 0.9870560425689006, 0.2586125566615511, 0.24621631479385492, -1.2415327912696197, -0.8365861701057211, -0.06487186064557987, -1.045635094037104, -0.5199740208353483, 0.5699062391436025, 0.04579099848502487, 0.7877723629897657, 0.6001091331456336, -0.56360470698365, 0.792373208230268, -1.1306365821751116, -2.485526516080746, -0.6889771865135548, -2.043820659766188, -1.1561323735831357, 0.975475583819935, 0.4020182647171807, 0.0813228576958608, 0.9900943742031253, 1.4610139781297715, 0.23389874804257216, 0.976875591031036, -0.14450017863097842, -2.237428127212875, -0.6631280258036684, -0.002693015888889157, 1.2812552941915087, 1.398427101001427, -0.2417095939188102, 0.4818677627388289, 0.9822138824933145, 0.1355458078042641, 0.25606913842019946, -1.0427372558155714, 0.737357703490693, 0.9215901731064263, 0.8458090935389545, -0.37591664392698637, -2.3067247235684953, -0.8648710145144576, -0.722978775925728, -0.1611709834063187, 1.8291080203167518, 0.027273440206306853, 0.32900416428085966, -0.283699175565213, 1.0916884608293322, -0.47944460566320884, -1.366165721540352, -0.061102655421223506, -0.47388361690005126, -0.9398671953951222, 0.0016744140575847544, 0.41980094255438755, -0.5996211362828349, -0.5451878426827587, -0.49819182144427665, -0.4876362075125179, 0.9580276372820675, 0.2582903383815841, -0.36412401598255006, 0.6411494608199994, 1.39188451798286, 2.8638796257661983, 1.15872835100913, 0.7183394923043094, 1.6835283955726226, -1.4084391765720126, 1.2314478769853094, 0.05839570580419205, 1.4514075453925597, -0.6120055710918522, 0.5018340519070642, 1.2128308170734694, -0.3704649885699102, -0.9464573508005282, 0.8875569043457998, 1.9629218284340646, 0.037900945903055684, -1.5400246832135112, 0.07533005655566954, -1.0736544294531032, -0.5248941178487727, -1.0860749714786826, -0.2510477882036959, 1.2724654689161488, 1.6379378829796711, -1.4063965863711523, -0.10376158432074302, -0.6430606939531046, 0.8086029650199026, 1.2951314124067985, 1.5899095619275423, -0.27889961441841105, 1.2187240424535608, 0.5072192559849182, -0.2281874220544656, 0.7777534273156338, 0.12359382181905727, 0.9461390922431961, 1.5618030834964787, -0.08244722783376665, 0.04719600656568204, 0.3461710336603041, -0.3773807866860727, -0.5057758974560737, 0.6736032235028825, -0.49702918530570406, 1.018553345955021, -0.3432029624589726, 0.7327585651315066, 0.6649978341637319, -0.29212393875258263, -0.618392507279053, 1.5385208057597406, 1.0051802291703071, 0.2759395913450869, 0.3424106028715682, 2.7192071074540656, 0.6985004293682536, -0.2327734248206828, 1.7316492458378216, -0.19038158582757456, -2.2160413954089764, -0.34166935601172965, -0.2137801485039205, -0.8625229964039131, 0.1446854373177309, 0.4200757893879569, 1.0151772768150171, 0.998602984900087, 1.2603911927876552, -0.2753757002211917, 0.8623251675637456, -0.5170559778386202, 2.214076524034044, 0.6055797053948514, -0.11387159333149026, -0.27792283417066216, -1.2750689800306707, -1.9539903103927554, -0.26466211436041237, -1.4217179651279743, 1.9179148689019754, -1.1045474768746746, -1.19326471403194, 0.35035901723203267, 1.2642134328184509, 1.0229051027256204, 1.8366128014544243, 0.2875641320771429, -1.2108700701038708, -0.6979784517776264, 2.5005798205592473, -0.5491405125282159, -1.1145157384961342, -0.23312608448806582, 0.3857780047532231, -0.04323454926481045, -2.6605622898824617, -0.35292561080238927, 0.43521642004058675, 0.4968916074110471, -1.0031843666697724, -0.24610714584123888, -0.987932443192412, 0.5373812721988264, -0.6298881846122997, -0.6226033272449677, 0.4013773199545159, -0.7263212501466527, -0.068727083799284, 1.0110815121580083, 0.1771472532238506, 2.44479016823063, 1.2910585683271136, 0.06834881645485735, 1.976975854520345, -0.09344331892817855, 0.45141822321598235, 1.292343175637682, 0.11794762173897774, 1.3632207883563585, -0.2429364818846614, -1.2449112398151798, -1.5477426153928655, -0.48826414015454017, -0.3294477666947802, -0.8194301413297316, -0.6246891049573479, 2.0752399608744554, 0.6852497319456013, 0.07933930432170379, 2.957226540056983, 1.7487899309676485, 0.5782985603328439, 0.3613584760743849, -0.19935039647804126, 1.0447154999727828, 1.1131677569403198, -1.5439811096259493, -0.7508104122021138, 1.0645363428850794, 2.2251912492263943, 1.3876307129555532, 1.3419925267663069, 0.8355220647301294, 0.28221409901101385, -0.3364765628741831, 0.67114573639143, 0.6117592921443483, 0.7544038709352906, -2.5813157635767148, 0.10628338995743086, 0.4333735880042757, 0.9868406505238209, -0.6620286248168298, -0.9662527748409091, -1.7102299950508137, 0.2492382763734606, -0.7557215073092709, 1.2536564857092989, 0.985052833655278, -0.3384077881400898, -1.7521005559557885, 1.2008281646876093, -1.2040737544041835, -0.3796874000552827, -1.2676522855926113, 0.2882944939206243, 0.31172431390221095, 1.8082323353074747, 0.6988853599261823, 0.8859376298509686, -0.04104110056707052, 2.810251844244213, -1.1704344562656752, 1.1871066875461835, 0.9760721725280092, 1.4616023907451186, 2.3591671216482277, 0.014398862429543746, -0.3810707903070345, -1.5685903655197264, -0.14457613170528633, 0.4772354916489431, -0.9720262286484097, -0.8235503350975922, -0.3803108627766784, 0.09115197348825045, -1.097133849212414, 1.2357203359737565, -1.5629772660410572, -0.4370633149239536, -1.0121387050716795, 0.07592442626389706, -0.969250697603037, -0.4219549744946826, 1.275556835323202, -0.6479234889219959, 0.5727066860605681, 0.3568197930680056, -0.5517008433423622, -0.25411159155679997, -0.23052154964817423, -1.614693568608254, -0.9327213361120964, 0.9888887475005481, -0.5087663702091987, 0.29126955392873954, 2.194112114093046, -0.3796836103619046, -0.01233935117015603, 0.042651191807324414, -0.35564048962010353, 0.04138175734358777, -0.36187854865018226, 1.1062422533298657, 0.5032837505528103, -0.24716850110250588, 0.6684633410147546, -1.3367783119698358, 1.3813623712566343, -0.24449154126936196, 0.42749372514136064, -0.21989136616135535, 0.46996890245089795, 0.16349415751625032, 0.07732711131982879, -1.1862575097238202, 1.3071514511666262, -0.4733922326613952, -2.0061394196919933, 0.5730043181298033, 0.8372489872981799, 0.4137561770924022, 2.1073707445943723, -0.27448313334573027, 0.1753759783304504, -1.7004667919115455, -0.03898188166518649, 0.6679564158584318, -0.6604860742948607], [-1.5752454938774887, 0.4202962149980295, 0.8049549650943878, 0.5331483631626073, 0.8653200027101596, -0.11274620270815325, 0.11818530075086249, -0.4126712597228936, -0.03061446085958591, 0.45286926110487985, -0.4807078169324956, 1.2228941810670488, 0.90300273184377, 0.7876979911174465, -1.4888308339560752, -0.12262415013678049, -1.4752179157881864, -2.777607396712031, 1.0247164626690533, 1.9586097362816588, -0.1743240835808619, -1.2439558583528956, -1.1737497956479805, -0.46865802586007654, -1.4890014505632985, 1.0804531380125189, 0.2003883063022516, 0.2173207834266145, 0.5238083565509566, -1.4748963633430405, -1.2238931670608224, -0.4343446647073702, -0.7355793396476402, 0.47293612212652625, 0.24116563790800716, -0.5405085557240363, 0.34491721285050725, 0.5263760019108639, -0.809854760874279, 0.5683185656603809, 1.612202396510055, 0.29861509030236827, -0.10724300208027879, 0.6386164081171457, 0.1277130986407491, 1.9814430888560153, 0.6161968571172493, -0.4221842283299181, 0.7535666094073571, -0.2551506863669595, -1.0871831173477131, -1.2963328689466849, -0.567222862849559, 0.6533782406242734, 0.6014967970621431, 0.648069765061053, -2.3713647333630186, 0.6395451641098704, 0.18759490457220107, 0.693021633821188, -2.142413713767295, 0.010566660420316665, -0.03733864228648731, -0.2326331021008662, -0.08875581322868611, -1.094663793424755, 1.3683070101359192, 0.570333663610821, 0.5236872949480564, 0.9852637881807977, 1.3783595995740594, 1.295658784982601, 0.2924869643202717, 0.3838818957361089, 1.176293551444243, 0.7549488542725188, -0.32634269900004853, -0.4774916435414731, -0.20803190983213438, -3.664315146614359, -1.2439239366304953, -0.6989234565024451, -1.6644341485737086, 0.4859862779666794, -0.5682036614724808, -0.3128944910389509, -0.01135056364713232, 0.12319957083770827, -0.6631618746743339, -1.2252386311610042, 0.667517012125358, 0.017753035993648116, 0.2551926977798356, -0.27749931657597965, 1.6456147904232843, -1.1755574330886165, 0.027688675057655515, -0.9223100608793762, -1.7169015886169612, 0.48390335136239065, -1.9665879381713272, -1.0715470282496375, -0.6002474715667887, -1.0964723699411156, 0.11731554534670732, -0.5541208134309481, -0.22084299833216625, -1.6926780973189461, -0.44973647384453774, 1.5076007950016306, -1.243742323486434, -1.245819954065223, 0.8752534039697345, -0.3066864405701651, 0.20767882464058243, 0.08177981876389723, 0.83780152872711, -0.2759141908418067, 0.2803855156205838, 0.17096086344241487, -0.5476067992169135, -0.5090343373017667, -2.0919451293767835, 0.7944701357286585, 1.102915457607589, 0.25557868986464405, -0.4105939042136971, 0.587097523870012, 0.9447367848743492, -1.8191721309676576, 0.28367305008966515, -0.8559148269516951, 0.07733188140996781, -0.14407814185053616, 0.05646950719415361, 0.5523312122189481, -0.5025984168396948, -0.1569463766307601, 1.0768540440914578, 0.16008642401977094, 1.4909227055772694, -1.3987409235826358, 0.4697926208960837, 0.7753740874866722, 0.8709122636942352, 1.4313359134335804, 0.17541436520924072, 0.6497221772382844, 0.03354369537188519, -0.018018885972560683, 0.2773145705595405, 0.12224329972279578, 0.8430901782911958, 1.1855121419422128, 0.0805724897158708, -3.302136705687184, -0.6532474584013159, -1.6444845168556912, -1.1361285632728206, 0.0063449844618636425, 0.19567007526759525, 1.145629538863816, -0.16484275445320834, -0.6683154596822481, -0.6377266414276705, 0.9464931982722875, 0.5263847138803054, -1.7225738581380337, 0.2612655645311625, -0.10219110201867122, 1.6633666059333425, 1.095514974344366, 1.0754228529810472, -1.557060066691844, -0.4734240640417912, 0.4825068364971492, 0.2868048654015403, 0.37015880936298196, 0.2520371077736551, 1.2951521963488943, 2.5561208725922415, -1.7142600410650186, -1.7111771982267194, -0.8753399724005755, -2.033373170458606, -1.0337515029529962, 0.5057015254948819, 0.3917481448809427, -1.645173690375075, 1.5407116491929316, 0.03162666714080047, -1.3241708127591871, 0.05875963886687103, 0.9561624734994395, -2.626797910476288, -2.2790757672910043, -0.632146703988544, 1.6220607440631958, 0.2058449991814293, 0.21335773921627413, 0.3054940526100479, -0.28175601929829364, -0.08475643594655977, 0.737133926291323, -0.0429959715030022, 1.7364156767847023, 1.392728774204542, 0.9186698190675541, 1.1535353158103356, -0.617409623255002, -2.1094909696971103, -0.7837406812715936, 0.7695719519389754, -0.4907978026776192, -0.040721087762840176, 1.5293499450447121, 0.33820722935929814, -0.6588726753595431, -0.25253398504969077, -0.0225960303125345, 0.8564199800334423, -0.29900382861916613, 0.42444364570216536, -0.9342769726832912, 0.47634960282839284, -1.0457126151538783, -0.08097099423587488, 0.06400679352978368, -0.2795793431259508, -1.3325593882531963, 1.371248900056796, -0.7327590965347478, -0.08675412767253939, -0.33265579027340353, 0.3750884273739664, 2.014168539372639, 0.6762420440397258, -2.467297184885182, -1.0723178766158987, -0.3952952109537546, -0.44633529672757816, -0.7954998976168264, -0.8214259488627322, 0.3645313949428536, -0.09713458959987617, -0.15564232464515765, 0.8645383067554195, 1.0592201845100078, 0.27053731398167924, -1.3943029712319372, 0.4594876462670951, 0.07316008728376887, 0.4778962649910688, -1.3261967253440512, -0.8825939362971935, -0.6236342659700549, -0.8659641207320298, -2.3148572224010597, 0.5006178078720057, -0.964784250047015, -0.0354579084749162, 0.5409804885854663, 1.3134196165817225, 1.5461195504432796, -0.05531311937570085, -4.940562290560175, -2.2364161132312192, -0.2869342780594199, -1.551462908186921, -1.2310226778522528, -0.6665514477921397, -0.3540657373281522, 0.8751518714497947, -1.9268792684075928, -1.5854978089020808, 1.31361489147618, 1.4011973414019474, -1.7530974600608993, -0.8892917313779588, -1.1488411728782277, -2.136062909090559, -0.12261358698624994, -0.6521972969585457, -0.8481323104751117, -0.6888516507702315, 0.46517866050368173, 0.9601431504945541, 1.351978385889166, -0.27644754880075345, 2.504961854329688, 4.7780506815993125, 2.397889832246743, 2.5250097722876443, -1.1916608275308025, -6.3345685751505245, -1.2308383714595725, -1.1045720957493408, 0.5583473036878712, 0.3084878089332393, -2.2212610042245595, -0.539566984121524, 1.4562930969889247, 0.38167233317945365, 0.23383297872586445, 2.3710230519543094, 1.6356928267789654, 0.25881638656343925, 1.0502018066909216, 1.064771541930077, -0.20122500841547614, 2.338287916263582, -0.42983029400764927, 0.938204836752093, 0.4678845149671164, 2.085481862994573, 2.6101719931031937, 2.0299105437853973, 1.805715130900541, 3.4085392410441333, 2.8827353761437693, 2.6300406489122117, -1.1553747352277444, -1.476968150364216, 1.2823248389984103, -1.1937861610699252, -0.3287853449385152, -1.1560551109932906, -0.1455982709101904, -0.8452818943974744, -0.020800298140331023, -1.4377066165523125, 0.647680370577089, 0.6987755037941102, -0.3009466372637797, 1.5062101788332098, 0.03154727620766149, 1.2888212206249838, -1.1406409886193258, 1.5859127965608404, -0.08968315598662394, 0.2174747858160582, 1.6713827589057018, -0.05691532636910031, 2.9716288104796473, 1.107818825065509, 2.4158047083636895, 0.36409869791318916, 1.1692800355111208, 0.7589925082402712, -1.0594760286797187, -1.415394858697894, 1.470649694731343, -1.469755923922741, 0.1280320363602834, 0.22567716601395132, 0.9593583941214192, 0.5670414663602962, 1.3972640423970875, 1.7033386206800056, 0.20406758093213145, 0.21160230811748237, -1.8813009764475614, 1.878054633853087, 0.42496122104075107, 0.201807086795485, 0.7228785492817072, -0.05680468299183845, 0.7958850603653687, 2.183225703489597, 1.711574945841761, 1.9258454166649634, 2.225131018186987, 2.1760527760654234, 3.7777057893773835, -0.3992092263018823, -0.26715937265912443, 2.6453963258292856, 0.17495395282874865, -0.1629293277851796, 0.03662857731361284, -0.4725318164084916, -0.17103131937448218, 0.4438284011105772, -2.1974809018382104, 0.38456156667565466, -0.1820487634941379, 1.3352756045695142, -0.4909532647305236, 0.3403668018044566, -0.8663678063294051, 0.9084113116595867, 2.2972552937012867, 0.07053332978753077, 0.04874188731540734, 0.8543127957552149, 0.6939004219725683, 1.8966574644986374, 2.440129228951951, 0.0739220605930837, 1.7037587501102294, 1.5676566325222265, 2.0917096331177447, 1.1100270447875549, -0.9486133811706466, 1.7163587659403758, -0.15157493467449948, -1.839109729589886, -0.178252964285315, -0.17670313615626465, 0.8076074859350842, 1.8547540706662342, -0.5791737646818241, -1.6891749978431865, 0.2805856181713933, 1.4310998032489666, 0.9554200997570925, 0.5528429395675559, 0.10528134052277971, -0.03392514404317714, 0.6683542390824907, -2.291983732035422, 0.22448126654471348, 0.5150188117865724, -1.8858884062286385, 1.2293261431179667, 1.3201007561577547, -1.49179819634938, 0.7425153300687612, 1.3711896934251386, 1.1005166986216244, 2.731367475216467, 2.6898935894137037, 2.1568947023032985, 0.5388931565328632, -0.5474625291072956, -1.256208293556143, -0.3544340469024884, 1.0688093610146754, 1.8753744097672733, 2.382206825129042, 1.9425219235801967, -0.46091939353759437, -1.0873785253563444, -0.8381104224649543, -2.1290867335645816, 0.27124972505467126, -1.1554038916282354, -0.25045626496979956, 2.3953309474527495, -0.5615083445778711, -1.7819189153682444, 0.09679768828389264, 0.4651795654208146, -0.40310193290965135, -0.48320877539671375, 0.9885794781146224, 0.8590043461863596, 0.3491788197220865, 0.8242281555787698, 2.317352563305531, 0.8005460530780156, 0.9888228862092027, -0.37439965148753557, -1.9203549859064195, 1.578843982386947, -0.6215601885984006, -0.2686587491586199, 0.40698669619610267, -2.2964120513649444, 1.014585603051231, -1.6682256865963847, 1.0082935783699687, -1.4784105254941031, -0.5052687814155012, 1.5316143488727205, 0.11620295195368743, 0.3301796516234402, 0.29251447524240143, 1.0102126714065505, 0.11518126761480628, -2.3652454168980097, -1.1915313474349674, -1.274095098851728, -1.9927326105901764, 1.5646176634347195, -0.40203284278182316, -0.7902745639197546, 4.281272561538465, -0.04929495329713612, 0.15044491647598474, -0.11654007506216675, -1.9228376221380727, 1.3460123424510142, -0.3878702966791844, -0.43704832335853894, -2.15327949181341, -1.1036161601977637, -0.2114294377939766, 1.3126806588216802, -1.6295760550477545, -0.00758245379681799, -1.3769893466955476, -0.14244693370338643, -1.253539499208833, -1.804384610353829, 0.4050611393746347, 0.5551040832363311, -0.5620973270697605, -0.8400633348008768, -2.069232769772108, 0.3094390754668183, -0.025716711481836785, -0.49594529094562334, -1.6598422280593075, -0.5864764382634801, 1.192099952950703, 1.3336284681728054, 0.7268957170691039, -0.04384907452990618, -3.091403128820482, -1.0086557307616915, -0.7110854740074938, -0.6000932969950775, 0.21518292565909675, 0.2575494346435522, 1.157179745437217, 0.25502788564444057, -1.3187689495597121, -0.03574408323159109, 0.07011409424848813, -0.3417824068669863, 0.4452930533244483, -0.0461442796801752, -1.7471684047753713, -0.8835295783242092, 0.2856685982747394, -0.6357557614014093, 0.9736477804395326, -0.5566853506556633, 0.8217039559551026, -1.896658330870208, 0.09897152883005718, -1.0160077526420224, -1.1062008517755753, 0.7765230505603701, -0.2078050911600282, -0.157127840386974, -0.0009484963557752431, -1.1753808002298218, -0.917275071290709, 1.9726423609533175, 0.09691301801837558, -0.7870772137413604, -0.24042963121022468, -0.8015244198213132, -1.5756271314933055, -1.4442346433354591, -0.11958599395217206, 1.4317117781999429, 0.9835489577707851, 0.2200268212202202, 1.376575760220282, -0.0024225470870425994, -2.2315472380849046, -1.5760979114971698, -0.8126921267850783, -0.6265172700308016, 0.35667893526923017, -0.5706550265234299, -0.929499411220186, -0.5730284251218681, -0.888289504587795, 0.12734770962932657, 0.345081378632395, 0.26208974762078613, -1.9402280674143004, 0.1337960376907147, -0.3495628791591907, -0.5942346722769649, -0.8463749161004795, -0.928961285595818, -0.19675670453221714, 0.20435181262515403, 0.03217591276810714, -0.8859737996857778, 0.6592488061958957, 1.0891092773285485, -0.24650610772751574, -0.5142511274604119, -0.7239221850610239, 0.35239380789364205, 0.3934418513836423, 1.286269354107516, 1.3385189523368093, 1.065733378551645, -1.0636183896634257, -0.473481147779526, 0.013440686284372479, 0.4556353744915194, 0.22923793158313627, 0.6470889469386679, 0.16353815616989645, -0.06281027758724837, 0.21132994749935843, 1.2563070693064116, -0.19285617187763546, -1.826456598750129, -0.8241725806163296, -0.9190385194254873, 0.989489563783559, 0.4333535660130912, -1.0229184753748606, -1.4103465601977063, -0.1422986446553467, -0.5994601969926122, -0.7530445857156233, 0.0024642717992264694, 0.11950483454903973, 1.0985480564795038, -1.1321072139433404, 0.6111167590251769, 0.044765202969202236, -0.34001048724568644, 0.49041193308554976, 1.2298488383561046, 0.011062880837488298, -0.6367934045340046, -1.571382861147248, 0.053186470161971706, -0.7833599276264349, 0.5331416724829832, 1.4711881566299396, -1.4983471768902104, 0.8523818915566557, 1.285182316442343, -0.6499901806073777, 0.2911196451915568, 0.22876129030517522, -1.0914827750376526, -1.05966716659465, 1.8018068907392721, -0.9496531784624119, 2.3208345251558495, -0.5100931679782316, -0.05207809962505665, 0.9072091937001076, -0.587560334341142, 1.225177253699414, -1.4948733355553294, 0.6087568321458567, -0.4605434527109464, -0.567355196672184, -0.7470995235868042, -0.1126516620608192, -0.7346234270430105, 0.942317984745791, -0.13792867018433794, 0.049977276919852494, 0.7033226244850749, 1.0177638566256713, 0.06219835364541463, 0.47226302285988925, 0.30590481862565844, 1.1736947842601, 0.46249534110988927, -0.3768980672013579, -0.9915909678969878, 0.39443548164136266, -1.0839343051095223, -0.5826480849275852, -0.2321432845128468, -1.3208097497243225, -0.953731973531724, -0.07387322792262128, -0.19865066148314423, -1.3216097094583463, 0.02123060754734818, -1.9146790792373105, 0.8530497043279077, -1.5959268327576883, 0.7465961059818281, 1.0409886323962991, -0.37919453776904705, 1.8087441131269215, -1.2466357460155513, -0.577739350735877, -0.4196364528698915, 0.0011256475691738348, -0.1046386579994045, -0.04671261549676098, 1.0244572068574687, 1.0118269937539284, 0.46449323898041384, -0.7414425403688355, -0.022365253855691537, -0.35678085726669856, -0.5339233829265047, 0.802265556967748, -1.0902116925948813, 0.6728442585474504, 0.4854122159508645, -2.407641284499239, 0.16770431159369983, 0.274621057273526, 1.6086420051354986, -0.3877823215347023, -0.6452986097424, -0.28481723804525594, 0.10707889526872613, -1.2343668167473036, -0.6190161254214286, -1.97741768340741, -1.8596688055099013, -0.46914266988183184, -0.7441179035926531, 0.8424696361652326, 0.2525112002477491, 2.3364043687132683, 0.5191475694506872, -0.799097270455814, -0.47278491705841796, -0.4080746029513732, -0.07412080623791982, -0.2799522708381306, 0.9821627603604568, 0.7948319838684594, 0.31289673473527424, -0.3158003868951587, -1.6559126055295879, 0.5492744988482922, 